{"learner":{"attributes":{"scikit_learn":"{\"_estimator_type\": \"classifier\"}"},"feature_names":["passing_yards_L3","passing_yards_L5","passing_yards_L10","pass_tds_L3","pass_tds_L5","completions_L3","completions_L5","attempts_L3","attempts_L5","opponent_def_rank","is_home","days_rest"],"feature_types":["float","float","float","float","float","float","float","float","float","int","int","int"],"gradient_booster":{"model":{"gbtree_model_param":{"num_parallel_tree":"1","num_trees":"100"},"iteration_indptr":[0,1,2,3,4,5,6,7,8,9,10,11,12,13,14,15,16,17,18,19,20,21,22,23,24,25,26,27,28,29,30,31,32,33,34,35,36,37,38,39,40,41,42,43,44,45,46,47,48,49,50,51,52,53,54,55,56,57,58,59,60,61,62,63,64,65,66,67,68,69,70,71,72,73,74,75,76,77,78,79,80,81,82,83,84,85,86,87,88,89,90,91,92,93,94,95,96,97,98,99,100],"tree_info":[0,0,0,0,0,0,0,0,0,0,0,0,0,0,0,0,0,0,0,0,0,0,0,0,0,0,0,0,0,0,0,0,0,0,0,0,0,0,0,0,0,0,0,0,0,0,0,0,0,0,0,0,0,0,0,0,0,0,0,0,0,0,0,0,0,0,0,0,0,0,0,0,0,0,0,0,0,0,0,0,0,0,0,0,0,0,0,0,0,0,0,0,0,0,0,0,0,0,0,0],"trees":[{"base_weights":[-1.2491474E-8,-1.2432231E0,4.04732E-1,-1.7815987E0,-9.104935E-1,-1.2685913E-3,8.4272057E-1,-1.9309105E-1,-1.4594929E0,-9.8247856E-1,-1.6569093E-1,-3.665175E-1,1.15385406E-1,6.134357E-1,1.1852173E0,-1.3134916E-2,-1.5317072E-1,-1.0795559E-1,-6.328674E-2,2.498237E-3,-1E-1,-9.844249E-3,-7.295864E-2,1.2947221E-1,8.165818E-3,3.7464585E-2,7.567825E-2,4.1718043E-2,1.2760928E-1],"categories":[],"categories_nodes":[],"categories_segments":[],"categories_sizes":[],"default_left":[0,0,0,0,0,0,0,0,0,0,0,0,0,0,0,0,0,0,0,0,0,0,0,0,0,0,0,0,0],"id":0,"left_children":[1,3,5,7,9,11,13,-1,15,17,19,21,23,25,27,-1,-1,-1,-1,-1,-1,-1,-1,-1,-1,-1,-1,-1,-1],"loss_changes":[3.4744034E2,2.8756134E1,9.263216E1,2.468872E-1,5.5661926E0,1.1602961E1,1.8951447E1,0E0,2.1276283E0,2.6168518E0,1.7144434E0,6.344117E0,8.104321E0,4.925373E0,6.4062347E0,0E0,0E0,0E0,0E0,0E0,0E0,0E0,0E0,0E0,0E0,0E0,0E0,0E0,0E0],"parents":[2147483647,0,0,1,1,2,2,3,3,4,4,5,5,6,6,8,8,9,9,10,10,11,11,12,12,13,13,14,14],"right_children":[2,4,6,8,10,12,14,-1,16,18,20,22,24,26,28,-1,-1,-1,-1,-1,-1,-1,-1,-1,-1,-1,-1,-1,-1],"split_conditions":[1.5E1,4.3333332E1,2.36E2,1.3333334E0,1.7E1,1.8E2,2.69E2,-1.9309105E-1,9E0,1E0,1.7425E2,3.12E1,1.5333333E1,1.6E0,3.35E1,-1.3134916E-2,-1.5317072E-1,-1.0795559E-1,-6.328674E-2,2.498237E-3,-1E-1,-9.844249E-3,-7.295864E-2,1.2947221E-1,8.165818E-3,3.7464585E-2,7.567825E-2,4.1718043E-2,1.2760928E-1],"split_indices":[6,0,2,5,5,0,2,0,0,4,1,8,5,4,7,0,0,0,0,0,0,0,0,0,0,0,0,0,0],"split_type":[0,0,0,0,0,0,0,0,0,0,0,0,0,0,0,0,0,0,0,0,0,0,0,0,0,0,0,0,0],"sum_hessian":[6.885E2,1.685844E2,5.199156E2,6.272966E1,1.0585473E2,2.703279E2,2.495877E2,3.9448643E1,2.3281015E1,9.6234566E1,9.620168E0,6.491965E1,2.0540825E2,1.511747E2,9.841301E1,1.3459319E0,2.1935083E1,7.36861E1,2.2548471E1,8.620168E0,1E0,3.8076603E1,2.6843046E1,4.671523E0,2.0073672E2,5.806405E1,9.311065E1,1.1003895E1,8.740912E1],"tree_param":{"num_deleted":"0","num_feature":"12","num_nodes":"29","size_leaf_vector":"1"}},{"base_weights":[-4.5114147E-4,-1.1277053E0,3.65344E-1,-1.6221157E0,-8.238819E-1,-9.399141E-4,7.612097E-1,-1.7590682E-1,-1.3276732E0,-8.882394E-1,-1.5834782E-1,-1.0273969E0,3.6317248E-2,5.534178E-1,1.0724314E0,-1.2381645E-2,-1.3932858E-1,-9.7594894E-2,-5.7283707E-2,-4.4979133E-2,3.07006E-2,5.1457483E-2,-1.425596E-1,-2.6966756E-2,1.276047E-2,8.129336E-2,4.312332E-2,3.790944E-2,1.1547329E-1],"categories":[],"categories_nodes":[],"categories_segments":[],"categories_sizes":[],"default_left":[0,0,0,0,0,0,0,0,0,0,0,0,0,0,0,0,0,0,0,0,0,0,0,0,0,0,0,0,0],"id":1,"left_children":[1,3,5,7,9,11,13,-1,15,17,19,21,23,25,27,-1,-1,-1,-1,-1,-1,-1,-1,-1,-1,-1,-1,-1,-1],"loss_changes":[2.8418484E2,2.4027328E1,7.545006E1,2.144928E-1,4.425911E0,1.0411396E1,1.5578644E1,0E0,1.7352753E0,2.1242752E0,1.5781014E0,6.588463E0,7.373218E0,4.4698486E0,5.2145004E0,0E0,0E0,0E0,0E0,0E0,0E0,0E0,0E0,0E0,0E0,0E0,0E0,0E0,0E0],"parents":[2147483647,0,0,1,1,2,2,3,3,4,4,5,5,6,6,8,8,9,9,10,10,11,11,12,12,13,13,14,14],"right_children":[2,4,6,8,10,12,14,-1,16,18,20,22,24,26,28,-1,-1,-1,-1,-1,-1,-1,-1,-1,-1,-1,-1,-1,-1],"split_conditions":[1.5E1,4.3333332E1,2.36E2,1.3333334E0,1.7E1,1.361E2,2.69E2,-1.7590682E-1,9E0,1E0,2.42E1,1.58E1,1.8E2,2.394E2,3.35E1,-1.2381645E-2,-1.3932858E-1,-9.7594894E-2,-5.7283707E-2,-4.4979133E-2,3.07006E-2,5.1457483E-2,-1.425596E-1,-2.6966756E-2,1.276047E-2,8.129336E-2,4.312332E-2,3.790944E-2,1.1547329E-1],"split_indices":[6,0,2,5,5,2,2,0,0,4,8,6,0,1,7,0,0,0,0,0,0,0,0,0,0,0,0,0,0],"split_type":[0,0,0,0,0,0,0,0,0,0,0,0,0,0,0,0,0,0,0,0,0,0,0,0,0,0,0,0,0],"sum_hessian":[6.871943E2,1.6785141E2,5.193429E2,6.2236023E1,1.0561539E2,2.7026843E2,2.4907448E2,3.9083218E1,2.3152803E1,9.599773E1,9.617658E0,8.535464E0,2.6173294E2,1.5102113E2,9.8053345E1,1.3458738E0,2.180693E1,7.347182E1,2.2525908E1,5.9344506E0,3.6832073E0,1.6918292E0,6.8436346E0,5.9693447E1,2.020395E2,4.653312E1,1.04488014E2,1.0999108E1,8.705424E1],"tree_param":{"num_deleted":"0","num_feature":"12","num_nodes":"29","size_leaf_vector":"1"}},{"base_weights":[-9.786878E-4,-1.0302104E0,3.3014524E-1,-1.4668794E0,-7.270865E-1,-1.244334E-3,6.9003946E-1,-1.6151679E-1,-1.1871395E0,-7.5610703E-1,4.139425E-1,-9.388434E-1,3.263782E-2,4.871675E-1,9.591073E-1,-1.1672118E-2,-1.23847544E-1,-8.272084E-2,-3.5755754E-2,5.4716807E-2,8.642766E-3,4.8243433E-2,-1.3087694E-1,-5.2803863E-2,7.7373604E-3,5.7371408E-2,1.0553242E-2,2.6087165E-2,1.0576172E-1],"categories":[],"categories_nodes":[],"categories_segments":[],"categories_sizes":[],"default_left":[0,0,0,0,0,0,0,0,0,0,0,0,0,0,0,0,0,0,0,0,0,0,0,0,0,0,0,0,0],"id":2,"left_children":[1,3,5,7,9,11,13,-1,15,17,19,21,23,25,27,-1,-1,-1,-1,-1,-1,-1,-1,-1,-1,-1,-1,-1,-1],"loss_changes":[2.3374843E2,2.1031555E1,6.189097E1,8.7942505E-1,3.6417198E0,8.64486E0,1.3112045E1,0E0,1.3463554E0,2.4922256E0,8.9698136E-2,5.6213665E0,6.6292353E0,4.6911125E0,7.00856E0,0E0,0E0,0E0,0E0,0E0,0E0,0E0,0E0,0E0,0E0,0E0,0E0,0E0,0E0],"parents":[2147483647,0,0,1,1,2,2,3,3,4,4,5,5,6,6,8,8,9,9,10,10,11,11,12,12,13,13,14,14],"right_children":[2,4,6,8,10,12,14,-1,16,18,20,22,24,26,28,-1,-1,-1,-1,-1,-1,-1,-1,-1,-1,-1,-1,-1,-1],"split_conditions":[1.5E1,9.666667E0,2.36E2,1.5E0,1.9333334E1,1.361E2,2.672E2,-1.6151679E-1,9E0,1.3333334E0,2.46E1,1.58E1,5E-1,4.05E1,3.35E1,-1.1672118E-2,-1.23847544E-1,-8.272084E-2,-3.5755754E-2,5.4716807E-2,8.642766E-3,4.8243433E-2,-1.3087694E-1,-5.2803863E-2,7.7373604E-3,5.7371408E-2,1.0553242E-2,2.6087165E-2,1.0576172E-1],"split_indices":[6,7,2,5,5,2,2,0,0,3,8,6,4,7,7,0,0,0,0,0,0,0,0,0,0,0,0,0,0],"split_type":[0,0,0,0,0,0,0,0,0,0,0,0,0,0,0,0,0,0,0,0,0,0,0,0,0,0,0,0,0],"sum_hessian":[6.8387695E2,1.6594847E2,5.179285E2,6.642292E1,9.952555E1,2.701613E2,2.4776721E2,4.0291042E1,2.613188E1,9.738602E1,2.1395385E0,8.490832E0,2.6167044E2,1.4286235E2,1.0490486E2,1.3457128E0,2.4786167E1,8.172984E1,1.5656174E1,1.0441396E0,1.0953989E0,1.6907463E0,6.8000865E0,1.8537338E1,2.4313312E2,1.1604301E2,2.6819345E1,1.3421539E1,9.148332E1],"tree_param":{"num_deleted":"0","num_feature":"12","num_nodes":"29","size_leaf_vector":"1"}},{"base_weights":[-1.4321124E-3,-9.45548E-1,2.985858E-1,-1.3973598E0,-6.7792225E-1,-1.6152383E-3,6.2694216E-1,-1.5255706E-1,-1.1300265E0,-7.339945E-1,-1.0885252E-1,-8.4051915E-2,3.3375442E-1,4.363899E-1,8.7180674E-1,-1.1003705E-2,-1.1873752E-1,-6.386604E-2,-1.0240163E-1,9.119479E-3,-8.134398E-2,-3.378802E-2,3.9691767E-3,1.1622294E-1,1.9778896E-2,6.72372E-2,3.1647936E-2,2.7955104E-2,9.5645934E-2],"categories":[],"categories_nodes":[],"categories_segments":[],"categories_sizes":[],"default_left":[0,0,0,0,0,0,0,0,0,0,0,0,0,0,0,0,0,0,0,0,0,0,0,0,0,0,0,0,0],"id":3,"left_children":[1,3,5,7,9,11,13,-1,15,17,19,21,23,25,27,-1,-1,-1,-1,-1,-1,-1,-1,-1,-1,-1,-1,-1,-1],"loss_changes":[1.9293565E2,1.8913864E1,5.0952744E1,3.3802032E-1,3.2735977E0,7.520907E0,1.1138512E1,0E0,1.2356033E0,1.9863434E0,1.5683589E0,6.8715553E0,5.816391E0,3.7723942E0,5.0990295E0,0E0,0E0,0E0,0E0,0E0,0E0,0E0,0E0,0E0,0E0,0E0,0E0,0E0,0E0],"parents":[2147483647,0,0,1,1,2,2,3,3,4,4,5,5,6,6,8,8,9,9,10,10,11,11,12,12,13,13,14,14],"right_children":[2,4,6,8,10,12,14,-1,16,18,20,22,24,26,28,-1,-1,-1,-1,-1,-1,-1,-1,-1,-1,-1,-1,-1,-1],"split_conditions":[1.5E1,4.3333332E1,2.36E2,1.3333334E0,1.7E1,2.336E2,2.663E2,-1.5255706E-1,9E0,1.56E2,1.718E2,1E0,1E0,2.394E2,3.35E1,-1.1003705E-2,-1.1873752E-1,-6.386604E-2,-1.0240163E-1,9.119479E-3,-8.134398E-2,-3.378802E-2,3.9691767E-3,1.1622294E-1,1.9778896E-2,6.72372E-2,3.1647936E-2,2.7955104E-2,9.5645934E-2],"split_indices":[6,0,2,5,5,1,2,0,0,0,1,4,3,1,7,0,0,0,0,0,0,0,0,0,0,0,0,0,0],"split_type":[0,0,0,0,0,0,0,0,0,0,0,0,0,0,0,0,0,0,0,0,0,0,0,0,0,0,0,0,0],"sum_hessian":[6.7914886E2,1.6325519E2,5.158937E2,5.9159477E1,1.0409571E2,2.7002106E2,2.4587265E2,3.680264E1,2.235684E1,9.449501E1,9.600702E0,2.1734517E2,5.2675888E1,1.3983556E2,1.06037094E2,1.3454667E0,2.1011374E1,7.3527596E1,2.0967411E1,8.155697E0,1.4450059E0,7.066455E1,1.466806E2,6.3620706E0,4.631382E1,4.5562325E1,9.427323E1,1.379879E1,9.2238304E1],"tree_param":{"num_deleted":"0","num_feature":"12","num_nodes":"29","size_leaf_vector":"1"}},{"base_weights":[-1.7283221E-3,-8.7233806E-1,2.70796E-1,-1.283526E0,-5.9976035E-1,-1.060823E-3,5.707731E-1,-1.4411126E-1,-1.0384896E0,-6.258341E-1,3.9387387E-1,-8.450684E-1,2.9043205E-2,4.0872914E-1,8.2084566E-1,-1.0373954E-2,-1.0811867E-1,-6.923177E-2,-2.6152795E-2,5.1612593E-2,8.641488E-3,4.618704E-2,-1.192832E-1,-9.224236E-3,2.0487692E-2,1.8432833E-2,5.4552373E-2,2.960368E-2,8.8558726E-2],"categories":[],"categories_nodes":[],"categories_segments":[],"categories_sizes":[],"default_left":[0,0,0,0,0,0,0,0,0,0,0,0,0,0,0,0,0,0,0,0,0,0,0,0,0,0,0,0,0],"id":4,"left_children":[1,3,5,7,9,11,13,-1,15,17,19,21,23,25,27,-1,-1,-1,-1,-1,-1,-1,-1,-1,-1,-1,-1,-1,-1],"loss_changes":[1.6028082E2,1.7280739E1,4.1958298E1,9.486389E-1,2.804264E0,6.907509E0,9.57637E0,0E0,1.0198879E0,2.1583252E0,7.335377E-2,4.8063855E0,5.6177316E0,4.516714E0,2.9719238E0,0E0,0E0,0E0,0E0,0E0,0E0,0E0,0E0,0E0,0E0,0E0,0E0,0E0,0E0],"parents":[2147483647,0,0,1,1,2,2,3,3,4,4,5,5,6,6,8,8,9,9,10,10,11,11,12,12,13,13,14,14],"right_children":[2,4,6,8,10,12,14,-1,16,18,20,22,24,26,28,-1,-1,-1,-1,-1,-1,-1,-1,-1,-1,-1,-1,-1,-1],"split_conditions":[1.5E1,9.666667E0,2.36E2,1.3333334E0,1.9333334E1,1.361E2,2.69E2,-1.4411126E-1,9E0,1.3333334E0,1.398E2,1.58E1,2.2033333E2,1.6E0,3.35E1,-1.0373954E-2,-1.0811867E-1,-6.923177E-2,-2.6152795E-2,5.1612593E-2,8.641488E-3,4.618704E-2,-1.192832E-1,-9.224236E-3,2.0487692E-2,1.8432833E-2,5.4552373E-2,2.960368E-2,8.8558726E-2],"split_indices":[6,7,2,5,5,2,2,0,0,3,1,6,0,4,7,0,0,0,0,0,0,0,0,0,0,0,0,0,0],"split_type":[0,0,0,0,0,0,0,0,0,0,0,0,0,0,0,0,0,0,0,0,0,0,0,0,0,0,0,0,0],"sum_hessian":[6.7354706E2,1.6004959E2,5.1349744E2,6.2324E1,9.7725586E1,2.6989725E2,2.4360019E2,3.4959667E1,2.7364334E1,9.558745E1,2.1381395E0,8.362811E0,2.6153445E2,1.494153E2,9.41849E1,1.3451507E0,2.6019184E1,8.007407E1,1.5513371E1,1.0442443E0,1.0938952E0,1.6886268E0,6.6741843E0,1.5505612E2,1.06478325E2,5.7476715E1,9.193858E1,1.0954887E1,8.323001E1],"tree_param":{"num_deleted":"0","num_feature":"12","num_nodes":"29","size_leaf_vector":"1"}},{"base_weights":[-1.9920934E-3,-8.0609083E-1,2.4542767E-1,-1.2421242E0,-5.625997E-1,-4.3327775E-2,4.8274246E-1,-1.3728979E-1,-9.832754E-1,-5.8617294E-1,3.7389353E-1,-7.8182906E-1,-1.27050085E-2,3.33526E-1,7.353441E-1,-6.362917E-2,-1.260153E-1,-6.466152E-2,-2.3763496E-2,7.2481157E-3,4.9967833E-2,4.3356653E-2,-1.1113936E-1,2.9190676E-3,-6.07584E-2,8.529E-2,2.5597362E-2,2.2445623E-2,8.110238E-2],"categories":[],"categories_nodes":[],"categories_segments":[],"categories_sizes":[],"default_left":[0,0,0,0,0,0,0,0,0,0,0,0,0,0,0,0,0,0,0,0,0,0,0,0,0,0,0,0,0],"id":5,"left_children":[1,3,5,7,9,11,13,-1,15,17,19,21,23,25,27,-1,-1,-1,-1,-1,-1,-1,-1,-1,-1,-1,-1,-1,-1],"loss_changes":[1.3314746E2,1.6020088E1,3.5091408E1,5.321121E-1,2.4902344E0,5.2319384E0,1.0346146E1,0E0,1.3295193E0,1.9685211E0,8.269706E-2,4.171799E0,5.589883E0,6.97052E0,3.8204002E0,0E0,0E0,0E0,0E0,0E0,0E0,0E0,0E0,0E0,0E0,0E0,0E0,0E0,0E0],"parents":[2147483647,0,0,1,1,2,2,3,3,4,4,5,5,6,6,8,8,9,9,10,10,11,11,12,12,13,13,14,14],"right_children":[2,4,6,8,10,12,14,-1,16,18,20,22,24,26,28,-1,-1,-1,-1,-1,-1,-1,-1,-1,-1,-1,-1,-1,-1],"split_conditions":[1.5E1,4.3333332E1,2.284E2,1.3333334E0,1.9333334E1,1.361E2,2.663E2,-1.3728979E-1,2E-1,1.3333334E0,1.3371428E2,1.58E1,2.26E2,3.1333334E1,3.35E1,-6.362917E-2,-1.260153E-1,-6.466152E-2,-2.3763496E-2,7.2481157E-3,4.9967833E-2,4.3356653E-2,-1.1113936E-1,2.9190676E-3,-6.07584E-2,8.529E-2,2.5597362E-2,2.2445623E-2,8.110238E-2],"split_indices":[6,0,2,5,5,2,2,0,4,3,2,6,2,8,7,0,0,0,0,0,0,0,0,0,0,0,0,0,0],"split_type":[0,0,0,0,0,0,0,0,0,0,0,0,0,0,0,0,0,0,0,0,0,0,0,0,0,0,0,0,0],"sum_hessian":[6.672568E2,1.5647261E2,5.1078415E2,5.459856E1,1.0187405E2,2.3078786E2,2.799963E2,3.341369E1,2.118487E1,9.973754E1,2.136499E0,8.212142E0,2.2257571E2,1.7747745E2,1.0251885E2,1.0865855E1,1.0319015E1,8.426874E1,1.5468803E1,1.0931838E0,1.0433152E0,1.6844636E0,6.527679E0,2.0882002E2,1.3755687E1,2.175889E1,1.5571855E2,1.373879E1,8.878006E1],"tree_param":{"num_deleted":"0","num_feature":"12","num_nodes":"29","size_leaf_vector":"1"}},{"base_weights":[-2.3896976E-3,-7.4666816E-1,2.224399E-1,-1.17956E0,-5.1315194E-1,-3.142993E-3,4.762107E-1,-1.3147411E-1,-9.208235E-1,-7.531364E-1,-3.999376E-1,-2.5744435E-1,7.764109E-2,3.379059E-1,6.9600457E-1,-4.7344375E-2,-1.103809E-1,7.4945553E-3,-8.0859564E-2,9.6336596E-2,-4.742132E-2,-1.990693E-3,-5.8264982E-2,1.1720586E-1,4.6595405E-3,1.3548802E-2,4.6240505E-2,4.391698E-2,8.0513224E-2],"categories":[],"categories_nodes":[],"categories_segments":[],"categories_sizes":[],"default_left":[0,0,0,0,0,0,0,0,0,0,0,0,0,0,0,0,0,0,0,0,0,0,0,0,0,0,0,0,0],"id":6,"left_children":[1,3,5,7,9,11,13,-1,15,17,19,21,23,25,27,-1,-1,-1,-1,-1,-1,-1,-1,-1,-1,-1,-1,-1,-1],"loss_changes":[1.10896805E2,1.4936676E1,2.9138721E1,6.4675903E-1,2.4604034E0,5.5759425E0,7.046215E0,0E0,1.2425289E0,1.5048618E0,7.6660347E0,5.0429792E0,6.9451656E0,3.6913471E0,2.21286E0,0E0,0E0,0E0,0E0,0E0,0E0,0E0,0E0,0E0,0E0,0E0,0E0,0E0,0E0],"parents":[2147483647,0,0,1,1,2,2,3,3,4,4,5,5,6,6,8,8,9,9,10,10,11,11,12,12,13,13,14,14],"right_children":[2,4,6,8,10,12,14,-1,16,18,20,22,24,26,28,-1,-1,-1,-1,-1,-1,-1,-1,-1,-1,-1,-1,-1,-1],"split_conditions":[1.5E1,4.3333332E1,2.36E2,1.3333334E0,1.6E1,1.8E2,2.69E2,-1.3147411E-1,2.5E1,6.6666665E0,1.48E1,3.12E1,1.5333333E1,1.6E0,2.35E1,-4.7344375E-2,-1.103809E-1,7.4945553E-3,-8.0859564E-2,9.6336596E-2,-4.742132E-2,-1.990693E-3,-5.8264982E-2,1.1720586E-1,4.6595405E-3,1.3548802E-2,4.6240505E-2,4.391698E-2,8.0513224E-2],"split_indices":[6,0,2,5,7,0,2,0,2,7,8,8,5,4,5,0,0,0,0,0,0,0,0,0,0,0,0,0,0],"split_type":[0,0,0,0,0,0,0,0,0,0,0,0,0,0,0,0,0,0,0,0,0,0,0,0,0,0,0,0,0],"sum_hessian":[6.607275E2,1.5274794E2,5.0797955E2,5.210483E1,1.00643105E2,2.6944827E2,2.3853131E2,3.1543194E1,2.0561638E1,3.0448347E1,7.0194756E1,6.443273E1,2.0501553E2,1.4796317E2,9.056814E1,7.010079E0,1.3551559E1,1.8891668E0,2.855918E1,3.0082984E0,6.7186455E1,3.7848526E1,2.6584206E1,4.641498E0,2.0037402E2,5.7143764E1,9.0819405E1,2.8505074E1,6.2063065E1],"tree_param":{"num_deleted":"0","num_feature":"12","num_nodes":"29","size_leaf_vector":"1"}},{"base_weights":[-2.4515602E-3,-7.6646155E-1,1.8293826E-1,-1.2308963E-1,-5.790551E-1,-5.768884E-2,4.0264183E-1,-4.969967E-1,-1.1180854E0,-8.3477455E-1,-2.6441066E-2,2.7627066E-1,6.236953E-1,-6.739089E-2,-2.0399492E-2,-4.4731084E-2,-1.4056264E-1,-1.7209554E-2,-1.20950714E-1,-3.2371935E-2,4.6488685E-3,7.462553E-2,2.0559499E-2,1.6437396E-2,6.9466874E-2],"categories":[],"categories_nodes":[],"categories_segments":[],"categories_sizes":[],"default_left":[0,0,0,0,0,0,0,0,0,0,0,0,0,0,0,0,0,0,0,0,0,0,0,0,0],"id":7,"left_children":[1,3,5,-1,7,9,11,13,15,17,19,21,23,-1,-1,-1,-1,-1,-1,-1,-1,-1,-1,-1,-1],"loss_changes":[9.2933304E1,1.0438667E1,2.793753E1,0E0,3.5655937E0,6.118447E0,7.5413857E0,4.147478E0,1.5912437E0,2.2112885E0,5.308079E0,5.742095E0,3.1341782E0,0E0,0E0,0E0,0E0,0E0,0E0,0E0,0E0,0E0,0E0,0E0,0E0],"parents":[2147483647,0,0,1,1,2,2,4,4,5,5,6,6,7,7,8,8,9,9,10,10,11,11,12,12],"right_children":[2,4,6,-1,8,10,12,14,16,18,20,22,24,-1,-1,-1,-1,-1,-1,-1,-1,-1,-1,-1,-1],"split_conditions":[1.36E1,3.5E0,2.284E2,-1.2308963E-1,1.609E2,1.265E2,2.663E2,1.0333333E1,1.1333333E1,2.78E1,2.7333334E1,3.1333334E1,3.35E1,-6.739089E-2,-2.0399492E-2,-4.4731084E-2,-1.4056264E-1,-1.7209554E-2,-1.20950714E-1,-3.2371935E-2,4.6488685E-3,7.462553E-2,2.0559499E-2,1.6437396E-2,6.9466874E-2],"split_indices":[6,7,2,0,2,2,2,5,5,8,7,8,7,0,0,0,0,0,0,0,0,0,0,0,0],"split_type":[0,0,0,0,0,0,0,0,0,0,0,0,0,0,0,0,0,0,0,0,0,0,0,0,0],"sum_hessian":[6.541348E2,1.2712122E2,5.270136E2,3.4946934E1,9.217429E1,2.5188152E2,2.751321E2,8.166428E1,1.0510008E1,8.742939E0,2.4313857E2,1.7648785E2,9.864425E1,5.0108902E1,3.1555384E1,3.9203274E0,6.58968E0,3.685222E0,5.057717E0,4.722006E1,1.9591852E2,2.1821125E1,1.5466672E2,1.3646114E1,8.499813E1],"tree_param":{"num_deleted":"0","num_feature":"12","num_nodes":"25","size_leaf_vector":"1"}},{"base_weights":[-2.987934E-3,-7.1424377E-1,1.6574214E-1,-1.18339516E-1,-5.3317976E-1,-5.268248E-2,3.6690873E-1,-4.451532E-1,-9.873889E-1,-7.8095174E-1,-2.39282E-2,2.588713E-1,5.9216756E-1,-5.2009787E-2,4.588942E-2,-2.8334258E-2,-1.2409433E-1,-1.589701E-2,-1.14196755E-1,1.0207664E-3,-5.5505723E-2,3.5640553E-2,-2.5589967E-3,3.584367E-2,6.943228E-2],"categories":[],"categories_nodes":[],"categories_segments":[],"categories_sizes":[],"default_left":[0,0,0,0,0,0,0,0,0,0,0,0,0,0,0,0,0,0,0,0,0,0,0,0,0],"id":8,"left_children":[1,3,5,-1,7,9,11,13,15,17,19,21,23,-1,-1,-1,-1,-1,-1,-1,-1,-1,-1,-1,-1],"loss_changes":[7.7954765E1,9.948982E0,2.3089128E1,0E0,3.2262821E0,5.270835E0,6.5012283E0,5.565611E0,2.158887E0,1.9657273E0,4.4300747E0,5.1857586E0,1.8489075E0,0E0,0E0,0E0,0E0,0E0,0E0,0E0,0E0,0E0,0E0,0E0,0E0],"parents":[2147483647,0,0,1,1,2,2,4,4,5,5,6,6,7,7,8,8,9,9,10,10,11,11,12,12],"right_children":[2,4,6,-1,8,10,12,14,16,18,20,22,24,-1,-1,-1,-1,-1,-1,-1,-1,-1,-1,-1,-1],"split_conditions":[1.36E1,3.5E0,2.284E2,-1.18339516E-1,1.56E2,1.265E2,2.69E2,1.458E2,1.0666667E1,2.78E1,2.26E2,3.9333332E1,2.35E1,-5.2009787E-2,4.588942E-2,-2.8334258E-2,-1.2409433E-1,-1.589701E-2,-1.14196755E-1,1.0207664E-3,-5.5505723E-2,3.5640553E-2,-2.5589967E-3,3.584367E-2,6.943228E-2],"split_indices":[6,7,2,0,2,2,2,2,5,8,2,7,5,0,0,0,0,0,0,0,0,0,0,0,0],"split_type":[0,0,0,0,0,0,0,0,0,0,0,0,0,0,0,0,0,0,0,0,0,0,0,0,0],"sum_hessian":[6.475811E2,1.23548454E2,5.2403265E2,3.286272E1,9.068573E1,2.5159334E2,2.7243933E2,7.762242E1,1.3063308E1,8.562731E0,2.4303061E2,1.8558112E2,8.6858215E1,7.2072395E1,5.550029E0,4.019583E0,9.043724E0,3.67373E0,4.8890004E0,2.2927576E2,1.375486E1,1.3800868E2,4.757243E1,2.778804E1,5.907018E1],"tree_param":{"num_deleted":"0","num_feature":"12","num_nodes":"25","size_leaf_vector":"1"}},{"base_weights":[-3.393709E-3,-7.9268426E-1,1.2633225E-1,-1.1879963E-1,-6.1519796E-1,-7.3259674E-2,3.3412048E-1,-4.8957503E-1,-7.829789E-1,-1.8762384E-1,8.499941E-2,2.2527297E-1,5.306523E-1,-6.100132E-2,9.8620646E-2,-6.966989E-3,-9.131649E-2,3.1721096E-2,-2.4425225E-2,1.4967285E-1,5.1343604E-3,6.542063E-2,1.6172828E-2,-6.9556616E-2,5.5128552E-2],"categories":[],"categories_nodes":[],"categories_segments":[],"categories_sizes":[],"default_left":[0,0,0,0,0,0,0,0,0,0,0,0,0,0,0,0,0,0,0,0,0,0,0,0,0],"id":9,"left_children":[1,3,5,-1,7,9,11,13,15,17,19,21,23,-1,-1,-1,-1,-1,-1,-1,-1,-1,-1,-1,-1],"loss_changes":[6.586672E1,5.640156E0,2.29383E1,0E0,9.812355E-1,5.131299E0,5.674967E0,7.6562033E0,2.3555384E0,4.776753E0,5.589055E0,4.693022E0,2.807537E0,0E0,0E0,0E0,0E0,0E0,0E0,0E0,0E0,0E0,0E0,0E0,0E0],"parents":[2147483647,0,0,1,1,2,2,4,4,5,5,6,6,7,7,8,8,9,9,10,10,11,11,12,12],"right_children":[2,4,6,-1,8,10,12,14,16,18,20,22,24,-1,-1,-1,-1,-1,-1,-1,-1,-1,-1,-1,-1],"split_conditions":[1.9333334E1,1.3333334E0,2.284E2,-1.1879963E-1,1.54E1,1.3333334E0,2.663E2,1.6E1,6E0,2.3E1,1.3E1,3.1333334E1,6.666667E-1,-6.100132E-2,9.8620646E-2,-6.966989E-3,-9.131649E-2,3.1721096E-2,-2.4425225E-2,1.4967285E-1,5.1343604E-3,6.542063E-2,1.6172828E-2,-6.9556616E-2,5.5128552E-2],"split_indices":[7,5,2,0,8,3,2,7,5,7,5,8,4,0,0,0,0,0,0,0,0,0,0,0,0],"split_type":[0,0,0,0,0,0,0,0,0,0,0,0,0,0,0,0,0,0,0,0,0,0,0,0,0],"sum_hessian":[6.413053E2,8.98036E1,5.515017E2,2.6062233E1,6.374136E1,2.8162906E2,2.6987265E2,3.86905E1,2.5050861E1,1.6337929E2,1.1824978E2,1.7506216E2,9.481048E1,3.6313606E1,2.3768938E0,4.1033177E0,2.0947542E1,1.60141E1,1.4736519E2,1.7412108E0,1.1650857E2,2.138899E1,1.5367317E2,1.027636E0,9.3782845E1],"tree_param":{"num_deleted":"0","num_feature":"12","num_nodes":"25","size_leaf_vector":"1"}},{"base_weights":[-3.169089E-3,-6.287766E-1,1.3887243E-1,-9.9314535E-1,-4.1031092E-1,2.87083E-2,4.128802E-1,-1.1541859E-1,-7.301243E-1,-3.1470507E-1,-9.6559334E-1,-4.327846E-1,6.1848063E-2,2.6433167E-1,6.360352E-1,-3.7382163E-2,-1.04457475E-1,-4.475519E-2,-7.4016687E-4,-2.880224E-2,-1.2631026E-1,-5.2867837E-2,8.031825E-2,-3.348133E-2,8.888704E-3,6.173246E-2,7.6726465E-3,1.0326842E-1,4.9555514E-2],"categories":[],"categories_nodes":[],"categories_segments":[],"categories_sizes":[],"default_left":[0,0,0,0,0,0,0,0,0,0,0,0,0,0,0,0,0,0,0,0,0,0,0,0,0,0,0,0,0],"id":10,"left_children":[1,3,5,7,9,11,13,-1,15,17,19,21,23,25,27,-1,-1,-1,-1,-1,-1,-1,-1,-1,-1,-1,-1,-1,-1],"loss_changes":[5.6648724E1,8.982094E0,1.5671196E1,1.0002594E0,3.7014484E0,5.7105417E0,4.7681503E0,0E0,1.7657166E0,2.684886E0,1.7726774E0,3.3905625E0,3.7580476E0,5.986268E0,2.7646427E0,0E0,0E0,0E0,0E0,0E0,0E0,0E0,0E0,0E0,0E0,0E0,0E0,0E0,0E0],"parents":[2147483647,0,0,1,1,2,2,3,3,4,4,5,5,6,6,8,8,9,9,10,10,11,11,12,12,13,13,14,14],"right_children":[2,4,6,8,10,12,14,-1,16,18,20,22,24,26,28,-1,-1,-1,-1,-1,-1,-1,-1,-1,-1,-1,-1,-1,-1],"split_conditions":[1.36E1,4.3333332E1,2.5333333E2,1.3333334E0,1.609E2,1.56E2,2.86E2,-1.1541859E-1,2E-1,6.666667E-1,1.1333333E1,2E0,6E-1,2.4666667E2,3.7666668E1,-3.7382163E-2,-1.04457475E-1,-4.475519E-2,-7.4016687E-4,-2.880224E-2,-1.2631026E-1,-5.2867837E-2,8.031825E-2,-3.348133E-2,8.888704E-3,6.173246E-2,7.6726465E-3,1.0326842E-1,4.9555514E-2],"split_indices":[6,0,2,5,2,2,0,0,4,4,5,3,4,0,7,0,0,0,0,0,0,0,0,0,0,0,0,0,0],"split_type":[0,0,0,0,0,0,0,0,0,0,0,0,0,0,0,0,0,0,0,0,0,0,0,0,0,0,0,0,0],"sum_hessian":[6.3550665E2,1.16956566E2,5.185501E2,4.2510044E1,7.4446526E1,3.7064E2,1.479101E2,2.4265036E1,1.8245007E1,6.4848045E1,9.598477E0,2.402445E1,3.4661557E2,9.0110405E1,5.7799683E1,9.579414E0,8.665592E0,4.495687E1,1.9891176E1,3.5291116E0,6.0693655E0,2.2825747E1,1.1987039E0,2.1393316E1,3.2522223E2,3.0476357E1,5.9634052E1,1.3455796E1,4.4343887E1],"tree_param":{"num_deleted":"0","num_feature":"12","num_nodes":"29","size_leaf_vector":"1"}},{"base_weights":[-3.4182537E-3,-7.044747E-1,1.05226465E-1,-1.12384595E-1,-5.345255E-1,-3.8931333E-2,3.080733E-1,-4.1039386E-1,-7.01386E-1,-9.5449924E-2,2.4581428E-1,1.25942E-1,2.8881574E-1,-5.271098E-2,9.310884E-2,-8.3045283E-4,-8.308347E-2,-2.5087077E-2,1.7797154E-4,1.0973432E-1,1.1180974E-2,-6.328804E-5,3.7710924E-2],"categories":[],"categories_nodes":[],"categories_segments":[],"categories_sizes":[],"default_left":[0,0,0,0,0,0,0,0,0,0,0,0,0,0,0,0,0,0,0,0,0,0,0],"id":11,"left_children":[1,3,5,-1,7,9,11,13,15,17,19,-1,21,-1,-1,-1,-1,-1,-1,-1,-1,-1,-1],"loss_changes":[4.8128944E1,5.4421463E0,1.60113E1,0E0,1.0013638E0,5.185011E0,3.8025742E0,6.4564066E0,2.248723E0,4.0552816E0,5.970318E0,0E0,5.729904E0,0E0,0E0,0E0,0E0,0E0,0E0,0E0,0E0,0E0,0E0],"parents":[2147483647,0,0,1,1,2,2,4,4,5,5,6,6,7,7,8,8,9,9,10,10,12,12],"right_children":[2,4,6,-1,8,10,12,14,16,18,20,-1,22,-1,-1,-1,-1,-1,-1,-1,-1,-1,-1],"split_conditions":[1.9333334E1,1.3333334E0,2.36E2,-1.12384595E-1,1.54E1,2.336E2,1.78E2,1.6E1,6E0,1E0,2.033E2,1.25942E-1,3.35E1,-5.271098E-2,9.310884E-2,-8.3045283E-4,-8.308347E-2,-2.5087077E-2,1.7797154E-4,1.0973432E-1,1.1180974E-2,-6.328804E-5,3.7710924E-2],"split_indices":[7,5,2,0,8,1,0,7,5,4,2,0,7,0,0,0,0,0,0,0,0,0,0],"split_type":[0,0,0,0,0,0,0,0,0,0,0,0,0,0,0,0,0,0,0,0,0,0,0],"sum_hessian":[6.299216E2,8.378625E1,5.461353E2,2.2543777E1,6.124247E1,3.197241E2,2.2641124E2,3.710136E1,2.414111E1,2.6732755E2,5.2396526E1,3.214457E0,2.2319678E2,3.46902E1,2.4111598E0,3.9667704E0,2.017434E1,1.0226983E2,1.6505772E2,6.146959E0,4.624957E1,5.2402103E1,1.7079468E2],"tree_param":{"num_deleted":"0","num_feature":"12","num_nodes":"23","size_leaf_vector":"1"}},{"base_weights":[-3.0964266E-3,-6.786943E-1,9.311595E-2,-1.0963034E-1,-5.068323E-1,-4.4551663E-2,2.9016468E-1,-5.2852726E-1,3.472082E-2,-6.258559E-2,1.1929617E-1,-8.556188E-2,3.5430923E-1,-4.591308E-2,-9.908786E-2,-4.75183E-2,-2.4386009E-3,6.987495E-2,-1.8193511E-2,9.890636E-2,3.3056512E-2],"categories":[],"categories_nodes":[],"categories_segments":[],"categories_sizes":[],"default_left":[0,0,0,0,0,0,0,0,0,0,0,0,0,0,0,0,0,0,0,0,0],"id":12,"left_children":[1,3,5,-1,7,9,11,13,-1,15,-1,17,19,-1,-1,-1,-1,-1,-1,-1,-1],"loss_changes":[4.072067E1,5.0491943E0,1.4889441E1,0E0,1.2430477E0,7.29899E0,5.4695663E0,1.347125E0,0E0,5.0321264E0,0E0,2.675644E0,2.5814419E0,0E0,0E0,0E0,0E0,0E0,0E0,0E0,0E0],"parents":[2147483647,0,0,1,1,2,2,4,4,5,5,6,6,7,7,9,9,11,11,12,12],"right_children":[2,4,6,-1,8,10,12,14,-1,16,-1,18,20,-1,-1,-1,-1,-1,-1,-1,-1],"split_conditions":[1.8333334E1,1.3333334E0,1.6E0,-1.0963034E-1,2.6E1,3.1166666E2,2.148E2,1.26E1,3.472082E-2,1.313E2,1.1929617E-1,2.56E1,2.04E2,-4.591308E-2,-9.908786E-2,-4.75183E-2,-2.4386009E-3,6.987495E-2,-1.8193511E-2,9.890636E-2,3.3056512E-2],"split_indices":[7,5,4,0,8,0,2,6,0,2,0,8,1,0,0,0,0,0,0,0,0],"split_type":[0,0,0,0,0,0,0,0,0,0,0,0,0,0,0,0,0,0,0,0,0],"sum_hessian":[6.244911E2,7.7093155E1,5.4739795E2,2.090848E1,5.6184677E1,3.2271075E2,2.246872E2,5.5164494E1,1.0201831E0,3.1901132E2,3.6994352E0,3.2716507E1,1.9197067E2,4.969811E1,5.4663844E0,2.6062988E1,2.9294833E2,2.8961778E0,2.982033E1,5.456132E0,1.8651454E2],"tree_param":{"num_deleted":"0","num_feature":"12","num_nodes":"21","size_leaf_vector":"1"}},{"base_weights":[-2.898593E-3,-4.1487628E-1,1.3327509E-1,-8.51734E-1,-2.5020984E-1,5.999275E-2,3.8749668E-1,-1.0699359E-1,-6.192343E-1,-2.9330438E-1,6.0716575E-1,-5.7524246E-1,8.327478E-2,2.1985003E-1,5.6983197E-1,-8.411739E-3,-7.658177E-2,-1.3133058E-2,-6.571864E-2,1.02878906E-1,-6.5370224E-2,-1.5716482E-2,-1.17280684E-1,4.0287934E-5,2.2182584E-2,7.321479E-2,1.1734786E-2,9.372636E-2,3.3179726E-2],"categories":[],"categories_nodes":[],"categories_segments":[],"categories_sizes":[],"default_left":[0,0,0,0,0,0,0,0,0,0,0,0,0,0,0,0,0,0,0,0,0,0,0,0,0,0,0,0,0],"id":13,"left_children":[1,3,5,7,9,11,13,-1,15,17,19,21,23,25,27,-1,-1,-1,-1,-1,-1,-1,-1,-1,-1,-1,-1,-1,-1],"loss_changes":[3.4871532E1,1.089492E1,8.680458E0,1.4608517E0,4.373949E0,5.4288464E0,3.0646372E0,0E0,1.7112608E0,6.3263063E0,3.734865E0,3.0609164E0,4.0397778E0,2.8545043E0,4.006069E0,0E0,0E0,0E0,0E0,0E0,0E0,0E0,0E0,0E0,0E0,0E0,0E0,0E0,0E0],"parents":[2147483647,0,0,1,1,2,2,3,3,4,4,5,5,6,6,8,8,9,9,10,10,11,11,12,12,13,13,14,14],"right_children":[2,4,6,8,10,12,14,-1,16,18,20,22,24,26,28,-1,-1,-1,-1,-1,-1,-1,-1,-1,-1,-1,-1,-1,-1],"split_conditions":[2.7333334E1,9.666667E0,2.631E2,1.3333334E0,2.34E2,1.313E2,2.8533334E2,-1.0699359E-1,2.02E1,1.4333333E1,2.3333333E0,2.78E1,1.6E0,2.478E2,3.88E1,-8.411739E-3,-7.658177E-2,-1.3133058E-2,-6.571864E-2,1.02878906E-1,-6.5370224E-2,-1.5716482E-2,-1.17280684E-1,4.0287934E-5,2.2182584E-2,7.321479E-2,1.1734786E-2,9.372636E-2,3.3179726E-2],"split_indices":[7,7,2,5,2,2,0,0,1,5,3,8,4,1,8,0,0,0,0,0,0,0,0,0,0,0,0,0,0],"split_type":[0,0,0,0,0,0,0,0,0,0,0,0,0,0,0,0,0,0,0,0,0,0,0,0,0,0,0,0,0],"sum_hessian":[6.196046E2,1.5341591E2,4.6618872E2,4.0855198E1,1.1256071E2,3.6283368E2,1.0335505E2,1.9217556E1,2.1637642E1,1.0780022E2,4.760493E0,1.1989883E1,3.508438E2,5.4995583E1,4.835947E1,4.9910774E0,1.6646564E1,7.5537384E1,3.226283E1,3.7054763E0,1.0550164E0,7.7974877E0,4.192396E0,2.2016115E2,1.3068265E2,8.1449585E0,4.6850624E1,1.7857319E1,3.0502151E1],"tree_param":{"num_deleted":"0","num_feature":"12","num_nodes":"29","size_leaf_vector":"1"}},{"base_weights":[-2.9491675E-3,-6.6410244E-1,7.1447864E-2,-1.0477843E-1,-4.8577034E-1,-9.488506E-2,1.8991373E-1,-2.4381463E-1,-5.9348196E-1,-1.2944283E-1,7.1442467E-1,1.4708132E-1,6.115134E-1,2.0225806E-2,-4.7282062E-2,-1.1246731E-1,-4.2221263E-2,9.6695594E-2,-1.488124E-2,-1.17967455E-2,9.441069E-2,8.650035E-2,1.2536687E-2,-9.536526E-3,6.825223E-2],"categories":[],"categories_nodes":[],"categories_segments":[],"categories_sizes":[],"default_left":[0,0,0,0,0,0,0,0,0,0,0,0,0,0,0,0,0,0,0,0,0,0,0,0,0],"id":14,"left_children":[1,3,5,-1,7,9,11,13,15,17,19,21,23,-1,-1,-1,-1,-1,-1,-1,-1,-1,-1,-1,-1],"loss_changes":[3.03315E1,3.7585526E0,1.0940604E1,0E0,1.0135717E0,6.5597863E0,5.762183E0,1.6675434E0,2.259551E0,4.871565E0,1.9511642E0,4.498197E0,1.5493898E0,0E0,0E0,0E0,0E0,0E0,0E0,0E0,0E0,0E0,0E0,0E0,0E0],"parents":[2147483647,0,0,1,1,2,2,4,4,5,5,6,6,7,7,8,8,9,9,10,10,11,11,12,12],"right_children":[2,4,6,-1,8,10,12,14,16,18,20,22,24,-1,-1,-1,-1,-1,-1,-1,-1,-1,-1,-1,-1],"split_conditions":[1.6E1,1.3333334E0,1.96E1,-1.0477843E-1,2E-1,2.66E2,2.6E0,2.3E1,4.64E1,1.48E1,1.5E0,3.12E1,2.427E2,2.0225806E-2,-4.7282062E-2,-1.1246731E-1,-4.2221263E-2,9.6695594E-2,-1.488124E-2,-1.17967455E-2,9.441069E-2,8.650035E-2,1.2536687E-2,-9.536526E-3,6.825223E-2],"split_indices":[7,5,6,0,4,0,4,0,1,8,3,8,2,0,0,0,0,0,0,0,0,0,0,0,0],"split_type":[0,0,0,0,0,0,0,0,0,0,0,0,0,0,0,0,0,0,0,0,0,0,0,0,0],"sum_hessian":[6.146816E2,6.1370083E1,5.533115E2,1.7926252E1,4.3443832E1,2.3024013E2,3.2307138E2,1.4387768E1,2.9056063E1,2.2161707E2,8.623057E0,2.945005E2,2.8570915E1,4.920364E0,9.467404E0,5.727025E0,2.3329039E1,2.997972E0,2.186191E2,1.9699914E0,6.6530657E0,7.5058823E0,2.869946E2,2.5767627E0,2.5994154E1],"tree_param":{"num_deleted":"0","num_feature":"12","num_nodes":"25","size_leaf_vector":"1"}},{"base_weights":[-2.7295735E-3,-5.568157E-1,7.394476E-2,-9.6661764E-1,-3.8047287E-1,-3.1256754E-2,2.2532015E-1,-1.0354083E-1,-4.664819E-1,-2.2135368E-1,-5.7641804E-1,-4.7366116E-2,1.1148136E-1,-8.009821E-2,2.7675313E-1,7.2713667E-3,-8.120402E-2,-4.4124797E-2,6.2027603E-2,1.5634572E-2,-7.150801E-2,1.5599729E-4,-3.713762E-2,3.9662044E-2,-2.4334025E-2,3.7854414E-2,1.4463744E-2],"categories":[],"categories_nodes":[],"categories_segments":[],"categories_sizes":[],"default_left":[0,0,0,0,0,0,0,0,0,0,0,0,0,0,0,0,0,0,0,0,0,0,0,0,0,0,0],"id":15,"left_children":[1,3,5,7,9,11,13,-1,15,17,19,21,-1,23,25,-1,-1,-1,-1,-1,-1,-1,-1,-1,-1,-1,-1],"loss_changes":[2.6021479E1,5.012678E0,8.575846E0,2.6531982E-1,1.5468044E0,5.9299974E0,3.489726E0,0E0,8.881578E-1,6.058979E0,2.4937901E0,4.9922085E0,0E0,2.63278E0,2.4889984E0,0E0,0E0,0E0,0E0,0E0,0E0,0E0,0E0,0E0,0E0,0E0,0E0],"parents":[2147483647,0,0,1,1,2,2,3,3,4,4,5,5,6,6,8,8,9,9,10,10,11,11,13,13,14,14],"right_children":[2,4,6,8,10,12,14,-1,16,18,20,22,-1,24,26,-1,-1,-1,-1,-1,-1,-1,-1,-1,-1,-1,-1],"split_conditions":[1.9333334E1,3.5E0,1.6E0,1.5E0,1.54E1,3.1166666E2,2.141E2,-1.0354083E-1,1.6E0,9.8333336E1,6E0,4E1,1.1148136E-1,1.838E2,2.664E2,7.2713667E-3,-8.120402E-2,-4.4124797E-2,6.2027603E-2,1.5634572E-2,-7.150801E-2,1.5599729E-4,-3.713762E-2,3.9662044E-2,-2.4334025E-2,3.7854414E-2,1.4463744E-2],"split_indices":[7,7,4,5,8,0,2,0,6,2,5,7,0,2,1,0,0,0,0,0,0,0,0,0,0,0,0],"split_type":[0,0,0,0,0,0,0,0,0,0,0,0,0,0,0,0,0,0,0,0,0,0,0,0,0,0,0],"sum_hessian":[6.105289E2,7.3453804E1,5.370751E2,2.0750465E1,5.270334E1,3.17332E2,2.1974306E2,1.7300615E1,3.449849E0,3.026005E1,2.244329E1,3.1387875E2,3.453263E0,3.1591234E1,1.8815182E2,1.6557921E0,1.7940568E0,2.4368868E1,5.891181E0,3.5509021E0,1.8892387E1,2.7356512E2,4.031363E1,7.6936584E0,2.3897575E1,1.05218796E2,8.293302E1],"tree_param":{"num_deleted":"0","num_feature":"12","num_nodes":"27","size_leaf_vector":"1"}},{"base_weights":[-2.7173532E-3,-5.961962E-1,5.992663E-2,-1.0051787E-1,-4.2632228E-1,1.2709355E-3,3.1927043E-1,-1.9193307E-1,-5.330451E-1,-1.0881569E-1,1.0281754E-1,9.962086E-2,4.3579972E-1,-4.525602E-2,2.1806018E-2,-1.0759487E-1,-3.6554363E-2,-3.6298272E-3,-5.3599067E-2,1.3732682E-1,8.291139E-3,-2.6176972E-2,4.5351576E-2,1.0118746E-1,3.4451764E-2],"categories":[],"categories_nodes":[],"categories_segments":[],"categories_sizes":[],"default_left":[0,0,0,0,0,0,0,0,0,0,0,0,0,0,0,0,0,0,0,0,0,0,0,0,0],"id":16,"left_children":[1,3,5,-1,7,9,11,13,15,17,19,21,23,-1,-1,-1,-1,-1,-1,-1,-1,-1,-1,-1,-1],"loss_changes":[2.2636847E1,3.6102848E0,8.378139E0,0E0,9.685569E-1,5.0438943E0,2.5568323E0,1.6968522E0,2.2305155E0,6.687214E0,5.8215375E0,4.788164E0,3.126196E0,0E0,0E0,0E0,0E0,0E0,0E0,0E0,0E0,0E0,0E0,0E0,0E0],"parents":[2147483647,0,0,1,1,2,2,4,4,5,5,6,6,7,7,8,8,9,9,10,10,11,11,12,12],"right_children":[2,4,6,-1,8,10,12,14,16,18,20,22,24,-1,-1,-1,-1,-1,-1,-1,-1,-1,-1,-1,-1],"split_conditions":[1.6E1,1.3333334E0,2.631E2,-1.0051787E-1,2E-1,1.3333334E0,2.6866666E2,1E0,4.64E1,3.74E1,1.3E1,1E0,2.75E2,-4.525602E-2,2.1806018E-2,-1.0759487E-1,-3.6554363E-2,-3.6298272E-3,-5.3599067E-2,1.3732682E-1,8.291139E-3,-2.6176972E-2,4.5351576E-2,1.0118746E-1,3.4451764E-2],"split_indices":[7,5,2,0,4,3,0,10,1,8,5,10,0,0,0,0,0,0,0,0,0,0,0,0,0],"split_type":[0,0,0,0,0,0,0,0,0,0,0,0,0,0,0,0,0,0,0,0,0,0,0,0,0],"sum_hessian":[6.0691846E2,5.713296E1,5.497855E2,1.5323475E1,4.1809486E1,4.4919592E2,1.00589584E2,1.3956356E1,2.7853128E1,2.1550043E2,2.336955E2,3.5510216E1,6.507937E1,8.468942E0,5.487415E0,5.2885213E0,2.2564608E1,1.8515364E2,3.0346794E1,2.556359E0,2.3113913E2,1.7697842E1,1.7812372E1,7.522194E0,5.755717E1],"tree_param":{"num_deleted":"0","num_feature":"12","num_nodes":"25","size_leaf_vector":"1"}},{"base_weights":[-2.5809833E-3,-4.1331032E-1,7.834117E-2,-9.178901E-1,-2.9016355E-1,4.7347866E-2,4.763526E-1,-9.952221E-2,-4.177059E-1,-1.961948E-1,-7.899413E-1,5.9072066E-2,-1.0805564E0,1.3849132E-1,3.0496004E-1,1.096655E-2,-7.753509E-2,-2.6569879E-2,5.4120082E-2,-3.734288E-3,-1.0782963E-1,8.4745065E-5,2.2354988E-2,-1.4240685E-1,-1.9666823E-2,-2.836609E-3,6.165495E-2],"categories":[],"categories_nodes":[],"categories_segments":[],"categories_sizes":[],"default_left":[0,0,0,0,0,0,0,0,0,0,0,0,0,0,0,0,0,0,0,0,0,0,0,0,0,0,0],"id":17,"left_children":[1,3,5,7,9,11,13,-1,15,17,19,21,23,-1,25,-1,-1,-1,-1,-1,-1,-1,-1,-1,-1,-1,-1],"loss_changes":[2.0119598E1,5.9245777E0,6.215956E0,3.2244682E-1,3.6748476E0,6.283008E0,5.2499056E0,0E0,8.920349E-1,3.7300603E0,2.68889E0,4.4664836E0,1.20472E0,0E0,3.3334873E0,0E0,0E0,0E0,0E0,0E0,0E0,0E0,0E0,0E0,0E0,0E0,0E0],"parents":[2147483647,0,0,1,1,2,2,3,3,4,4,5,5,6,6,8,8,9,9,10,10,11,11,12,12,14,14],"right_children":[2,4,6,8,10,12,14,-1,16,18,20,22,24,-1,26,-1,-1,-1,-1,-1,-1,-1,-1,-1,-1,-1,-1],"split_conditions":[1.36E1,3.5E0,2.66E1,1.5E0,1.56E2,4.42E1,2.6E2,-9.952221E-2,1.6E0,1.458E2,1.0666667E1,2E0,1.5E0,1.3849132E-1,4.38E1,1.096655E-2,-7.753509E-2,-2.6569879E-2,5.4120082E-2,-3.734288E-3,-1.0782963E-1,8.4745065E-5,2.2354988E-2,-1.4240685E-1,-1.9666823E-2,-2.836609E-3,6.165495E-2],"split_indices":[6,7,6,5,2,8,1,0,6,2,5,3,4,0,8,0,0,0,0,0,0,0,0,0,0,0,0],"split_type":[0,0,0,0,0,0,0,0,0,0,0,0,0,0,0,0,0,0,0,0,0,0,0,0,0,0,0],"sum_hessian":[6.033613E2,9.863269E1,5.0472864E2,1.80836E1,8.0549095E1,4.693028E2,3.542583E1,1.480494E1,3.2786596E0,6.8973236E1,1.1575856E1,4.6541263E2,3.8901865E0,4.4985313E0,3.0927298E1,1.6051408E0,1.6735189E0,6.361666E1,5.356575E0,3.5195174E0,8.056338E0,3.444748E2,1.2093783E2,2.3613403E0,1.5288464E0,1.5381615E1,1.5545684E1],"tree_param":{"num_deleted":"0","num_feature":"12","num_nodes":"27","size_leaf_vector":"1"}},{"base_weights":[-2.755428E-3,-3.0636126E-1,9.162416E-2,-8.9444816E-1,-2.2039479E-1,4.503721E-2,3.2565138E-1,-9.7568154E-2,-3.9876154E-1,-1.7416579E-1,-9.1646826E-1,-5.2057034E-1,6.4129435E-2,7.5206846E-1,2.601224E-1,1.0251631E-2,-7.50303E-2,-2.1155177E-2,7.798925E-2,-1.1093356E-1,5.005674E-3,-1.1993926E-2,-1.11767136E-1,8.7573014E-2,5.0485865E-3,1.10471904E-1,3.7783366E-2,-5.0340977E-2,3.5959393E-2],"categories":[],"categories_nodes":[],"categories_segments":[],"categories_sizes":[],"default_left":[0,0,0,0,0,0,0,0,0,0,0,0,0,0,0,0,0,0,0,0,0,0,0,0,0,0,0,0,0],"id":18,"left_children":[1,3,5,7,9,11,13,-1,15,17,19,21,23,25,27,-1,-1,-1,-1,-1,-1,-1,-1,-1,-1,-1,-1,-1,-1],"loss_changes":[1.7248322E1,7.0194893E0,4.992055E0,3.3082962E-1,3.8906422E0,4.1816373E0,1.9302092E0,0E0,8.1854975E-1,4.4189205E0,1.4730225E0,2.8927953E0,4.0804234E0,8.502345E-1,5.305608E0,0E0,0E0,0E0,0E0,0E0,0E0,0E0,0E0,0E0,0E0,0E0,0E0,0E0,0E0],"parents":[2147483647,0,0,1,1,2,2,3,3,4,4,5,5,6,6,8,8,9,9,10,10,11,11,12,12,13,13,14,14],"right_children":[2,4,6,8,10,12,14,-1,16,18,20,22,24,26,28,-1,-1,-1,-1,-1,-1,-1,-1,-1,-1,-1,-1,-1,-1],"split_conditions":[2.7333334E1,3.5E0,2.69E2,1.5E0,3.12E1,1.313E2,2.4666667E2,-9.7568154E-2,1.6E0,1.85E1,2.217E2,2.78E1,1.48E2,2.777E2,2.2E1,1.0251631E-2,-7.50303E-2,-2.1155177E-2,7.798925E-2,-1.1093356E-1,5.005674E-3,-1.1993926E-2,-1.11767136E-1,8.7573014E-2,5.0485865E-3,1.10471904E-1,3.7783366E-2,-5.0340977E-2,3.5959393E-2],"split_indices":[7,7,2,5,8,2,0,0,6,6,2,8,0,2,5,0,0,0,0,0,0,0,0,0,0,0,0,0,0],"split_type":[0,0,0,0,0,0,0,0,0,0,0,0,0,0,0,0,0,0,0,0,0,0,0,0,0,0,0,0,0],"sum_hessian":[5.9996796E2,1.4174576E2,4.5822217E2,1.6878338E1,1.24867424E2,3.831436E2,7.5078575E1,1.3669784E1,3.2085555E0,1.182633E2,6.6041236E0,1.1653133E1,3.7149048E2,8.605176E0,6.64734E1,1.6146038E0,1.5939516E0,1.14552666E2,3.7106304E0,5.382337E0,1.2217865E0,7.692584E0,3.9605496E0,5.097121E0,3.6639334E2,3.4253986E0,5.179777E0,7.1937957E0,5.92796E1],"tree_param":{"num_deleted":"0","num_feature":"12","num_nodes":"29","size_leaf_vector":"1"}},{"base_weights":[-2.7559993E-3,-6.731343E-1,3.5088245E-2,-9.460529E-2,-4.621789E-1,-9.3535066E-2,1.3631432E-1,3.9870247E-2,-6.149018E-1,-1.2127356E-1,6.3131243E-1,3.1914926E-1,5.6867123E-2,-3.9976507E-2,6.414386E-2,-5.8404463E-3,-6.679063E-2,-8.464508E-3,-4.5279704E-2,-1.143355E-2,8.4524415E-2,2.3140732E-2,8.24247E-2,-5.5834213E-3,3.2501798E-2],"categories":[],"categories_nodes":[],"categories_segments":[],"categories_sizes":[],"default_left":[0,0,0,0,0,0,0,0,0,0,0,0,0,0,0,0,0,0,0,0,0,0,0,0,0],"id":19,"left_children":[1,3,5,-1,7,9,11,13,15,17,19,21,23,-1,-1,-1,-1,-1,-1,-1,-1,-1,-1,-1,-1],"loss_changes":[1.5180249E1,1.4035692E0,7.3879614E0,0E0,1.557158E0,5.1042957E0,4.592199E0,1.7378447E0,4.1487503E-1,2.8964589E0,1.5925534E0,4.0604277E0,6.741355E0,0E0,0E0,0E0,0E0,0E0,0E0,0E0,0E0,0E0,0E0,0E0,0E0],"parents":[2147483647,0,0,1,1,2,2,4,4,5,5,6,6,7,7,8,8,9,9,10,10,11,11,12,12],"right_children":[2,4,6,-1,8,10,12,14,16,18,20,22,24,-1,-1,-1,-1,-1,-1,-1,-1,-1,-1,-1,-1],"split_conditions":[9.666667E0,1.3333334E0,1.96E1,-9.460529E-2,2.02E1,2.66E2,3.4666668E1,1.4333333E1,1.9E1,2.232E2,1.5E0,3.4E1,2.672E2,-3.9976507E-2,6.414386E-2,-5.8404463E-3,-6.679063E-2,-8.464508E-3,-4.5279704E-2,-1.143355E-2,8.4524415E-2,2.3140732E-2,8.24247E-2,-5.5834213E-3,3.2501798E-2],"split_indices":[7,5,6,0,1,0,7,0,0,1,3,7,2,0,0,0,0,0,0,0,0,0,0,0,0],"split_type":[0,0,0,0,0,0,0,0,0,0,0,0,0,0,0,0,0,0,0,0,0,0,0,0,0],"sum_hessian":[5.9642426E2,3.0973223E1,5.6545105E2,1.1984261E1,1.8988962E1,2.4905911E2,3.1639194E2,4.601452E0,1.4387511E1,2.406814E2,8.377717E0,9.492355E1,2.2146838E2,2.852363E0,1.7490886E0,1.4339775E0,1.2953533E1,2.1786574E2,2.2815653E1,1.971546E0,6.4061704E0,8.2116936E1,1.2806619E1,1.564892E2,6.497919E1],"tree_param":{"num_deleted":"0","num_feature":"12","num_nodes":"25","size_leaf_vector":"1"}},{"base_weights":[-2.518935E-3,-6.9377136E-1,2.9930564E-2,-9.2974E-2,-4.6344075E-1,-1.535346E-1,9.404014E-2,2.4466736E-2,-7.2039396E-1,-1.7072333E-1,9.5102295E-2,-6.462268E-2,1.5545696E-1,-3.7378117E-2,7.5526446E-2,5.4447255E-3,-8.940887E-2,-1.08038625E-2,-4.7853198E-2,5.022601E-2,-1.1762477E-2,8.6668365E-2,1.1963987E-2],"categories":[],"categories_nodes":[],"categories_segments":[],"categories_sizes":[],"default_left":[0,0,0,0,0,0,0,0,0,0,0,0,0,0,0,0,0,0,0,0,0,0,0],"id":20,"left_children":[1,3,5,-1,7,9,11,13,15,17,-1,19,21,-1,-1,-1,-1,-1,-1,-1,-1,-1,-1],"loss_changes":[1.3349745E1,1.019495E0,6.7015505E0,0E0,1.9605894E0,2.9647605E0,4.121645E0,2.1197581E0,1.4193659E0,2.7690191E0,0E0,3.6181717E0,7.6527205E0,0E0,0E0,0E0,0E0,0E0,0E0,0E0,0E0,0E0,0E0],"parents":[2147483647,0,0,1,1,2,2,4,4,5,5,6,6,7,7,8,8,9,9,11,11,12,12],"right_children":[2,4,6,-1,8,10,12,14,16,18,-1,20,22,-1,-1,-1,-1,-1,-1,-1,-1,-1,-1],"split_conditions":[4.3333332E1,1.3333334E0,1E0,-9.2974E-2,2.5E1,2.62E1,2.107E2,2.3333333E0,1.9E1,2.156E2,9.5102295E-2,1.25E1,2.006E2,-3.7378117E-2,7.5526446E-2,5.4447255E-3,-8.940887E-2,-1.08038625E-2,-4.7853198E-2,5.022601E-2,-1.1762477E-2,8.6668365E-2,1.1963987E-2],"split_indices":[0,5,4,0,2,6,2,5,0,2,0,5,1,0,0,0,0,0,0,0,0,0,0],"split_type":[0,0,0,0,0,0,0,0,0,0,0,0,0,0,0,0,0,0,0,0,0,0,0],"sum_hessian":[5.932268E2,2.5685425E1,5.675414E2,1.1187516E1,1.449791E1,1.4660387E2,4.2093756E2,5.313438E0,9.184471E0,1.451899E2,1.4139564E0,1.1745493E2,3.034826E2,3.7554417E0,1.5579964E0,1.8075657E0,7.376906E0,1.2174727E2,2.3442633E1,9.31802E0,1.0813691E2,1.34383E1,2.900443E2],"tree_param":{"num_deleted":"0","num_feature":"12","num_nodes":"23","size_leaf_vector":"1"}},{"base_weights":[-2.313426E-3,-4.092941E-1,4.6089914E-2,-9.1423094E-2,-2.959608E-1,2.1546884E-2,3.938299E-1,-4.1123602E-1,-5.027039E-2,3.1858876E-2,-1.0183445E0,1.2882598E-1,2.2531183E-1,-3.039389E-2,-1.0833724E-1,3.8762376E-2,-6.1169922E-2,2.161062E-3,7.7614136E-2,-1.3176006E-1,-2.0914475E-2,-9.133809E-3,5.3215083E-2],"categories":[],"categories_nodes":[],"categories_segments":[],"categories_sizes":[],"default_left":[0,0,0,0,0,0,0,0,0,0,0,0,0,0,0,0,0,0,0,0,0,0,0],"id":21,"left_children":[1,3,5,-1,7,9,11,13,15,17,19,-1,21,-1,-1,-1,-1,-1,-1,-1,-1,-1,-1],"loss_changes":[1.1675349E1,3.3344536E0,4.5125175E0,0E0,1.4783325E0,5.3497477E0,4.964821E0,2.2587256E0,4.672598E0,3.7357209E0,9.108176E-1,0E0,3.0167947E0,0E0,0E0,0E0,0E0,0E0,0E0,0E0,0E0,0E0,0E0],"parents":[2147483647,0,0,1,1,2,2,4,4,5,5,6,6,7,7,8,8,9,9,10,10,12,12],"right_children":[2,4,6,-1,8,10,12,14,16,18,20,-1,22,-1,-1,-1,-1,-1,-1,-1,-1,-1,-1],"split_conditions":[1.19E2,1.4E0,2.66E1,-9.1423094E-2,1.0333333E1,4.42E1,2.6E2,9.333333E0,2.26E1,4.5666668E1,1.5E0,1.2882598E-1,4.38E1,-3.039389E-2,-1.0833724E-1,3.8762376E-2,-6.1169922E-2,2.161062E-3,7.7614136E-2,-1.3176006E-1,-2.0914475E-2,-9.133809E-3,5.3215083E-2],"split_indices":[2,6,6,0,5,8,1,5,8,7,4,0,8,0,0,0,0,0,0,0,0,0,0],"split_type":[0,0,0,0,0,0,0,0,0,0,0,0,0,0,0,0,0,0,0,0,0,0,0],"sum_hessian":[5.9072314E2,6.199621E1,5.287269E2,1.0068958E1,5.192725E1,4.9486215E2,3.3864758E1,3.4885544E1,1.7041706E1,4.9096292E2,3.8992276E0,4.315434E0,2.9549322E1,3.1335474E1,3.5500689E0,9.74811E0,7.2935963E0,4.853096E2,5.6533413E0,2.3878746E0,1.511353E0,1.4887811E1,1.466151E1],"tree_param":{"num_deleted":"0","num_feature":"12","num_nodes":"23","size_leaf_vector":"1"}},{"base_weights":[-2.4059017E-3,-6.3879126E-1,2.5069647E-2,-8.943086E-2,-4.13157E-1,-8.3651274E-2,1.12417385E-1,-6.1473805E-2,-7.983622E-2,-1.0826565E-1,5.803363E-1,7.483333E-1,9.223847E-2,-4.3994974E-2,5.914293E-2,-7.458777E-3,-4.157503E-2,-1.0551932E-2,7.822183E-2,-1.2478794E-2,1.0242098E-1,5.798824E-3,4.5817424E-2],"categories":[],"categories_nodes":[],"categories_segments":[],"categories_sizes":[],"default_left":[0,0,0,0,0,0,0,0,0,0,0,0,0,0,0,0,0,0,0,0,0,0,0],"id":22,"left_children":[1,3,5,-1,7,9,11,13,-1,15,17,19,21,-1,-1,-1,-1,-1,-1,-1,-1,-1,-1],"loss_changes":[1.0324603E1,1.0394716E0,5.3856525E0,0E0,1.9608669E0,4.19419E0,3.9647045E0,2.4444625E0,0E0,2.5018027E0,1.355418E0,2.4227324E0,3.8063843E0,0E0,0E0,0E0,0E0,0E0,0E0,0E0,0E0,0E0,0E0],"parents":[2147483647,0,0,1,1,2,2,4,4,5,5,6,6,7,7,9,9,10,10,11,11,12,12],"right_children":[2,4,6,-1,8,10,12,14,-1,16,18,20,22,-1,-1,-1,-1,-1,-1,-1,-1,-1,-1],"split_conditions":[4.3333332E1,1.3333334E0,1.96E1,-8.943086E-2,2E-1,2.66E2,3.12E1,1E0,-7.983622E-2,2.232E2,1.5E0,1.85E1,2.6E0,-4.3994974E-2,5.914293E-2,-7.458777E-3,-4.157503E-2,-1.0551932E-2,7.822183E-2,-1.2478794E-2,1.0242098E-1,5.798824E-3,4.5817424E-2],"split_indices":[0,5,6,0,4,0,8,10,0,1,3,5,4,0,0,0,0,0,0,0,0,0,0],"split_type":[0,0,0,0,0,0,0,0,0,0,0,0,0,0,0,0,0,0,0,0,0,0,0],"sum_hessian":[5.885663E2,2.3438444E1,5.6512787E2,9.601633E0,1.383681E1,2.5178087E2,3.13347E2,7.8393016E0,5.997509E0,2.4358789E2,8.192987E0,8.5275E0,3.048195E2,5.1690574E0,2.6702442E0,2.20662E2,2.292588E1,1.971731E0,6.2212567E0,2.1789641E0,6.3485355E0,2.797906E2,2.5028896E1],"tree_param":{"num_deleted":"0","num_feature":"12","num_nodes":"23","size_leaf_vector":"1"}},{"base_weights":[-2.2020235E-3,-6.1015594E-1,2.2949798E-2,-8.7606244E-2,-3.866445E-1,-1.3026546E-1,7.644953E-2,7.9988606E-2,-6.503224E-1,-1.5968037E-1,4.286261E-1,-5.7481125E-2,1.287479E-1,-3.0794919E-2,7.311813E-2,9.506884E-3,-8.3249725E-2,-9.240421E-3,-4.8696995E-2,1.17333405E-1,-3.4389321E-3,-2.0775653E-3,-8.4859215E-2,7.894444E-2,9.540979E-3],"categories":[],"categories_nodes":[],"categories_segments":[],"categories_sizes":[],"default_left":[0,0,0,0,0,0,0,0,0,0,0,0,0,0,0,0,0,0,0,0,0,0,0,0,0],"id":23,"left_children":[1,3,5,-1,7,9,11,13,15,17,19,21,23,-1,-1,-1,-1,-1,-1,-1,-1,-1,-1,-1,-1],"loss_changes":[8.992401E0,1.0498028E0,4.6396112E0,0E0,1.8340592E0,2.477609E0,2.94401E0,1.7711293E0,1.3506517E0,3.0364585E0,2.6604269E0,3.4213505E0,6.5727873E0,0E0,0E0,0E0,0E0,0E0,0E0,0E0,0E0,0E0,0E0,0E0,0E0],"parents":[2147483647,0,0,1,1,2,2,4,4,5,5,6,6,7,7,8,8,9,9,10,10,11,11,12,12],"right_children":[2,4,6,-1,8,10,12,14,16,18,20,22,24,-1,-1,-1,-1,-1,-1,-1,-1,-1,-1,-1,-1],"split_conditions":[4.3333332E1,1.3333334E0,1E0,-8.7606244E-2,2.5E1,2.414E2,2.107E2,2.3333333E0,1.9E1,2.098E2,2.482E2,2.098E2,2.006E2,-3.0794919E-2,7.311813E-2,9.506884E-3,-8.3249725E-2,-9.240421E-3,-4.8696995E-2,1.17333405E-1,-3.4389321E-3,-2.0775653E-3,-8.4859215E-2,7.894444E-2,9.540979E-3],"split_indices":[0,5,4,0,2,1,2,5,0,2,1,2,1,0,0,0,0,0,0,0,0,0,0,0,0],"split_type":[0,0,0,0,0,0,0,0,0,0,0,0,0,0,0,0,0,0,0,0,0,0,0,0,0],"sum_hessian":[5.8616296E2,2.2362871E1,5.638001E2,8.879541E0,1.3483331E1,1.4554527E2,4.1825485E2,5.1196613E0,8.363669E0,1.3894669E2,6.5985823E0,1.1742993E2,3.0082492E2,3.53866E0,1.5810014E0,1.7365409E0,6.627128E0,1.1631901E2,2.2627676E1,1.9416091E0,4.656973E0,1.13203835E2,4.2260985E0,1.3360755E1,2.8746414E2],"tree_param":{"num_deleted":"0","num_feature":"12","num_nodes":"25","size_leaf_vector":"1"}},{"base_weights":[-2.1640789E-3,-2.1775392E-1,6.158927E-2,-7.66213E-1,-1.5932119E-1,-4.5606616E-1,7.577026E-2,-8.757987E-2,-2.8698134E-1,-1.1298302E-1,-8.559287E-1,-8.099774E-2,-1.0500129E-1,8.0354494E-1,6.53751E-2,2.0911682E-2,-6.837138E-2,-1.4692363E-2,7.264476E-2,-1.0290712E-1,2.2957767E-3,-9.388514E-2,2.7330631E-2,1.2503105E-1,3.8556196E-2,7.833206E-2,5.5497293E-3],"categories":[],"categories_nodes":[],"categories_segments":[],"categories_sizes":[],"default_left":[0,0,0,0,0,0,0,0,0,0,0,0,0,0,0,0,0,0,0,0,0,0,0,0,0,0,0],"id":24,"left_children":[1,3,5,7,9,11,13,-1,15,17,19,21,-1,23,25,-1,-1,-1,-1,-1,-1,-1,-1,-1,-1,-1,-1],"loss_changes":[8.052652E0,4.1630735E0,3.3540397E0,4.1097307E-1,3.844594E0,2.6327126E0,3.2837248E0,0E0,8.9767754E-1,3.401285E0,1.1593423E0,2.8587317E0,0E0,6.610861E-1,3.0476055E0,0E0,0E0,0E0,0E0,0E0,0E0,0E0,0E0,0E0,0E0,0E0,0E0],"parents":[2147483647,0,0,1,1,2,2,3,3,4,4,5,5,6,6,8,8,9,9,10,10,11,11,13,13,14,14],"right_children":[2,4,6,8,10,12,14,-1,16,18,20,22,-1,24,26,-1,-1,-1,-1,-1,-1,-1,-1,-1,-1,-1,-1],"split_conditions":[2.7333334E1,3.5E0,1.313E2,1.5E0,3.12E1,2.78E1,1.48E2,-8.757987E-2,1.6E0,1.85E1,2.217E2,1.112E2,-1.0500129E-1,1.45E2,2.75E1,2.0911682E-2,-6.837138E-2,-1.4692363E-2,7.264476E-2,-1.0290712E-1,2.2957767E-3,-9.388514E-2,2.7330631E-2,1.2503105E-1,3.8556196E-2,7.833206E-2,5.5497293E-3],"split_indices":[7,7,2,5,8,8,0,0,6,6,2,1,0,1,7,0,0,0,0,0,0,0,0,0,0,0,0],"split_type":[0,0,0,0,0,0,0,0,0,0,0,0,0,0,0,0,0,0,0,0,0,0,0,0,0,0,0],"sum_hessian":[5.8390283E2,1.3271045E2,4.5119235E2,1.16113825E1,1.2109907E2,1.1199815E1,4.3999255E2,8.776873E0,2.8345096E0,1.1463571E2,6.463351E0,7.561325E0,3.63849E0,5.1216445E0,4.348709E2,1.4696602E0,1.3648496E0,1.109737E2,3.662016E0,5.2568583E0,1.2064925E0,1.7278783E0,5.833447E0,1.5130789E0,3.6085656E0,4.8392634E0,4.3003165E2],"tree_param":{"num_deleted":"0","num_feature":"12","num_nodes":"27","size_leaf_vector":"1"}},{"base_weights":[-2.2215138E-3,-5.14564E-1,2.1138057E-2,-8.080693E-2,-3.1302163E-1,4.593776E-4,3.4076446E-1,-5.456618E-4,-7.417266E-1,9.458111E-3,-9.561969E-1,1.2096631E-1,1.8022798E-1,-3.1213297E-2,7.506213E-2,-9.242955E-2,-3.9116208E-2,6.101008E-5,7.1234636E-2,-1.3004385E-1,-2.7851446E-2,-1.1658577E-2,4.7646157E-2],"categories":[],"categories_nodes":[],"categories_segments":[],"categories_sizes":[],"default_left":[0,0,0,0,0,0,0,0,0,0,0,0,0,0,0,0,0,0,0,0,0,0,0],"id":25,"left_children":[1,3,5,-1,7,9,11,13,15,17,19,-1,21,-1,-1,-1,-1,-1,-1,-1,-1,-1,-1],"loss_changes":[6.9870224E0,1.2529287E0,3.690813E0,0E0,2.2401123E0,4.5329633E0,4.5151863E0,2.7327664E0,8.9698315E-2,3.243474E0,7.82516E-1,0E0,2.6771283E0,0E0,0E0,0E0,0E0,0E0,0E0,0E0,0E0,0E0,0E0],"parents":[2147483647,0,0,1,1,2,2,4,4,5,5,6,6,7,7,8,8,9,9,10,10,12,12],"right_children":[2,4,6,-1,8,10,12,14,16,18,20,-1,22,-1,-1,-1,-1,-1,-1,-1,-1,-1,-1],"split_conditions":[9.666667E0,2.3333333E0,2.66E1,-8.080693E-2,6.6666665E0,4.42E1,2.6E2,5.3333335E0,8.333333E0,4.5666668E1,1.3333334E0,1.2096631E-1,4.38E1,-3.1213297E-2,7.506213E-2,-9.242955E-2,-3.9116208E-2,6.101008E-5,7.1234636E-2,-1.3004385E-1,-2.7851446E-2,-1.1658577E-2,4.7646157E-2],"split_indices":[7,7,6,0,7,8,1,7,7,7,3,0,8,0,0,0,0,0,0,0,0,0,0],"split_type":[0,0,0,0,0,0,0,0,0,0,0,0,0,0,0,0,0,0,0,0,0,0,0],"sum_hessian":[5.81895E2,2.4456903E1,5.574381E2,8.731632E0,1.572527E1,5.245059E2,3.293221E1,9.674766E0,6.0505047E0,5.2059906E2,3.9068718E0,4.116524E0,2.8815683E1,7.2513456E0,2.4234202E0,2.9023902E0,3.1481144E0,5.151156E2,5.4834456E0,1.9814216E0,1.9254501E0,1.4696671E1,1.4119014E1],"tree_param":{"num_deleted":"0","num_feature":"12","num_nodes":"23","size_leaf_vector":"1"}},{"base_weights":[-2.2019304E-3,-2.2173044E-1,4.7457524E-2,-7.8530625E-2,-1.675932E-1,3.70332E-1,2.6391594E-2,-1.1578134E-1,-5.29744E-1,5.1941943E-1,-6.3120395E-1,-7.4969476E-1,3.8382016E-2,-1.4077297E-2,6.775743E-2,-9.534333E-2,7.659149E-4,6.9505416E-2,-1.7895548E-2,2.5844887E-2,-1.1068173E-1,-9.536185E-2,1.815771E-2,-8.323935E-2,4.6716365E-3],"categories":[],"categories_nodes":[],"categories_segments":[],"categories_sizes":[],"default_left":[0,0,0,0,0,0,0,0,0,0,0,0,0,0,0,0,0,0,0,0,0,0,0,0,0],"id":26,"left_children":[1,3,5,-1,7,9,11,13,15,17,19,21,23,-1,-1,-1,-1,-1,-1,-1,-1,-1,-1,-1,-1],"loss_changes":[6.349752E0,3.1467094E0,3.2213004E0,0E0,1.8019669E0,4.66088E0,4.188598E0,1.8432412E0,2.7735784E0,3.2899132E0,2.0680504E0,1.4740422E0,3.2406363E0,0E0,0E0,0E0,0E0,0E0,0E0,0E0,0E0,0E0,0E0,0E0,0E0],"parents":[2147483647,0,0,1,1,2,2,4,4,5,5,6,6,7,7,8,8,9,9,10,10,11,11,12,12],"right_children":[2,4,6,-1,8,10,12,14,16,18,20,22,24,-1,-1,-1,-1,-1,-1,-1,-1,-1,-1,-1,-1],"split_conditions":[1.5E1,2.3333333E0,1.62E1,-7.8530625E-2,1.7257143E2,2.1766667E2,1.3333333E2,1.9333334E1,1E0,3E1,1.892E2,1.2E0,1.29E2,-1.4077297E-2,6.775743E-2,-9.534333E-2,7.659149E-4,6.9505416E-2,-1.7895548E-2,2.5844887E-2,-1.1068173E-1,-9.536185E-2,1.815771E-2,-8.323935E-2,4.6716365E-3],"split_indices":[6,7,6,0,2,0,0,5,10,8,1,4,2,0,0,0,0,0,0,0,0,0,0,0,0],"split_type":[0,0,0,0,0,0,0,0,0,0,0,0,0,0,0,0,0,0,0,0,0,0,0,0,0],"sum_hessian":[5.804918E2,1.06449165E2,4.7404263E2,8.145685E0,9.830348E1,2.8019049E1,4.460236E2,8.7154274E1,1.1149204E1,2.4807596E1,3.2114515E0,5.850073E0,4.4017352E2,8.52901E1,1.864178E0,5.801302E0,5.347902E0,1.982624E1,4.9813566E0,1.2778267E0,1.9336247E0,4.779495E0,1.070578E0,3.2356615E0,4.3693787E2],"tree_param":{"num_deleted":"0","num_feature":"12","num_nodes":"25","size_leaf_vector":"1"}},{"base_weights":[-2.59941E-3,-1.8383662E-1,4.9834892E-2,-8.0672115E-2,-1.4375797E-1,2.8468011E-2,3.7132794E-1,-3.3679463E-2,-4.08296E-1,-4.190574E-1,4.1230004E-2,-4.4483513E-1,4.74456E-1,-1.4968966E-2,2.9264657E-2,-5.4146953E-2,5.7407457E-2,6.084543E-2,-5.8827985E-2,7.58631E-2,3.0287416E-3,-9.8995596E-2,4.0280476E-2,7.272311E-2,2.9511862E-3],"categories":[],"categories_nodes":[],"categories_segments":[],"categories_sizes":[],"default_left":[0,0,0,0,0,0,0,0,0,0,0,0,0,0,0,0,0,0,0,0,0,0,0,0,0],"id":27,"left_children":[1,3,5,-1,7,9,11,13,15,17,19,21,23,-1,-1,-1,-1,-1,-1,-1,-1,-1,-1,-1,-1],"loss_changes":[5.517881E0,3.1366196E0,3.0832944E0,0E0,3.5863402E0,2.4354763E0,2.5665393E0,3.3900702E0,5.0516872E0,2.414737E0,3.215836E0,2.0878587E0,2.8273706E0,0E0,0E0,0E0,0E0,0E0,0E0,0E0,0E0,0E0,0E0,0E0,0E0],"parents":[2147483647,0,0,1,1,2,2,4,4,5,5,6,6,7,7,8,8,9,9,10,10,11,11,12,12],"right_children":[2,4,6,-1,8,10,12,14,16,18,20,22,24,-1,-1,-1,-1,-1,-1,-1,-1,-1,-1,-1,-1],"split_conditions":[2.7333334E1,1.3333334E0,2.6E0,-8.0672115E-2,1.4333333E1,1.313E2,2.388E2,1E0,2.34E2,8.4E1,1.48E2,3E0,3E0,-1.4968966E-2,2.9264657E-2,-5.4146953E-2,5.7407457E-2,6.084543E-2,-5.8827985E-2,7.58631E-2,3.0287416E-3,-9.8995596E-2,4.0280476E-2,7.272311E-2,2.9511862E-3],"split_indices":[7,5,4,0,5,2,1,4,2,2,0,4,4,0,0,0,0,0,0,0,0,0,0,0,0],"split_type":[0,0,0,0,0,0,0,0,0,0,0,0,0,0,0,0,0,0,0,0,0,0,0,0,0],"sum_hessian":[5.7867926E2,1.2928935E2,4.493899E2,6.659648E0,1.2262971E2,4.2240482E2,2.698507E1,8.739187E1,3.523784E1,1.0828955E1,4.1157587E2,2.6555364E0,2.4329533E1,6.487119E1,2.2520678E1,3.1426384E1,3.8114552E0,1.164227E0,9.664727E0,5.15693E0,4.0641895E2,1.5139877E0,1.1415488E0,1.5110658E1,9.218876E0],"tree_param":{"num_deleted":"0","num_feature":"12","num_nodes":"25","size_leaf_vector":"1"}},{"base_weights":[-2.317479E-3,-5.4771215E-1,1.32703185E-2,-3.502711E-1,-9.215856E-2,-4.9815667E-3,3.0382934E-1,-7.283279E-1,1.0059916E-1,3.3619066E-3,-8.999479E-1,1.15097575E-1,1.511854E-1,-8.2988605E-2,-3.1183252E-2,7.058078E-2,-3.6482584E-2,-2.8078092E-4,8.721528E-2,-1.1655285E-1,-1.8620294E-2,-3.509417E-2,3.2621402E-2],"categories":[],"categories_nodes":[],"categories_segments":[],"categories_sizes":[],"default_left":[0,0,0,0,0,0,0,0,0,0,0,0,0,0,0,0,0,0,0,0,0,0,0],"id":28,"left_children":[1,3,5,7,-1,9,11,13,15,17,19,-1,21,-1,-1,-1,-1,-1,-1,-1,-1,-1,-1],"loss_changes":[4.918007E0,8.6375093E-1,2.9848979E0,2.1412451E0,0E0,3.9627862E0,4.127599E0,2.5471926E-2,2.0635831E0,2.824004E0,7.121444E-1,0E0,2.6928818E0,0E0,0E0,0E0,0E0,0E0,0E0,0E0,0E0,0E0,0E0],"parents":[2147483647,0,0,1,1,2,2,3,3,5,5,6,6,7,7,8,8,9,9,10,10,12,12],"right_children":[2,4,6,8,-1,10,12,14,16,18,20,-1,22,-1,-1,-1,-1,-1,-1,-1,-1,-1,-1],"split_conditions":[4E0,3.3333334E-1,2.66E1,1.4333333E1,-9.215856E-2,4.42E1,2.6E2,1.5E0,2.02E1,4.6333332E1,1.5E0,1.15097575E-1,2.672E2,-8.2988605E-2,-3.1183252E-2,7.058078E-2,-3.6482584E-2,-2.8078092E-4,8.721528E-2,-1.1655285E-1,-1.8620294E-2,-3.509417E-2,3.2621402E-2],"split_indices":[6,3,6,0,0,8,1,5,1,7,4,0,2,0,0,0,0,0,0,0,0,0,0],"split_type":[0,0,0,0,0,0,0,0,0,0,0,0,0,0,0,0,0,0,0,0,0,0,0],"sum_hessian":[5.7663184E2,1.5074083E1,5.615578E2,1.1132125E1,3.9419582E0,5.2929236E2,3.226541E1,5.72027E0,5.4118547E0,5.2539056E2,3.901798E0,3.9276114E0,2.8337797E1,3.800911E0,1.9193593E0,2.1281135E0,3.2837415E0,5.2267554E2,2.7150106E0,2.382359E0,1.519439E0,7.064863E0,2.1272934E1],"tree_param":{"num_deleted":"0","num_feature":"12","num_nodes":"23","size_leaf_vector":"1"}},{"base_weights":[-2.2926494E-3,-4.774528E-1,1.3997999E-2,-6.605729E-1,-1.7010227E-1,-4.0836796E-2,1.0491289E-1,-3.495586E-1,-8.564369E-1,-5.4703546E-1,2.8141493E-1,-5.221403E-2,9.771735E-2,-5.9397533E-3,2.1758442E-1,-7.347544E-2,6.4379857E-3,-9.4454736E-2,-1.9114794E-2,-7.7393085E-2,2.6449629E-3,8.3115466E-2,-4.3063838E-2,-9.5163117E-4,-3.7669607E-2,-4.9575646E-3,6.816314E-2,7.9965346E-2,1.6525934E-2],"categories":[],"categories_nodes":[],"categories_segments":[],"categories_sizes":[],"default_left":[0,0,0,0,0,0,0,0,0,0,0,0,0,0,0,0,0,0,0,0,0,0,0,0,0,0,0,0,0],"id":29,"left_children":[1,3,5,7,9,11,13,15,17,19,21,23,-1,25,27,-1,-1,-1,-1,-1,-1,-1,-1,-1,-1,-1,-1,-1,-1],"loss_changes":[4.4691353E0,9.647703E-1,2.7878582E0,4.1005945E-1,1.5992402E0,4.0932827E0,2.6285293E0,1.0342491E0,1.9790792E-1,6.669167E-1,2.1288686E0,4.791507E0,0E0,3.244192E0,3.0458612E0,0E0,0E0,0E0,0E0,0E0,0E0,0E0,0E0,0E0,0E0,0E0,0E0,0E0,0E0],"parents":[2147483647,0,0,1,1,2,2,3,3,4,4,5,5,6,6,7,7,8,8,9,9,10,10,11,11,13,13,14,14],"right_children":[2,4,6,8,10,12,14,16,18,20,22,24,-1,26,28,-1,-1,-1,-1,-1,-1,-1,-1,-1,-1,-1,-1,-1,-1],"split_conditions":[4.3333332E1,1E0,1.6E0,2E1,3.3333333E0,3.1166666E2,1E0,2E0,1.1114286E2,1.6E1,2.6E1,4E1,9.771735E-2,4.4E1,1.3333334E0,-7.347544E-2,6.4379857E-3,-9.4454736E-2,-1.9114794E-2,-7.7393085E-2,2.6449629E-3,8.3115466E-2,-4.3063838E-2,-9.5163117E-4,-3.7669607E-2,-4.9575646E-3,6.816314E-2,7.9965346E-2,1.6525934E-2],"split_indices":[0,10,4,2,7,0,10,8,2,0,0,7,0,8,3,0,0,0,0,0,0,0,0,0,0,0,0,0,0],"split_type":[0,0,0,0,0,0,0,0,0,0,0,0,0,0,0,0,0,0,0,0,0,0,0,0,0,0,0,0,0],"sum_hessian":[5.7549457E2,1.8138168E1,5.573564E2,1.0646007E1,7.4921618E0,3.4800812E2,2.0934828E2,5.1897902E0,5.456216E0,3.9680367E0,3.5241249E0,3.451E2,2.9081106E0,1.06003395E2,1.0334488E2,2.2867718E0,2.9030182E0,4.4474444E0,1.0087717E0,2.592722E0,1.3753147E0,1.8943387E0,1.6297863E0,3.0587946E2,3.922053E1,1.0055E2,5.45339E0,7.3459067E0,9.599898E1],"tree_param":{"num_deleted":"0","num_feature":"12","num_nodes":"29","size_leaf_vector":"1"}},{"base_weights":[-2.071666E-3,-1.5901713E-1,4.2736113E-2,-1.20799795E-1,-7.7876604E-1,2.4048723E-2,3.305597E-1,-1.6245162E-1,5.334389E-1,-1.0582282E-1,-2.235454E-1,7.109786E-2,-8.322987E-2,-4.1859445E-1,4.2902514E-1,-6.379047E-3,-4.8442613E-2,8.0356434E-2,-2.6891176E-2,8.11895E-2,-1.09930195E-1,2.7989717E-3,3.63716E-2,5.3867E-2,-1.2809684E-2,-9.2084534E-2,3.7900794E-2,6.750689E-2,9.2187984E-4],"categories":[],"categories_nodes":[],"categories_segments":[],"categories_sizes":[],"default_left":[0,0,0,0,0,0,0,0,0,0,0,0,0,0,0,0,0,0,0,0,0,0,0,0,0,0,0,0,0],"id":30,"left_children":[1,3,5,7,9,11,13,15,17,-1,19,21,23,25,27,-1,-1,-1,-1,-1,-1,-1,-1,-1,-1,-1,-1,-1,-1],"loss_changes":[4.0522084E0,2.9369478E0,2.4032223E0,3.4036098E0,8.8829374E-1,2.1360636E0,2.1898944E0,3.6286774E0,1.8457181E0,0E0,4.24316E0,3.6972418E0,3.6718993E0,1.8199987E0,2.5327196E0,0E0,0E0,0E0,0E0,0E0,0E0,0E0,0E0,0E0,0E0,0E0,0E0,0E0,0E0],"parents":[2147483647,0,0,1,1,2,2,3,3,4,4,5,5,6,6,7,7,8,8,10,10,11,11,12,12,13,13,14,14],"right_children":[2,4,6,8,10,12,14,16,18,-1,20,22,24,26,28,-1,-1,-1,-1,-1,-1,-1,-1,-1,-1,-1,-1,-1,-1],"split_conditions":[2.7333334E1,3.12E1,2.6E0,2.98E1,1.61E2,3.74E1,2.388E2,1.4333333E1,1.8766667E2,-1.0582282E-1,1.5E0,3.62E1,1.95E2,3E0,3E0,-6.379047E-3,-4.8442613E-2,8.0356434E-2,-2.6891176E-2,8.11895E-2,-1.09930195E-1,2.7989717E-3,3.63716E-2,5.3867E-2,-1.2809684E-2,-9.2084534E-2,3.7900794E-2,6.750689E-2,9.2187984E-4],"split_indices":[7,8,4,8,0,8,1,5,0,0,4,8,2,4,4,0,0,0,0,0,0,0,0,0,0,0,0,0,0],"split_type":[0,0,0,0,0,0,0,0,0,0,0,0,0,0,0,0,0,0,0,0,0,0,0,0,0,0,0,0,0],"sum_hessian":[5.742554E2,1.2697143E2,4.4728394E2,1.20721924E2,6.2495017E0,4.2103137E2,2.6252556E1,1.14202934E2,6.518987E0,3.554458E0,2.695044E0,2.9290805E2,1.2812332E2,2.6720018E0,2.3580553E1,8.833345E1,2.5869486E1,4.875913E0,1.6430743E0,1.2683486E0,1.4266955E0,2.5625287E2,3.6655197E1,7.8808684E0,1.2024245E2,1.544753E0,1.1272489E0,1.44837475E1,9.096807E0],"tree_param":{"num_deleted":"0","num_feature":"12","num_nodes":"29","size_leaf_vector":"1"}},{"base_weights":[-1.9176969E-3,-6.38008E-1,8.690575E-3,-8.032251E-2,-1.7563142E-1,-6.731364E-2,7.2277665E-2,3.641145E-2,-6.2910266E-2,-9.022769E-2,7.006677E-1,3.588472E-1,4.3738216E-2,-2.5128154E-3,-5.140539E-2,1.0279874E-1,-1.731405E-2,7.287436E-2,1.9082507E-4,-1.1858075E-2,1.2317023E-2],"categories":[],"categories_nodes":[],"categories_segments":[],"categories_sizes":[],"default_left":[0,0,0,0,0,0,0,0,0,0,0,0,0,0,0,0,0,0,0,0,0],"id":31,"left_children":[1,3,5,-1,7,9,11,-1,-1,13,15,17,19,-1,-1,-1,-1,-1,-1,-1,-1],"loss_changes":[3.881193E0,5.796933E-1,2.7398956E0,0E0,1.1502568E0,4.6088085E0,2.508306E0,0E0,0E0,6.931984E0,2.3510828E0,3.670677E0,3.647951E0,0E0,0E0,0E0,0E0,0E0,0E0,0E0,0E0],"parents":[2147483647,0,0,1,1,2,2,4,4,5,5,6,6,9,9,10,10,11,11,12,12],"right_children":[2,4,6,-1,8,10,12,-1,-1,14,16,18,20,-1,-1,-1,-1,-1,-1,-1,-1],"split_conditions":[3.5E0,1.6E1,1.3333334E0,-8.032251E-2,2E-1,2.64E1,1.2E0,3.641145E-2,-6.2910266E-2,3.74E1,2.9E1,2.2266667E2,3.3E1,-2.5128154E-3,-5.140539E-2,1.0279874E-1,-1.731405E-2,7.287436E-2,1.9082507E-4,-1.1858075E-2,1.2317023E-2],"split_indices":[7,0,3,0,4,6,4,0,0,8,6,0,7,0,0,0,0,0,0,0,0],"split_type":[0,0,0,0,0,0,0,0,0,0,0,0,0,0,0,0,0,0,0,0,0],"sum_hessian":[5.733557E2,8.435018E0,5.6492065E2,5.6713543E0,2.763663E0,2.5730783E2,3.0761285E2,1.3517673E0,1.4118958E0,2.5070996E2,6.5978527E0,2.6812288E1,2.8080057E2,2.1824666E2,3.246331E1,4.6715083E0,1.9263446E0,1.2655612E1,1.4156676E1,9.210058E1,1.8869998E2],"tree_param":{"num_deleted":"0","num_feature":"12","num_nodes":"21","size_leaf_vector":"1"}},{"base_weights":[-1.738349E-3,-2.8356317E-1,2.0228155E-2,-7.4470407E-1,-1.9617712E-1,9.928796E-1,1.2914136E-2,-8.233177E-2,-2.7515832E-2,2.694981E-2,-3.732959E-1,1.3158911E-1,1.560126E-2,-6.645922E-2,7.0210725E-2,3.998023E-2,-1.17064165E-2,-9.062726E-2,-2.1858852E-2,-9.010266E-3,5.1065903E-2,2.4996396E-2,-8.592481E-4],"categories":[],"categories_nodes":[],"categories_segments":[],"categories_sizes":[],"default_left":[0,0,0,0,0,0,0,0,0,0,0,0,0,0,0,0,0,0,0,0,0,0,0],"id":32,"left_children":[1,3,5,7,9,11,13,-1,-1,15,17,-1,-1,19,21,-1,-1,-1,-1,-1,-1,-1,-1],"loss_changes":[3.5543182E0,1.5268183E0,3.776779E0,4.383564E-3,1.4429852E0,8.658736E-1,2.413804E0,0E0,0E0,9.5844495E-1,1.4741287E0,0E0,0E0,3.0833461E0,4.3669677E0,0E0,0E0,0E0,0E0,0E0,0E0,0E0,0E0],"parents":[2147483647,0,0,1,1,2,2,3,3,4,4,5,5,6,6,9,9,10,10,13,13,14,14],"right_children":[2,4,6,8,10,12,14,-1,-1,16,18,-1,-1,20,22,-1,-1,-1,-1,-1,-1,-1,-1],"split_conditions":[1.6E1,1.3333334E0,1.48E1,1.6E1,3.3333334E-1,5E-1,1.96E1,-8.233177E-2,-2.7515832E-2,2.5E1,4.64E1,1.3158911E-1,1.560126E-2,2.66E2,3.4666668E1,3.998023E-2,-1.17064165E-2,-9.062726E-2,-2.1858852E-2,-9.010266E-3,5.1065903E-2,2.4996396E-2,-8.592481E-4],"split_indices":[7,5,8,0,3,3,6,0,0,2,1,0,0,0,7,0,0,0,0,0,0,0,0],"split_type":[0,0,0,0,0,0,0,0,0,0,0,0,0,0,0,0,0,0,0,0,0,0,0],"sum_hessian":[5.7221124E2,4.051427E1,5.3169696E2,5.2560105E0,3.525826E1,2.9626307E0,5.287343E2,3.8568444E0,1.3991661E0,1.5977856E1,1.9280403E1,1.7245804E0,1.2380502E0,2.2159598E2,3.0713834E2,3.9570112E0,1.2020844E1,3.2445939E0,1.6035809E1,2.1368556E2,7.9104133E0,9.294809E1,2.1419026E2],"tree_param":{"num_deleted":"0","num_feature":"12","num_nodes":"23","size_leaf_vector":"1"}},{"base_weights":[-1.5715038E-3,-4.224344E-1,1.1822405E-2,-6.1316454E-1,-1.1429946E-1,4.304743E-4,3.5810858E-1,-2.9564276E-1,-8.178263E-1,-4.8445672E-1,2.7805808E-1,2.4848199E-2,-1.4802906E-1,5.21831E-1,-8.129773E-2,-6.821156E-2,6.735439E-3,-9.114495E-2,-2.062126E-2,-7.23352E-2,4.202004E-3,9.1823265E-2,-2.9864991E-2,-4.6136972E-4,5.957514E-2,-9.80105E-2,-3.4827583E-3,-2.8129932E-3,7.258045E-2],"categories":[],"categories_nodes":[],"categories_segments":[],"categories_sizes":[],"default_left":[0,0,0,0,0,0,0,0,0,0,0,0,0,0,0,0,0,0,0,0,0,0,0,0,0,0,0,0,0],"id":33,"left_children":[1,3,5,7,9,11,13,15,17,19,21,23,25,27,-1,-1,-1,-1,-1,-1,-1,-1,-1,-1,-1,-1,-1,-1,-1],"loss_changes":[3.2283676E0,9.6805E-1,2.1898797E0,4.5235062E-1,1.2940562E0,1.9556909E0,3.8141656E0,8.529717E-1,1.5154457E-1,5.928737E-1,1.93946E0,7.7950573E0,7.14334E0,1.8288198E0,0E0,0E0,0E0,0E0,0E0,0E0,0E0,0E0,0E0,0E0,0E0,0E0,0E0,0E0,0E0],"parents":[2147483647,0,0,1,1,2,2,3,3,4,4,5,5,6,6,7,7,8,8,9,9,10,10,11,11,12,12,13,13],"right_children":[2,4,6,8,10,12,14,16,18,20,22,24,26,28,-1,-1,-1,-1,-1,-1,-1,-1,-1,-1,-1,-1,-1,-1,-1],"split_conditions":[4.3333332E1,1E0,2.979E2,2E1,3.3333333E0,2.75E2,4.8E1,2E0,6E-1,1.6E1,3.3E1,2.66E2,2.7833334E2,2.8833334E2,-8.129773E-2,-6.821156E-2,6.735439E-3,-9.114495E-2,-2.062126E-2,-7.23352E-2,4.202004E-3,9.1823265E-2,-2.9864991E-2,-4.6136972E-4,5.957514E-2,-9.80105E-2,-3.4827583E-3,-2.8129932E-3,7.258045E-2],"split_indices":[0,10,2,2,7,0,7,8,4,0,2,0,0,0,0,0,0,0,0,0,0,0,0,0,0,0,0,0,0],"split_type":[0,0,0,0,0,0,0,0,0,0,0,0,0,0,0,0,0,0,0,0,0,0,0,0,0,0,0,0,0],"sum_hessian":[5.7082434E2,1.666417E1,5.5416016E2,9.681541E0,6.9826283E0,5.374797E2,1.6680466E1,4.7526307E0,4.9289107E0,3.4721787E0,3.5104496E0,4.6227942E2,7.520029E1,1.5120908E1,1.5595582E0,1.8760897E0,2.8765411E0,3.8494203E0,1.0794902E0,2.131181E0,1.3409978E0,1.3830256E0,2.127424E0,4.4053708E2,2.1742332E1,8.088504E0,6.7111786E1,4.3241277E0,1.0796781E1],"tree_param":{"num_deleted":"0","num_feature":"12","num_nodes":"29","size_leaf_vector":"1"}},{"base_weights":[-1.7946406E-3,-2.2754565E-1,2.1222217E-2,-3.4295988E-1,2.903841E-2,1.18269436E-1,1.4431497E-2,-2.4628474E-1,-1.0187268E-1,4.0704292E-1,-4.9839497E-1,-2.5544658E-1,3.226582E-2,-3.4412898E-2,2.6375426E-2,1.2011087E-1,1.0120915E-2,3.1013375E-2,-6.837891E-2,-3.8613292E-5,-8.607553E-2,2.0327263E-2,1.1713249E-3],"categories":[],"categories_nodes":[],"categories_segments":[],"categories_sizes":[],"default_left":[0,0,0,0,0,0,0,0,0,0,0,0,0,0,0,0,0,0,0,0,0,0,0],"id":34,"left_children":[1,3,5,7,9,-1,11,13,-1,15,17,19,21,-1,-1,-1,-1,-1,-1,-1,-1,-1,-1],"loss_changes":[2.9708602E0,1.5764999E0,4.0757856E0,2.1379108E0,3.6588457E0,0E0,2.4962144E0,1.7529719E0,0E0,2.4643214E0,1.3642186E0,4.9639516E0,1.7048972E0,0E0,0E0,0E0,0E0,0E0,0E0,0E0,0E0,0E0,0E0],"parents":[2147483647,0,0,1,1,2,2,3,3,4,4,6,6,7,7,9,9,10,10,11,11,12,12],"right_children":[2,4,6,8,10,-1,12,14,-1,16,18,20,22,-1,-1,-1,-1,-1,-1,-1,-1,-1,-1],"split_conditions":[1.19E2,1.0333333E1,1.44E1,9.333333E0,2.26E1,1.18269436E-1,1.36E1,8.8E1,-1.0187268E-1,1.03333336E2,9.16E1,1.28E1,1.64E1,-3.4412898E-2,2.6375426E-2,1.2011087E-1,1.0120915E-2,3.1013375E-2,-6.837891E-2,-3.8613292E-5,-8.607553E-2,2.0327263E-2,1.1713249E-3],"split_indices":[2,5,8,5,8,0,6,1,0,0,2,6,6,0,0,0,0,0,0,0,0,0,0],"split_type":[0,0,0,0,0,0,0,0,0,0,0,0,0,0,0,0,0,0,0,0,0,0,0],"sum_hessian":[5.6982104E2,5.189963E1,5.179214E2,3.5565334E1,1.63343E1,2.0039635E0,5.159175E2,3.230783E1,3.2575023E0,9.647979E0,6.6863213E0,3.115412E1,4.8476334E2,2.7380527E1,4.9273033E0,1.8687186E0,7.7792597E0,1.1216817E0,5.5646396E0,2.2622328E1,8.531791E0,5.1056828E1,4.337065E2],"tree_param":{"num_deleted":"0","num_feature":"12","num_nodes":"23","size_leaf_vector":"1"}},{"base_weights":[-1.6434037E-3,-7.0527774E-1,5.296045E-3,-7.9151444E-2,-2.3414537E-2,-9.30643E-3,2.4854448E-1,-1.8175124E-3,-8.271E-1,1.0918211E-1,9.986094E-2,-9.3233876E-4,6.314021E-2,-1.1348957E-1,-2.4041694E-2,-1.8702406E-2,3.9723143E-2],"categories":[],"categories_nodes":[],"categories_segments":[],"categories_sizes":[],"default_left":[0,0,0,0,0,0,0,0,0,0,0,0,0,0,0,0,0],"id":35,"left_children":[1,3,5,-1,-1,7,9,11,13,-1,15,-1,-1,-1,-1,-1,-1],"loss_changes":[2.7862537E0,4.1081905E-2,2.0102205E0,0E0,0E0,3.2703633E0,3.9093149E0,2.5267599E0,6.0217214E-1,0E0,2.4925113E0,0E0,0E0,0E0,0E0,0E0,0E0],"parents":[2147483647,0,0,1,1,2,2,5,5,6,6,7,7,8,8,10,10],"right_children":[2,4,6,-1,-1,8,10,12,14,-1,16,-1,-1,-1,-1,-1,-1],"split_conditions":[1.3333334E0,1.6E1,2.66E1,-7.9151444E-2,-2.3414537E-2,4.42E1,2.6E2,4.5666668E1,1.3333334E0,1.0918211E-1,4.38E1,-9.3233876E-4,6.314021E-2,-1.1348957E-1,-2.4041694E-2,-1.8702406E-2,3.9723143E-2],"split_indices":[5,0,6,0,0,8,1,7,3,0,8,0,0,0,0,0,0],"split_type":[0,0,0,0,0,0,0,0,0,0,0,0,0,0,0,0,0],"sum_hessian":[5.688573E2,4.5726676E0,5.642846E2,3.2903686E0,1.2822989E0,5.332356E2,3.1048988E1,5.2938995E2,3.8456488E0,3.7031083E0,2.734588E1,5.241621E2,5.227885E0,1.909452E0,1.9361968E0,1.4107191E1,1.3238688E1],"tree_param":{"num_deleted":"0","num_feature":"12","num_nodes":"17","size_leaf_vector":"1"}},{"base_weights":[-1.5499019E-3,-6.8743634E-1,4.8997654E-3,-7.756899E-2,-2.2384299E-2,-1.8066969E-2,1.5335901E-1,1.47732E-2,-2.16439E-1,-2.521903E-1,2.3428042E-1,-6.3533485E-3,1.3114633E-2,-2.7947655E-2,4.6059202E-2,-7.6391585E-2,3.6153402E-2,5.210588E-2,1.1711511E-2],"categories":[],"categories_nodes":[],"categories_segments":[],"categories_sizes":[],"default_left":[0,0,0,0,0,0,0,0,0,0,0,0,0,0,0,0,0,0,0],"id":36,"left_children":[1,3,5,-1,-1,7,9,11,13,15,17,-1,-1,-1,-1,-1,-1,-1,-1],"loss_changes":[2.5210545E0,4.357791E-2,1.9286009E0,0E0,0E0,3.1956277E0,2.5459104E0,3.8482568E0,3.1020117E0,4.386158E0,2.0790083E0,0E0,0E0,0E0,0E0,0E0,0E0,0E0,0E0],"parents":[2147483647,0,0,1,1,2,2,5,5,6,6,7,7,8,8,9,9,10,10],"right_children":[2,4,6,-1,-1,8,10,12,14,16,18,-1,-1,-1,-1,-1,-1,-1,-1],"split_conditions":[1.3333334E0,1.6E1,2.672E2,-7.756899E-2,-2.2384299E-2,3.9333332E1,3.35E1,1.96E1,2.76E1,2E0,3.7666668E1,-6.3533485E-3,1.3114633E-2,-2.7947655E-2,4.6059202E-2,-7.6391585E-2,3.6153402E-2,5.210588E-2,1.1711511E-2],"split_indices":[5,0,2,0,0,7,7,6,6,4,7,0,0,0,0,0,0,0,0],"split_type":[0,0,0,0,0,0,0,0,0,0,0,0,0,0,0,0,0,0,0],"sum_hessian":[5.681308E2,4.3089876E0,5.638218E2,3.054328E0,1.2546599E0,4.890446E2,7.477718E1,4.2037735E2,6.866726E1,1.2086661E1,6.2690525E1,2.5155902E2,1.6881831E2,6.3355507E1,5.3117547E0,6.4575834E0,5.6290774E0,1.7183737E1,4.550679E1],"tree_param":{"num_deleted":"0","num_feature":"12","num_nodes":"19","size_leaf_vector":"1"}},{"base_weights":[-1.4580471E-3,-6.729799E-1,4.5526735E-3,-7.577711E-2,-2.2540595E-2,7.599653E-4,8.014621E-2,-8.402516E-2,3.2510933E-2,-1.1261567E-2,3.2767657E-2,4.59688E-2,1.901014E-3],"categories":[],"categories_nodes":[],"categories_segments":[],"categories_sizes":[],"default_left":[0,0,0,0,0,0,0,0,0,0,0,0,0],"id":37,"left_children":[1,3,5,-1,-1,7,-1,9,11,-1,-1,-1,-1],"loss_changes":[2.2940903E0,2.0546913E-2,1.7027171E0,0E0,0E0,1.5153469E0,0E0,1.8421766E0,2.3530638E0,0E0,0E0,0E0,0E0],"parents":[2147483647,0,0,1,1,2,2,5,5,7,7,8,8],"right_children":[2,4,6,-1,-1,8,-1,10,12,-1,-1,-1,-1],"split_conditions":[1.4E0,1.3333334E0,3.6E0,-7.577711E-2,-2.2540595E-2,1E0,8.014621E-2,2.35E2,1.3E1,-1.1261567E-2,3.2767657E-2,4.59688E-2,1.901014E-3],"split_indices":[6,7,4,0,0,4,0,1,5,0,0,0,0],"split_type":[0,0,0,0,0,0,0,0,0,0,0,0,0],"sum_hessian":[5.666013E2,4.0421867E0,5.6255914E2,2.8156989E0,1.2264879E0,5.608907E2,1.6684774E0,1.523695E2,4.0852118E2,1.4315463E2,9.214865E0,1.1503124E1,3.9701804E2],"tree_param":{"num_deleted":"0","num_feature":"12","num_nodes":"13","size_leaf_vector":"1"}},{"base_weights":[-1.2408675E-3,-6.553144E-1,4.364087E-3,-7.459443E-2,-2.1285918E-2,-5.054092E-3,3.0699232E-1,1.7662164E-2,-1.4622974E-1,4.6987098E-1,-7.782871E-2,-8.066497E-4,5.399981E-2,-8.692716E-2,-4.512085E-3,-4.6248706E-3,6.723546E-2],"categories":[],"categories_nodes":[],"categories_segments":[],"categories_sizes":[],"default_left":[0,0,0,0,0,0,0,0,0,0,0,0,0,0,0,0,0],"id":38,"left_children":[1,3,5,-1,-1,7,9,11,13,15,-1,-1,-1,-1,-1,-1,-1],"loss_changes":[2.080673E0,3.4586906E-2,1.6060728E0,0E0,0E0,1.756616E0,3.3720236E0,6.3479056E0,5.510743E0,1.6416676E0,0E0,0E0,0E0,0E0,0E0,0E0,0E0],"parents":[2147483647,0,0,1,1,2,2,5,5,6,6,7,7,8,8,9,9],"right_children":[2,4,6,-1,-1,8,10,12,14,16,-1,-1,-1,-1,-1,-1,-1],"split_conditions":[1.4E0,1.7E1,2.979E2,-7.459443E-2,-2.1285918E-2,2.75E2,4.8E1,2.66E2,2.7833334E2,2.8833334E2,-7.782871E-2,-8.066497E-4,5.399981E-2,-8.692716E-2,-4.512085E-3,-4.6248706E-3,6.723546E-2],"split_indices":[6,1,2,0,0,0,7,0,0,0,0,0,0,0,0,0,0],"split_type":[0,0,0,0,0,0,0,0,0,0,0,0,0,0,0,0,0],"sum_hessian":[5.657713E2,3.8221846E0,5.619491E2,2.6030672E0,1.2191174E0,5.45942E2,1.6007116E1,4.7102527E2,7.4916725E1,1.4411317E1,1.595799E0,4.4985153E2,2.1173744E1,8.258907E0,6.6657814E1,4.278147E0,1.0133169E1],"tree_param":{"num_deleted":"0","num_feature":"12","num_nodes":"17","size_leaf_vector":"1"}},{"base_weights":[-1.3329634E-3,-6.3602483E-1,3.928251E-3,-7.3441446E-2,-1.7434582E-2,4.5925233E-4,7.64025E-2,-5.117966E-2,4.4359583E-2,-7.177446E-3,7.24931E-2,1.0326933E-2,-1.2021376E-2],"categories":[],"categories_nodes":[],"categories_segments":[],"categories_sizes":[],"default_left":[0,0,0,0,0,0,0,0,0,0,0,0,0],"id":39,"left_children":[1,3,5,-1,-1,7,-1,9,11,-1,-1,-1,-1],"loss_changes":[1.8927563E0,8.363426E-2,1.4826045E0,0E0,0E0,1.2737162E0,0E0,4.1787224E0,2.9565766E0,0E0,0E0,0E0,0E0],"parents":[2147483647,0,0,1,1,2,2,5,5,7,7,8,8],"right_children":[2,4,6,-1,-1,8,-1,10,12,-1,-1,-1,-1],"split_conditions":[1.3333334E0,1.6E1,3.6E0,-7.3441446E-2,-1.7434582E-2,1.3333334E0,7.64025E-2,2.8166666E2,2.75E2,-7.177446E-3,7.24931E-2,1.0326933E-2,-1.2021376E-2],"split_indices":[5,0,4,0,0,3,0,0,0,0,0,0,0],"split_type":[0,0,0,0,0,0,0,0,0,0,0,0,0],"sum_hessian":[5.650726E2,3.659963E0,5.614126E2,2.5300338E0,1.129929E0,5.598581E2,1.5545274E0,2.571789E2,3.026792E2,2.5141489E2,5.7640014E0,2.2316782E2,7.95114E1],"tree_param":{"num_deleted":"0","num_feature":"12","num_nodes":"13","size_leaf_vector":"1"}},{"base_weights":[-1.105056E-3,-7.203688E-2,3.2169172E-3,-1.812973E-3,5.0060207E-1,-6.389589E-3,6.818263E-1,9.402867E-2,-4.303257E-2,-3.7852005E-5,-5.0518405E-2,2.0827902E-2,8.112427E-2],"categories":[],"categories_nodes":[],"categories_segments":[],"categories_sizes":[],"default_left":[0,0,0,0,0,0,0,0,0,0,0,0,0],"id":40,"left_children":[1,-1,3,5,7,9,11,-1,-1,-1,-1,-1,-1],"loss_changes":[1.759899E0,0E0,1.4094291E0,1.7513429E0,2.7132E0,1.6657847E0,5.9161186E-2,0E0,0E0,0E0,0E0,0E0,0E0],"parents":[2147483647,0,0,2,2,3,3,4,4,5,5,6,6],"right_children":[2,-1,4,6,8,10,12,-1,-1,-1,-1,-1,-1],"split_conditions":[1.3333334E0,-7.203688E-2,3.2033334E2,4.82E1,4.6333332E1,2.9E1,4.9E1,9.402867E-2,-4.303257E-2,-3.7852005E-5,-5.0518405E-2,2.0827902E-2,8.112427E-2],"split_indices":[7,0,2,8,7,6,7,0,0,0,0,0,0],"split_type":[0,0,0,0,0,0,0,0,0,0,0,0,0],"sum_hessian":[5.643864E2,2.3814957E0,5.620049E2,5.573648E2,4.6400895E0,5.546424E2,2.7223942E0,3.1447473E0,1.4953424E0,5.4902673E2,5.6156683E0,1.1443771E0,1.5780171E0],"tree_param":{"num_deleted":"0","num_feature":"12","num_nodes":"13","size_leaf_vector":"1"}},{"base_weights":[-9.236603E-4,-3.6208192E-1,7.100558E-3,-1.2630524E-1,-8.376646E-2,7.715823E-2,3.6476415E-3,-5.5765724E-1,2.3658003E-1,-8.679944E-3,2.0958301E-1,-2.5460243E-2,-6.954597E-2,7.9329014E-2,-2.5418429E-2,-1.5385631E-4,-7.791327E-2,1.03960335E-1,6.853312E-3],"categories":[],"categories_nodes":[],"categories_segments":[],"categories_sizes":[],"default_left":[0,0,0,0,0,0,0,0,0,0,0,0,0,0,0,0,0,0,0],"id":41,"left_children":[1,3,5,7,-1,-1,9,11,13,15,17,-1,-1,-1,-1,-1,-1,-1,-1],"loss_changes":[1.6403474E0,1.2737006E0,1.4591393E0,1.6037141E0,0E0,0E0,1.4040617E0,1.4781117E-2,1.7886409E0,2.8715172E0,3.5857692E0,0E0,0E0,0E0,0E0,0E0,0E0,0E0,0E0],"parents":[2147483647,0,0,1,1,2,2,3,3,6,6,7,7,8,8,9,9,10,10],"right_children":[2,4,6,8,-1,-1,10,12,14,16,18,-1,-1,-1,-1,-1,-1,-1,-1],"split_conditions":[4E0,3.3333334E-1,3.9E1,1.4333333E1,-8.376646E-2,7.715823E-2,2.66E1,9E0,2.02E1,4.42E1,2.6E2,-2.5460243E-2,-6.954597E-2,7.9329014E-2,-2.5418429E-2,-1.5385631E-4,-7.791327E-2,1.03960335E-1,6.853312E-3],"split_indices":[6,3,2,0,0,0,6,2,1,8,1,0,0,0,0,0,0,0,0],"split_type":[0,0,0,0,0,0,0,0,0,0,0,0,0,0,0,0,0,0,0],"sum_hessian":[5.6413776E2,1.1302559E1,5.528352E2,8.402489E0,2.90007E0,1.4854968E0,5.5134973E2,3.5938473E0,4.8086414E0,5.21113E2,3.0236717E1,2.0134542E0,1.5803931E0,1.9641374E0,2.844504E0,5.1731995E2,3.7930782E0,3.4666212E0,2.6770096E1],"tree_param":{"num_deleted":"0","num_feature":"12","num_nodes":"19","size_leaf_vector":"1"}},{"base_weights":[-8.7347964E-4,-7.004925E-2,3.0873474E-3,-1.2931944E-4,7.3424995E-2,-4.8821643E-2,4.146438E-2,-6.71452E-3,4.807481E-2,3.212447E-2,-4.779709E-4],"categories":[],"categories_nodes":[],"categories_segments":[],"categories_sizes":[],"default_left":[0,0,0,0,0,0,0,0,0,0,0],"id":42,"left_children":[1,-1,3,5,-1,7,9,-1,-1,-1,-1],"loss_changes":[1.5668721E0,0E0,1.3229855E0,1.1382384E0,0E0,2.5446467E0,3.923114E0,0E0,0E0,0E0,0E0],"parents":[2147483647,0,0,2,2,3,3,5,5,6,6],"right_children":[2,-1,4,6,-1,8,10,-1,-1,-1,-1],"split_conditions":[1.3333334E0,-7.004925E-2,3.6E0,1.96E1,7.3424995E-2,2.66E2,3.2E1,-6.71452E-3,4.807481E-2,3.212447E-2,-4.779709E-4],"split_indices":[7,0,4,6,0,0,7,0,0,0,0],"split_type":[0,0,0,0,0,0,0,0,0,0,0],"sum_hessian":[5.63659E2,2.183155E0,5.614758E2,5.600119E2,1.4638857E0,2.579108E2,3.0210114E2,2.5012932E2,7.781474E0,4.2007263E1,2.6009387E2],"tree_param":{"num_deleted":"0","num_feature":"12","num_nodes":"11","size_leaf_vector":"1"}},{"base_weights":[-6.4611627E-4,-6.8455204E-2,3.0574317E-3,-4.4662394E-3,3.0537966E-1,2.6486465E-3,-9.6200037E-1,8.0229527E-1,8.496652E-2,-3.9452926E-4,5.4135032E-2,-4.287738E-3,-1.4516146E-1,9.430682E-2,2.302038E-2,3.243102E-2,-7.919976E-2],"categories":[],"categories_nodes":[],"categories_segments":[],"categories_sizes":[],"default_left":[0,0,0,0,0,0,0,0,0,0,0,0,0,0,0,0,0],"id":43,"left_children":[1,-1,3,5,7,9,11,13,15,-1,-1,-1,-1,-1,-1,-1,-1],"loss_changes":[1.430166E0,0E0,1.2791578E0,3.7435477E0,1.4274606E0,1.9418489E0,1.7615955E0,1.1127782E-1,2.4771194E0,0E0,0E0,0E0,0E0,0E0,0E0,0E0,0E0],"parents":[2147483647,0,0,2,2,3,3,4,4,5,5,6,6,7,7,8,8],"right_children":[2,-1,4,6,8,10,12,14,16,-1,-1,-1,-1,-1,-1,-1,-1],"split_conditions":[1.3333334E0,-6.8455204E-2,3.126E2,3.37E2,2.821111E2,3.205E2,2.992E2,2.25E0,4.8E1,-3.9452926E-4,5.4135032E-2,-4.287738E-3,-1.4516146E-1,9.430682E-2,2.302038E-2,3.243102E-2,-7.919976E-2],"split_indices":[7,0,1,0,2,0,1,4,7,0,0,0,0,0,0,0,0],"split_type":[0,0,0,0,0,0,0,0,0,0,0,0,0,0,0,0,0],"sum_hessian":[5.6281433E2,2.0412188E0,5.607731E2,5.4811774E2,1.26553755E1,5.450649E2,3.05283E0,3.07743E0,9.577945E0,5.394544E2,5.6104765E0,1.4390197E0,1.6138103E0,1.9493113E0,1.1281188E0,8.019444E0,1.558501E0],"tree_param":{"num_deleted":"0","num_feature":"12","num_nodes":"17","size_leaf_vector":"1"}},{"base_weights":[-7.177195E-4,-1.5546939E-1,1.4500845E-2,-3.1216618E-2,-4.7287446E-1,7.467704E-1,6.343687E-3,-2.321253E-1,4.5039034E-1,6.693267E-2,-6.7947525E-1,-2.3634987E-1,1.8520644E-1,-2.5326943E-1,2.137993E-2,-2.909272E-3,-5.6979686E-2,-4.155084E-4,1.3510214E-1,-1.0351386E-1,-1.3567994E-2,2.6366955E-2,-7.451533E-2,-3.1038476E-4,-1.0157172E-1,9.332519E-2,1.3236939E-3],"categories":[],"categories_nodes":[],"categories_segments":[],"categories_sizes":[],"default_left":[0,0,0,0,0,0,0,0,0,0,0,0,0,0,0,0,0,0,0,0,0,0,0,0,0,0,0],"id":44,"left_children":[1,3,5,7,9,11,13,15,17,-1,19,21,-1,23,25,-1,-1,-1,-1,-1,-1,-1,-1,-1,-1,-1,-1],"loss_changes":[1.3292903E0,1.9783341E0,3.0651295E0,3.7223535E0,3.7931924E0,6.5809164E0,1.9934567E0,1.83748E0,4.6505632E0,0E0,2.2725658E0,1.1833079E0,0E0,5.329813E0,3.5690768E0,0E0,0E0,0E0,0E0,0E0,0E0,0E0,0E0,0E0,0E0,0E0,0E0],"parents":[2147483647,0,0,1,1,2,2,3,3,4,4,5,5,6,6,7,7,8,8,10,10,11,11,13,13,14,14],"right_children":[2,4,6,8,10,12,14,16,18,-1,20,22,-1,24,26,-1,-1,-1,-1,-1,-1,-1,-1,-1,-1,-1,-1],"split_conditions":[1.9333334E1,1.8E1,1.1333333E1,9.8333336E1,6.3666668E1,1.361E2,1.36E1,2.5E-1,1.5333333E1,6.693267E-2,2.2E1,1.1E1,1.8520644E-1,1.56E2,1.2333333E1,-2.909272E-3,-5.6979686E-2,-4.155084E-4,1.3510214E-1,-1.0351386E-1,-1.3567994E-2,2.6366955E-2,-7.451533E-2,-3.1038476E-4,-1.0157172E-1,9.332519E-2,1.3236939E-3],"split_indices":[7,8,5,2,0,2,6,4,7,0,8,6,0,2,5,0,0,0,0,0,0,0,0,0,0,0,0],"split_type":[0,0,0,0,0,0,0,0,0,0,0,0,0,0,0,0,0,0,0,0,0,0,0,0,0,0,0],"sum_hessian":[5.6247363E2,4.9536854E1,5.1293677E2,3.6389866E1,1.3146987E1,4.653389E0,5.0828342E2,2.6043497E1,1.0346368E1,1.6707063E0,1.147628E1,2.8788865E0,1.7745026E0,2.695961E1,4.813238E2,1.6942562E1,9.100936E0,7.537569E0,2.808799E0,6.3920717E0,5.0842085E0,1.6949667E0,1.1839197E0,2.1055267E1,5.904342E0,3.2546282E0,4.7806915E2],"tree_param":{"num_deleted":"0","num_feature":"12","num_nodes":"27","size_leaf_vector":"1"}},{"base_weights":[-4.8862176E-4,-6.656364E-2,2.9367441E-3,-1.6694632E-3,4.7159648E-1,-5.8619045E-3,6.419957E-1,9.022906E-2,-3.6898233E-2,-1.5627242E-5,-4.7277506E-2,7.622301E-2,1.7455919E-2],"categories":[],"categories_nodes":[],"categories_segments":[],"categories_sizes":[],"default_left":[0,0,0,0,0,0,0,0,0,0,0,0,0],"id":45,"left_children":[1,-1,3,5,7,9,11,-1,-1,-1,-1,-1,-1],"loss_changes":[1.283827E0,0E0,1.2112787E0,1.5048945E0,2.3100212E0,1.4749191E0,6.977022E-2,0E0,0E0,0E0,0E0,0E0,0E0],"parents":[2147483647,0,0,2,2,3,3,4,4,5,5,6,6],"right_children":[2,-1,4,6,8,10,12,-1,-1,-1,-1,-1,-1],"split_conditions":[1.3333334E0,-6.656364E-2,3.2033334E2,4.82E1,4.6333332E1,2.9E1,2.9766666E2,9.022906E-2,-3.6898233E-2,-1.5627242E-5,-4.7277506E-2,7.622301E-2,1.7455919E-2],"split_indices":[7,0,2,8,7,6,0,0,0,0,0,0,0],"split_type":[0,0,0,0,0,0,0,0,0,0,0,0,0],"sum_hessian":[5.6162573E2,1.8869476E0,5.597388E2,5.5527765E2,4.4610915E0,5.526688E2,2.6088536E0,2.9011762E0,1.559915E0,5.4698505E2,5.683768E0,1.5734658E0,1.0353876E0],"tree_param":{"num_deleted":"0","num_feature":"12","num_nodes":"13","size_leaf_vector":"1"}},{"base_weights":[-3.6298356E-4,-2.8129512E-1,7.185325E-3,-2.3577891E-2,-6.58274E-2,-5.538893E-1,1.149372E-2,-3.6984056E-1,4.4920614E-1,-8.1369855E-2,1.0181307E-2,1.06229596E-1,5.8301464E-3,1.912813E-3,-7.765468E-2,-3.001972E-2,8.383263E-2,2.783327E-4,7.021587E-2],"categories":[],"categories_nodes":[],"categories_segments":[],"categories_sizes":[],"default_left":[0,0,0,0,0,0,0,0,0,0,0,0,0,0,0,0,0,0,0],"id":46,"left_children":[1,3,5,7,-1,9,11,13,15,-1,-1,-1,17,-1,-1,-1,-1,-1,-1],"loss_changes":[1.1946534E0,1.4166129E0,1.3326888E0,1.7692423E0,0E0,7.9858255E-1,3.240065E0,9.958351E-1,1.5905702E0,0E0,0E0,0E0,1.151239E0,0E0,0E0,0E0,0E0,0E0,0E0],"parents":[2147483647,0,0,1,1,2,2,3,3,5,5,6,6,7,7,8,8,12,12],"right_children":[2,4,6,8,-1,10,12,14,16,-1,-1,-1,18,-1,-1,-1,-1,-1,-1],"split_conditions":[4.3333332E1,2E-1,4.5E0,1E0,-6.58274E-2,1.0333333E1,5E0,2E1,1.6666666E1,-8.1369855E-2,1.0181307E-2,1.06229596E-1,3.6E0,1.912813E-3,-7.765468E-2,-3.001972E-2,8.383263E-2,2.783327E-4,7.021587E-2],"split_indices":[0,4,6,10,0,7,5,2,2,0,0,0,4,0,0,0,0,0,0],"split_type":[0,0,0,0,0,0,0,0,0,0,0,0,0,0,0,0,0,0,0],"sum_hessian":[5.614131E2,1.37408695E1,5.4767224E2,8.792513E0,4.948356E0,3.2013834E0,5.444708E2,5.2010508E0,3.5914626E0,2.1202989E0,1.0810845E0,1.9186788E0,5.425522E2,3.1456032E0,2.0554473E0,1.30558E0,2.2858827E0,5.411882E2,1.3639978E0],"tree_param":{"num_deleted":"0","num_feature":"12","num_nodes":"19","size_leaf_vector":"1"}},{"base_weights":[-3.4389851E-4,-1.13073485E-2,1.8912236E-1,5.7070493E-3,-2.8625068E-1,1.0011756E-1,5.590759E-2,-1.1696782E-3,8.587159E-1,2.5036907E-1,-5.5186427E-1,-2.161924E-1,3.463683E-1,3.2126275E-4,-9.320578E-2,1.0210198E-1,2.0625843E-2,-5.4328736E-2,8.8243134E-2,-7.3927365E-2,3.5555344E-2,6.621506E-2,-5.893725E-2,5.411285E-2,-5.8072068E-2],"categories":[],"categories_nodes":[],"categories_segments":[],"categories_sizes":[],"default_left":[0,0,0,0,0,0,0,0,0,0,0,0,0,0,0,0,0,0,0,0,0,0,0,0,0],"id":47,"left_children":[1,3,5,7,9,-1,11,13,15,17,19,21,23,-1,-1,-1,-1,-1,-1,-1,-1,-1,-1,-1,-1],"loss_changes":[1.1696763E0,2.4915915E0,3.2760653E0,2.94705E0,4.562213E0,0E0,2.2499022E0,2.0395055E0,2.1488047E-1,5.979684E0,3.846675E0,5.249515E0,2.787045E0,0E0,0E0,0E0,0E0,0E0,0E0,0E0,0E0,0E0,0E0,0E0,0E0],"parents":[2147483647,0,0,1,1,2,2,3,3,4,4,6,6,7,7,8,8,9,9,10,10,11,11,12,12],"right_children":[2,4,6,8,10,-1,12,14,16,18,20,22,24,-1,-1,-1,-1,-1,-1,-1,-1,-1,-1,-1,-1],"split_conditions":[2.66E1,4.08E1,2.6E2,4.5E1,4.1E1,1.0011756E-1,4.38E1,3.4233334E2,2.44E1,2.44E1,2.898E2,3.85E1,3.14E1,3.2126275E-4,-9.320578E-2,1.0210198E-1,2.0625843E-2,-5.4328736E-2,8.8243134E-2,-7.3927365E-2,3.5555344E-2,6.621506E-2,-5.893725E-2,5.411285E-2,-5.8072068E-2],"split_indices":[6,8,1,7,7,0,8,0,6,6,1,7,6,0,0,0,0,0,0,0,0,0,0,0,0],"split_type":[0,0,0,0,0,0,0,0,0,0,0,0,0,0,0,0,0,0,0,0,0,0,0,0,0],"sum_hessian":[5.610719E2,5.312703E2,2.9801594E1,5.012317E2,3.0038624E1,3.2816641E0,2.651993E1,4.9821387E2,3.0178368E0,9.964571E0,2.0074053E1,1.3824759E1,1.269517E1,4.968713E2,1.3425527E0,1.9643148E0,1.0535221E0,4.479849E0,5.484722E0,1.6791414E1,3.282639E0,3.8913822E0,9.933376E0,1.0835247E1,1.8599234E0],"tree_param":{"num_deleted":"0","num_feature":"12","num_nodes":"25","size_leaf_vector":"1"}},{"base_weights":[1.36740655E-5,-1.0218253E-2,2.0416549E-1,1.1407901E-2,-1.4317149E-1,-8.744066E-2,2.8660053E-1,-9.392923E-3,4.5388442E-1,-8.394237E-1,-4.637525E-2,1.1050557E-1,1.390164E-1,-2.050738E-3,5.7845283E-2,5.635934E-2,-8.4444515E-2,2.0218192E-2,-1.1944594E-1,-3.7351232E-2,2.0354724E-2,-4.1277092E-2,3.9290395E-2],"categories":[],"categories_nodes":[],"categories_segments":[],"categories_sizes":[],"default_left":[0,0,0,0,0,0,0,0,0,0,0,0,0,0,0,0,0,0,0,0,0,0,0],"id":48,"left_children":[1,3,5,7,9,-1,11,13,15,17,19,-1,21,-1,-1,-1,-1,-1,-1,-1,-1,-1,-1],"loss_changes":[1.1755568E0,1.5425303E0,2.6387444E0,4.255206E0,5.0190315E0,0E0,2.951381E0,2.9004054E0,3.432611E0,3.6074142E0,5.549633E0,0E0,3.3734186E0,0E0,0E0,0E0,0E0,0E0,0E0,0E0,0E0,0E0,0E0],"parents":[2147483647,0,0,1,1,2,2,3,3,4,4,6,6,7,7,8,8,9,9,10,10,12,12],"right_children":[2,4,6,8,10,-1,12,14,16,18,20,-1,22,-1,-1,-1,-1,-1,-1,-1,-1,-1,-1],"split_conditions":[2.6E0,2.75E2,1.75E1,2.66E2,2.7833334E2,-8.744066E-2,2.28E2,2.66E1,2.913E2,2.2E1,2.607E2,1.1050557E-1,2.6866666E2,-2.050738E-3,5.7845283E-2,5.635934E-2,-8.4444515E-2,2.0218192E-2,-1.1944594E-1,-3.7351232E-2,2.0354724E-2,-4.1277092E-2,3.9290395E-2],"split_indices":[4,0,5,0,0,0,0,6,2,5,2,0,0,0,0,0,0,0,0,0,0,0,0],"split_type":[0,0,0,0,0,0,0,0,0,0,0,0,0,0,0,0,0,0,0,0,0,0,0],"sum_hessian":[5.607739E2,5.3491437E2,2.5859537E1,4.608644E2,7.404994E1,1.1539645E0,2.4705572E1,4.4110675E2,1.975766E1,8.10181E0,6.594813E1,2.7831986E0,2.1922373E1,4.3386868E2,7.2380834E0,1.8740034E1,1.0176255E0,2.1689794E0,5.9328313E0,2.8347736E1,3.7600395E1,6.711062E0,1.5211311E1],"tree_param":{"num_deleted":"0","num_feature":"12","num_nodes":"23","size_leaf_vector":"1"}},{"base_weights":[-2.265903E-5,-6.4718276E-2,3.158902E-3,4.2120807E-4,6.7242265E-2,3.3972908E-3,-5.8294144E-2,-1.7002535E-4,5.2245524E-2],"categories":[],"categories_nodes":[],"categories_segments":[],"categories_sizes":[],"default_left":[0,0,0,0,0,0,0,0,0],"id":49,"left_children":[1,-1,3,5,-1,7,-1,-1,-1],"loss_changes":[1.1566666E0,0E0,1.023986E0,9.703081E-1,0E0,1.4717879E0,0E0,0E0,0E0],"parents":[2147483647,0,0,2,2,3,3,5,5],"right_children":[2,-1,4,6,-1,8,-1,-1,-1],"split_conditions":[1.3333334E0,-6.4718276E-2,3.6E0,3.14E1,6.7242265E-2,2.94E1,-5.8294144E-2,-1.7002535E-4,5.2245524E-2],"split_indices":[7,0,4,6,0,6,0,0,0],"split_type":[0,0,0,0,0,0,0,0,0],"sum_hessian":[5.5977405E2,1.7482412E0,5.580258E2,5.5674896E2,1.2768112E0,5.5491223E2,1.8367641E0,5.5050256E2,4.409631E0],"tree_param":{"num_deleted":"0","num_feature":"12","num_nodes":"9","size_leaf_vector":"1"}},{"base_weights":[-2.0732856E-5,-6.316502E-2,2.9652545E-3,-1.1535676E-3,4.3732646E-1,4.5792097E-3,-4.1205594E-1,8.6911514E-2,-3.5172842E-2,-3.8076073E-4,5.5808526E-2,6.995683E-2,-7.0529915E-2],"categories":[],"categories_nodes":[],"categories_segments":[],"categories_sizes":[],"default_left":[0,0,0,0,0,0,0,0,0,0,0,0,0],"id":50,"left_children":[1,-1,3,5,7,9,11,-1,-1,-1,-1,-1,-1],"loss_changes":[1.059099E0,0E0,1.0004293E0,1.3084482E0,2.0953195E0,2.5461004E0,2.984821E0,0E0,0E0,0E0,0E0,0E0,0E0],"parents":[2147483647,0,0,2,2,3,3,4,4,5,5,6,6],"right_children":[2,-1,4,6,8,10,12,-1,-1,-1,-1,-1,-1],"split_conditions":[1.3333334E0,-6.316502E-2,3.2033334E2,3.37E2,4.6333332E1,3.205E2,2E0,8.6911514E-2,-3.5172842E-2,-3.8076073E-4,5.5808526E-2,6.995683E-2,-7.0529915E-2],"split_indices":[7,0,2,0,7,0,3,0,0,0,0,0,0],"split_type":[0,0,0,0,0,0,0,0,0,0,0,0,0],"sum_hessian":[5.59554E2,1.6421868E0,5.579118E2,5.536591E2,4.252718E0,5.470162E2,6.6429377E0,2.6830363E0,1.5696816E0,5.398297E2,7.1864696E0,1.0973785E0,5.545559E0],"tree_param":{"num_deleted":"0","num_feature":"12","num_nodes":"13","size_leaf_vector":"1"}},{"base_weights":[9.21385E-5,-4.6486024E-2,3.9790466E-2,-6.108273E-2,8.326198E-2,3.276649E-1,1.08691165E-2,-4.856311E-3,-4.0018502E-1,5.358983E-1,-2.009077E-1,-1.328607E-1,8.245801E-2,-4.276903E-3,3.9086364E-2,4.4357784E-2,-5.6329634E-2,6.588883E-2,-1.8801428E-2,-8.974276E-2,3.353747E-2,3.8021084E-2,-2.4663625E-2,4.968499E-2,1.1163343E-3],"categories":[],"categories_nodes":[],"categories_segments":[],"categories_sizes":[],"default_left":[0,0,0,0,0,0,0,0,0,0,0,0,0,0,0,0,0,0,0,0,0,0,0,0,0],"id":51,"left_children":[1,3,5,7,-1,9,11,13,15,17,19,21,23,-1,-1,-1,-1,-1,-1,-1,-1,-1,-1,-1,-1],"loss_changes":[1.0378731E0,3.3649688E0,2.5193353E0,4.8596654E0,0E0,3.148783E0,2.8549078E0,3.3132656E0,5.2392664E0,1.9129162E0,3.4894247E0,5.480521E0,5.4635196E0,0E0,0E0,0E0,0E0,0E0,0E0,0E0,0E0,0E0,0E0,0E0,0E0],"parents":[2147483647,0,0,1,1,2,2,3,3,5,5,6,6,7,7,8,8,9,9,10,10,11,11,12,12],"right_children":[2,4,6,8,-1,10,12,14,16,18,20,22,24,-1,-1,-1,-1,-1,-1,-1,-1,-1,-1,-1,-1],"split_conditions":[1.3333334E0,2.9466666E2,1.2E0,3.74E1,8.326198E-2,2.206E2,3.3E1,3.58E1,1.95E2,3.85E1,3.46E1,1.875E2,3.45E1,-4.276903E-3,3.9086364E-2,4.4357784E-2,-5.6329634E-2,6.588883E-2,-1.8801428E-2,-8.974276E-2,3.353747E-2,3.8021084E-2,-2.4663625E-2,4.968499E-2,1.1163343E-3],"split_indices":[3,0,4,8,0,1,7,8,2,7,8,2,7,0,0,0,0,0,0,0,0,0,0,0,0],"split_type":[0,0,0,0,0,0,0,0,0,0,0,0,0,0,0,0,0,0,0,0,0,0,0,0,0],"sum_hessian":[5.592928E2,2.5726822E2,3.0202454E2,2.5398163E2,3.2866027E0,2.6629818E1,2.753947E2,2.1872864E2,3.525299E1,1.9093853E1,7.535964E0,9.127833E1,1.8411638E2,2.0041902E2,1.8309614E1,5.4323525E0,2.9820637E1,1.639776E1,2.6960924E0,2.9852798E0,4.5506845E0,1.6142385E1,7.513594E1,2.6150532E1,1.5796585E2],"tree_param":{"num_deleted":"0","num_feature":"12","num_nodes":"25","size_leaf_vector":"1"}},{"base_weights":[4.1134201E-4,-5.731307E-2,3.3023637E-2,1.2495854E-3,-2.9767126E-1,-6.038678E-2,1.287288E-1,-2.3789875E-2,9.261152E-1,-3.793061E-1,6.4322054E-1,-9.484088E-2,5.438442E-1,2.5507653E-1,-1.1377149E-1,2.763339E-3,-4.2354487E-2,1.06448986E-1,2.5185136E-2,-1.7876228E-2,-1.065295E-1,1.02907196E-1,-1.5638536E-2,2.8863689E-2,-1.4177829E-2,6.707618E-2,-2.0597888E-2,3.7493248E-2,3.4989384E-3,1.0766023E-1,-1.5859999E-2],"categories":[],"categories_nodes":[],"categories_segments":[],"categories_sizes":[],"default_left":[0,0,0,0,0,0,0,0,0,0,0,0,0,0,0,0,0,0,0,0,0,0,0,0,0,0,0,0,0,0,0],"id":52,"left_children":[1,3,5,7,9,11,13,15,17,19,21,23,25,27,29,-1,-1,-1,-1,-1,-1,-1,-1,-1,-1,-1,-1,-1,-1,-1,-1],"loss_changes":[1.056144E0,2.8512893E0,3.2125554E0,3.816569E0,3.292087E0,3.842513E0,5.4640007E0,3.3112416E0,1.372261E-1,4.9196076E0,1.2528702E0,3.1570792E0,1.0871332E0,3.0713801E0,3.4501204E0,0E0,0E0,0E0,0E0,0E0,0E0,0E0,0E0,0E0,0E0,0E0,0E0,0E0,0E0,0E0,0E0],"parents":[2147483647,0,0,1,1,2,2,3,3,4,4,5,5,6,6,7,7,8,8,9,9,10,10,11,11,12,12,13,13,14,14],"right_children":[2,4,6,8,10,12,14,16,18,20,22,24,26,28,30,-1,-1,-1,-1,-1,-1,-1,-1,-1,-1,-1,-1,-1,-1,-1,-1],"split_conditions":[1.9766667E2,3.2E1,1E0,2.412E2,1.6666666E0,4.5666668E1,3.74E1,1.8766667E2,1.6666666E0,1.3333334E0,2.14E1,1.95E2,3E0,2.4666667E2,1.937E2,2.763339E-3,-4.2354487E-2,1.06448986E-1,2.5185136E-2,-1.7876228E-2,-1.065295E-1,1.02907196E-1,-1.5638536E-2,2.8863689E-2,-1.4177829E-2,6.707618E-2,-2.0597888E-2,3.7493248E-2,3.4989384E-3,1.0766023E-1,-1.5859999E-2],"split_indices":[0,7,10,2,4,7,8,0,4,4,6,2,3,0,2,0,0,0,0,0,0,0,0,0,0,0,0,0,0,0,0],"split_type":[0,0,0,0,0,0,0,0,0,0,0,0,0,0,0,0,0,0,0,0,0,0,0,0,0,0,0,0,0,0,0],"sum_hessian":[5.590197E2,2.0153728E2,3.5748242E2,1.6285329E2,3.8683987E1,1.8109683E2,1.7638559E2,1.5950908E2,3.3442109E0,3.614481E1,2.5391767E0,1.7212505E2,8.971772E0,1.1593117E2,6.045442E1,1.4215373E2,1.735535E1,2.2945683E0,1.0496427E0,2.8943869E1,7.200939E0,1.5191392E0,1.0200375E0,1.820894E1,1.539161E2,7.7631893E0,1.208583E0,7.460105E1,4.1330112E1,1.3587306E0,5.9095688E1],"tree_param":{"num_deleted":"0","num_feature":"12","num_nodes":"31","size_leaf_vector":"1"}},{"base_weights":[8.6545805E-4,-5.616993E-2,3.822068E-2,-8.190753E-2,8.5185444E-1,2.997515E-1,-6.7428155E-3,-5.175878E-2,-6.1382705E-1,1.2191534E-1,-4.26184E-2,1.8642558E-1,8.666015E-1,-4.097945E-1,1.3732686E-2,-9.187467E-3,6.549073E-2,2.4905268E-2,-1.0707958E-1,3.6478505E-2,-5.905176E-2,1.14914946E-1,1.1674946E-2,1.3637997E-3,-1.2632072E-1,-5.707133E-2,2.6100026E-3],"categories":[],"categories_nodes":[],"categories_segments":[],"categories_sizes":[],"default_left":[0,0,0,0,0,0,0,0,0,0,0,0,0,0,0,0,0,0,0,0,0,0,0,0,0,0,0],"id":53,"left_children":[1,3,5,7,9,11,13,15,17,-1,-1,19,21,23,25,-1,-1,-1,-1,-1,-1,-1,-1,-1,-1,-1,-1],"loss_changes":[1.1957533E0,5.2607117E0,3.9897602E0,3.4466915E0,3.4346876E0,3.0356507E0,2.401727E0,5.91028E0,4.8180113E0,0E0,0E0,6.1398234E0,1.5646753E0,5.1012583E0,2.0190349E0,0E0,0E0,0E0,0E0,0E0,0E0,0E0,0E0,0E0,0E0,0E0,0E0],"parents":[2147483647,0,0,1,1,2,2,3,3,4,4,5,5,6,6,7,7,8,8,11,11,12,12,13,13,14,14],"right_children":[2,4,6,8,10,12,14,16,18,-1,-1,20,22,24,26,-1,-1,-1,-1,-1,-1,-1,-1,-1,-1,-1,-1],"split_conditions":[2.064E2,2.356E2,3.12E1,4E1,2.02E2,2.448E2,3.18E1,2.2E1,1.944E2,1.2191534E-1,-4.26184E-2,2.3933333E2,2.581E2,2.5233333E2,1.6633333E2,-9.187467E-3,6.549073E-2,2.4905268E-2,-1.0707958E-1,3.6478505E-2,-5.905176E-2,1.14914946E-1,1.1674946E-2,1.3637997E-3,-1.2632072E-1,-5.707133E-2,2.6100026E-3],"split_indices":[2,1,8,7,2,1,8,5,1,0,0,0,2,0,0,0,0,0,0,0,0,0,0,0,0,0,0],"split_type":[0,0,0,0,0,0,0,0,0,0,0,0,0,0,0,0,0,0,0,0,0,0,0,0,0,0,0],"sum_hessian":[5.592287E2,2.2111626E2,3.3811246E2,2.1590628E2,5.2099843E0,4.8770664E1,2.893418E2,2.0536374E2,1.0542538E1,4.082716E0,1.1272683E0,4.1752327E1,7.0183377E0,1.3069054E1,2.7627274E2,1.951552E2,1.0208548E1,3.8076537E0,6.734884E0,3.4388412E1,7.363912E0,4.7107887E0,2.3075492E0,9.392736E0,3.6763167E0,4.789459E0,2.7148328E2],"tree_param":{"num_deleted":"0","num_feature":"12","num_nodes":"27","size_leaf_vector":"1"}},{"base_weights":[7.7962526E-4,-2.820805E-2,6.3583404E-2,1.595502E-2,-1.8735719E-1,5.7236916E-1,1.4822348E-2,-1.36336265E-2,6.163807E-1,-4.0281853E-1,4.598862E-2,8.048348E-1,-1.5636754E-1,-1.0179744E0,4.5194857E-2,-5.040622E-4,-7.97906E-2,-1.2472205E-2,8.633848E-2,-7.575292E-2,-1.1851815E-2,-2.399566E-2,7.187893E-2,-2.583456E-2,9.414952E-2,4.0091395E-2,-4.936247E-2,-1.4683859E-1,1.1953416E-2,-1.15364745E-1,6.1686817E-3],"categories":[],"categories_nodes":[],"categories_segments":[],"categories_sizes":[],"default_left":[0,0,0,0,0,0,0,0,0,0,0,0,0,0,0,0,0,0,0,0,0,0,0,0,0,0,0,0,0,0,0],"id":54,"left_children":[1,3,5,7,9,11,13,15,17,19,21,23,25,27,29,-1,-1,-1,-1,-1,-1,-1,-1,-1,-1,-1,-1,-1,-1,-1,-1],"loss_changes":[1.0200591E0,2.6975896E0,4.3812275E0,5.3563557E0,4.209403E0,2.7428422E0,5.143182E0,1.9359814E0,2.6996217E0,4.2910166E0,8.043798E0,1.9685502E0,1.05746E0,2.575657E0,3.2110023E0,0E0,0E0,0E0,0E0,0E0,0E0,0E0,0E0,0E0,0E0,0E0,0E0,0E0,0E0,0E0,0E0],"parents":[2147483647,0,0,1,1,2,2,3,3,4,4,5,5,6,6,7,7,8,8,9,9,10,10,11,11,12,12,13,13,14,14],"right_children":[2,4,6,8,10,12,14,16,18,20,22,24,26,28,30,-1,-1,-1,-1,-1,-1,-1,-1,-1,-1,-1,-1,-1,-1,-1,-1],"split_conditions":[2.2333334E1,3.45E1,2.112E2,3.4E1,1E0,2.45E1,5E-1,3.9E1,2.082E2,3.54E1,2.358E2,1.93E2,3.42E1,4.16E1,2.122E2,-5.040622E-4,-7.97906E-2,-1.2472205E-2,8.633848E-2,-7.575292E-2,-1.1851815E-2,-2.399566E-2,7.187893E-2,-2.583456E-2,9.414952E-2,4.0091395E-2,-4.936247E-2,-1.4683859E-1,1.1953416E-2,-1.15364745E-1,6.1686817E-3],"split_indices":[5,7,1,7,10,5,3,8,1,8,2,0,8,8,1,0,0,0,0,0,0,0,0,0,0,0,0,0,0,0,0],"split_type":[0,0,0,0,0,0,0,0,0,0,0,0,0,0,0,0,0,0,0,0,0,0,0,0,0,0,0,0,0,0,0],"sum_hessian":[5.5832196E2,3.8238116E2,1.759408E2,3.0002542E2,8.235577E1,1.4448026E1,1.6149277E2,2.868661E2,1.3159309E1,4.244117E1,3.99146E1,1.0874618E1,3.5734074E0,3.6845863E0,1.5780818E2,2.847526E2,2.1135097E0,3.4132805E0,9.746029E0,1.8141802E1,2.4299368E1,2.846157E1,1.145303E1,1.1371883E0,9.73743E0,1.2760773E0,2.2973301E0,2.431086E0,1.2535001E0,1.2057676E0,1.5660242E2],"tree_param":{"num_deleted":"0","num_feature":"12","num_nodes":"31","size_leaf_vector":"1"}},{"base_weights":[3.3722539E-4,-6.1357208E-2,3.1228752E-3,5.5495865E-4,6.481736E-2,3.4984306E-3,-5.726691E-2,4.665346E-5,7.273778E-2],"categories":[],"categories_nodes":[],"categories_segments":[],"categories_sizes":[],"default_left":[0,0,0,0,0,0,0,0,0],"id":55,"left_children":[1,-1,3,5,-1,7,-1,-1,-1],"loss_changes":[9.570824E-1,0E0,9.2228246E-1,9.397815E-1,0E0,1.215432E0,0E0,0E0,0E0],"parents":[2147483647,0,0,2,2,3,3,5,5],"right_children":[2,-1,4,6,-1,8,-1,-1,-1],"split_conditions":[1.3333334E0,-6.1357208E-2,3.6E0,3.14E1,6.481736E-2,3.04E1,-5.726691E-2,4.665346E-5,7.273778E-2],"split_indices":[7,0,4,6,0,6,0,0,0],"split_type":[0,0,0,0,0,0,0,0,0],"sum_hessian":[5.575322E2,1.5279893E0,5.560043E2,5.547965E2,1.2077584E0,5.52951E2,1.8454744E0,5.516412E2,1.309849E0],"tree_param":{"num_deleted":"0","num_feature":"12","num_nodes":"9","size_leaf_vector":"1"}},{"base_weights":[3.4243462E-4,-8.557637E-3,1.8044478E-1,1.3009775E-2,-1.4169332E-1,-8.12968E-2,2.5868225E-1,-5.8123763E-3,4.1821712E-1,-7.577653E-1,-5.4460675E-2,1.0434487E-1,1.2056767E-1,9.287501E-4,-4.008288E-2,5.2454114E-2,-7.769237E-2,1.8423172E-2,-1.0713215E-1,-3.5830896E-2,1.6667316E-2,-8.245661E-2,2.5584197E-2],"categories":[],"categories_nodes":[],"categories_segments":[],"categories_sizes":[],"default_left":[0,0,0,0,0,0,0,0,0,0,0,0,0,0,0,0,0,0,0,0,0,0,0],"id":56,"left_children":[1,3,5,7,9,-1,11,13,15,17,19,-1,21,-1,-1,-1,-1,-1,-1,-1,-1,-1,-1],"loss_changes":[8.96608E-1,1.5324523E0,2.2574952E0,3.508173E0,3.9570038E0,0E0,2.6029139E0,2.6296172E0,3.001999E0,2.9001012E0,4.5109825E0,0E0,3.092561E0,0E0,0E0,0E0,0E0,0E0,0E0,0E0,0E0,0E0,0E0],"parents":[2147483647,0,0,1,1,2,2,3,3,4,4,6,6,7,7,8,8,9,9,10,10,12,12],"right_children":[2,4,6,8,10,-1,12,14,16,18,20,-1,22,-1,-1,-1,-1,-1,-1,-1,-1,-1,-1],"split_conditions":[2.6E0,2.75E2,1.75E1,2.66E2,2.7833334E2,-8.12968E-2,2.28E2,2.61E2,2.913E2,2.2E1,2.6E2,1.0434487E-1,2.422E2,9.287501E-4,-4.008288E-2,5.2454114E-2,-7.769237E-2,1.8423172E-2,-1.0713215E-1,-3.5830896E-2,1.6667316E-2,-8.245661E-2,2.5584197E-2],"split_indices":[4,0,5,0,0,0,0,0,2,5,2,0,1,0,0,0,0,0,0,0,0,0,0],"split_type":[0,0,0,0,0,0,0,0,0,0,0,0,0,0,0,0,0,0,0,0,0,0,0],"sum_hessian":[5.5739453E2,5.320546E2,2.5339924E1,4.586565E2,7.339811E1,1.1643739E0,2.417555E1,4.392392E2,1.9417297E1,8.150351E0,6.5247765E1,2.637027E0,2.1538523E1,4.240076E2,1.5231605E1,1.8346254E1,1.0710435E0,2.138434E0,6.0119166E0,2.7222475E1,3.8025284E1,2.0587752E0,1.9479748E1],"tree_param":{"num_deleted":"0","num_feature":"12","num_nodes":"23","size_leaf_vector":"1"}},{"base_weights":[-3.1015082E-7,-4.5961335E-2,3.469439E-2,4.1971607E-3,-3.0745393E-1,3.5504684E-1,2.5785656E-3,-6.839174E-2,2.4532935E-1,-6.300931E-1,-4.076179E-3,-4.5016384E-1,5.781492E-1,-8.891479E-1,1.3054479E-2,2.748762E-3,-6.5959744E-2,-5.3650923E-2,3.225149E-2,-2.2162443E-2,-1.1578468E-1,3.024671E-2,-3.773181E-2,2.0234449E-2,-9.571785E-2,7.058911E-3,1.10149E-1,-1.0692864E-1,-2.8432995E-2,5.7902575E-2,-8.39567E-4],"categories":[],"categories_nodes":[],"categories_segments":[],"categories_sizes":[],"default_left":[0,0,0,0,0,0,0,0,0,0,0,0,0,0,0,0,0,0,0,0,0,0,0,0,0,0,0,0,0,0,0],"id":57,"left_children":[1,3,5,7,9,11,13,15,17,19,21,23,25,27,29,-1,-1,-1,-1,-1,-1,-1,-1,-1,-1,-1,-1,-1,-1,-1,-1],"loss_changes":[8.910426E-1,3.1539526E0,3.2751098E0,3.564168E0,3.7853575E0,5.4710493E0,2.7245502E0,8.892418E0,3.0160353E0,3.7848449E0,2.5112767E0,2.4616559E0,6.0717025E0,6.494403E-2,3.5015593E0,0E0,0E0,0E0,0E0,0E0,0E0,0E0,0E0,0E0,0E0,0E0,0E0,0E0,0E0,0E0,0E0],"parents":[2147483647,0,0,1,1,2,2,3,3,4,4,5,5,6,6,7,7,8,8,9,9,10,10,11,11,12,12,13,13,14,14],"right_children":[2,4,6,8,10,12,14,16,18,20,22,24,26,28,30,-1,-1,-1,-1,-1,-1,-1,-1,-1,-1,-1,-1,-1,-1,-1,-1],"split_conditions":[1.92E1,3.2E1,1.969E2,2.045E2,3.4E1,1.82E2,1.812E2,1.892E2,8E-1,1.85E1,2.104E2,1.735E2,1.875E2,1.94E1,3.12E1,2.748762E-3,-6.5959744E-2,-5.3650923E-2,3.225149E-2,-2.2162443E-2,-1.1578468E-1,3.024671E-2,-3.773181E-2,2.0234449E-2,-9.571785E-2,7.058911E-3,1.10149E-1,-1.0692864E-1,-2.8432995E-2,5.7902575E-2,-8.39567E-4],"split_indices":[6,8,2,2,7,0,1,1,4,6,1,2,2,6,8,0,0,0,0,0,0,0,0,0,0,0,0,0,0,0,0],"split_type":[0,0,0,0,0,0,0,0,0,0,0,0,0,0,0,0,0,0,0,0,0,0,0,0,0,0,0,0,0,0,0],"sum_hessian":[5.5678613E2,2.3936627E2,3.1741983E2,2.016672E2,3.7699074E1,2.800612E1,2.8941373E2,1.5555598E2,4.6111214E1,1.7747673E1,1.9951399E1,5.8553867E0,2.2150734E1,2.3866055E0,2.870271E2,1.3466936E2,2.0886627E1,3.608508E0,4.250271E1,1.0804889E1,6.942785E0,1.10586E1,8.892798E0,2.8230894E0,3.0322976E0,1.1821032E1,1.0329702E1,1.2471945E0,1.139411E0,9.531826E0,2.774953E2],"tree_param":{"num_deleted":"0","num_feature":"12","num_nodes":"31","size_leaf_vector":"1"}},{"base_weights":[-4.760027E-4,-1.3084358E-1,1.1918847E-2,-7.1628004E-2,-5.193958E-1,1.11089446E-1,5.302777E-3,-2.1373793E-1,3.1051132E-1,1.02532916E-1,-9.708376E-2,-2.5725457E-1,1.6203433E-2,-1.0583828E-2,-9.568921E-2,1.051928E-2,8.629041E-2,-6.6841066E-2,6.987288E-2,1.1844643E-3,-8.674392E-2,7.910084E-2,1.1370777E-3],"categories":[],"categories_nodes":[],"categories_segments":[],"categories_sizes":[],"default_left":[0,0,0,0,0,0,0,0,0,0,0,0,0,0,0,0,0,0,0,0,0,0,0],"id":58,"left_children":[1,3,5,7,9,-1,11,13,15,17,-1,19,21,-1,-1,-1,-1,-1,-1,-1,-1,-1,-1],