{"learner":{"attributes":{"scikit_learn":"{\"_estimator_type\": \"classifier\"}"},"feature_names":["receiving_yards_L3","receiving_yards_L5","receiving_yards_L10","rec_tds_L3","rec_tds_L5","receptions_L3","receptions_L5","targets_L3","targets_L5"],"feature_types":["float","float","float","float","float","float","float","float","float"],"gradient_booster":{"model":{"gbtree_model_param":{"num_parallel_tree":"1","num_trees":"100"},"iteration_indptr":[0,1,2,3,4,5,6,7,8,9,10,11,12,13,14,15,16,17,18,19,20,21,22,23,24,25,26,27,28,29,30,31,32,33,34,35,36,37,38,39,40,41,42,43,44,45,46,47,48,49,50,51,52,53,54,55,56,57,58,59,60,61,62,63,64,65,66,67,68,69,70,71,72,73,74,75,76,77,78,79,80,81,82,83,84,85,86,87,88,89,90,91,92,93,94,95,96,97,98,99,100],"tree_info":[0,0,0,0,0,0,0,0,0,0,0,0,0,0,0,0,0,0,0,0,0,0,0,0,0,0,0,0,0,0,0,0,0,0,0,0,0,0,0,0,0,0,0,0,0,0,0,0,0,0,0,0,0,0,0,0,0,0,0,0,0,0,0,0,0,0,0,0,0,0,0,0,0,0,0,0,0,0,0,0,0,0,0,0,0,0,0,0,0,0,0,0,0,0,0,0,0,0,0,0],"trees":[{"base_weights":[3.926532E-8,-9.5151585E-1,9.9036485E-1,-1.2998356E0,-2.7442884E-1,4.5268008E-1,1.2869837E0,-1.5392467E0,-1.03538E0,-6.3193274E-1,-1.2710729E-1,2.0797387E-1,6.6069156E-1,1.141768E0,1.554708E0,-1.5835926E-1,-1.0752664E-1,-1.0795217E-1,-1.0701698E-2,-9.9981636E-2,-5.181977E-2,-2.2702651E-2,2.6692593E-2,-6.9795646E-2,2.7110413E-2,4.88736E-2,8.697349E-2,9.479251E-2,1.2291618E-1,8.405102E-2,1.5663208E-1],"categories":[],"categories_nodes":[],"categories_segments":[],"categories_sizes":[],"default_left":[0,0,0,0,0,0,0,0,0,0,0,0,0,0,0,0,0,0,0,0,0,0,0,0,0,0,0,0,0,0,0],"id":0,"left_children":[1,3,5,7,9,11,13,15,17,19,21,23,25,27,29,-1,-1,-1,-1,-1,-1,-1,-1,-1,-1,-1,-1,-1,-1,-1,-1],"loss_changes":[8.0288037E3,1.0244331E3,6.6524146E2,1.8004883E2,7.772584E1,7.5492096E1,1.02805664E2,2.9236816E1,5.587146E1,1.7509705E1,4.1299553E1,3.9316402E1,2.8427216E1,2.8443604E1,6.5058594E0,0E0,0E0,0E0,0E0,0E0,0E0,0E0,0E0,0E0,0E0,0E0,0E0,0E0,0E0,0E0,0E0],"parents":[2147483647,0,0,1,1,2,2,3,3,4,4,5,5,6,6,7,7,8,8,9,9,10,10,11,11,12,12,13,13,14,14],"right_children":[2,4,6,8,10,12,14,16,18,20,22,24,26,28,30,-1,-1,-1,-1,-1,-1,-1,-1,-1,-1,-1,-1,-1,-1,-1,-1],"split_conditions":[3.53E1,2.35E1,4.98E1,2.3333333E0,3.3333333E0,5.4E0,7.36E1,1.92E1,5E0,1.6E0,5.5E0,2.6666667E0,4.45E1,6.5E0,3.5E0,-1.5835926E-1,-1.0752664E-1,-1.0795217E-1,-1.0701698E-2,-9.9981636E-2,-5.181977E-2,-2.2702651E-2,2.6692593E-2,-6.9795646E-2,2.7110413E-2,4.88736E-2,8.697349E-2,9.479251E-2,1.2291618E-1,8.405102E-2,1.5663208E-1],"split_indices":[2,2,2,8,7,8,2,2,8,6,8,7,2,8,5,0,0,0,0,0,0,0,0,0,0,0,0,0,0,0,0],"split_type":[0,0,0,0,0,0,0,0,0,0,0,0,0,0,0,0,0,0,0,0,0,0,0,0,0,0,0,0,0,0,0],"sum_hessian":[8.518E3,4.3442246E3,4.1737754E3,2.867931E3,1.476294E3,1.4847949E3,2.6889805E3,1.5027098E3,1.3652211E3,4.2986206E2,1.0464319E3,6.831418E2,8.016531E2,1.7467792E3,9.422013E2,1.3694125E3,1.3329732E2,1.3030986E3,6.2122414E1,9.967283E1,3.3018924E2,8.350924E2,2.1133945E2,4.384876E1,6.39293E2,4.416758E2,3.5997726E2,5.4648956E2,1.2002897E3,1.6248966E1,9.2595233E2],"tree_param":{"num_deleted":"0","num_feature":"9","num_nodes":"31","size_leaf_vector":"1"}},{"base_weights":[-5.977355E-6,-8.4645456E-1,9.080787E-1,-1.1754094E0,-2.3621444E-1,4.795573E-1,1.1985123E0,-1.3648082E0,-8.90097E-1,-4.718557E-1,-4.890091E-2,4.3489255E-2,5.849672E-1,1.0670596E0,1.4082947E0,-1.555507E-1,-1.2430377E-1,-9.358859E-2,-8.896105E-3,-6.341598E-2,-2.351643E-2,-3.398248E-2,8.426578E-3,-8.605436E-2,1.7408982E-2,4.022631E-2,7.236119E-2,6.3403614E-2,1.09722815E-1,1.2652451E-1,1.4678626E-1],"categories":[],"categories_nodes":[],"categories_segments":[],"categories_sizes":[],"default_left":[0,0,0,0,0,0,0,0,0,0,0,0,0,0,0,0,0,0,0,0,0,0,0,0,0,0,0,0,0,0,0],"id":1,"left_children":[1,3,5,7,9,11,13,15,17,19,21,23,25,27,29,-1,-1,-1,-1,-1,-1,-1,-1,-1,-1,-1,-1,-1,-1,-1,-1],"loss_changes":[6.5289736E3,8.822329E2,5.0943286E2,1.5312842E2,6.7996925E1,7.6143036E1,6.583325E1,3.788623E1,4.1824768E1,2.6064682E1,3.3333862E1,3.83637E1,3.351062E1,1.896875E1,6.1314697E0,0E0,0E0,0E0,0E0,0E0,0E0,0E0,0E0,0E0,0E0,0E0,0E0,0E0,0E0,0E0,0E0],"parents":[2147483647,0,0,1,1,2,2,3,3,4,4,5,5,6,6,7,7,8,8,9,9,10,10,11,11,12,12,13,13,14,14],"right_children":[2,4,6,8,10,12,14,16,18,20,22,24,26,28,30,-1,-1,-1,-1,-1,-1,-1,-1,-1,-1,-1,-1,-1,-1,-1,-1],"split_conditions":[3.59E1,2.35E1,5.27E1,2.5E0,4E0,4.3333335E0,7.36E1,1.02E1,5E0,2.9E1,2.85E1,2.6666667E0,4.33E1,3.25E0,5.6666665E0,-1.555507E-1,-1.2430377E-1,-9.358859E-2,-8.896105E-3,-6.341598E-2,-2.351643E-2,-3.398248E-2,8.426578E-3,-8.605436E-2,1.7408982E-2,4.022631E-2,7.236119E-2,6.3403614E-2,1.09722815E-1,1.2652451E-1,1.4678626E-1],"split_indices":[2,2,2,7,8,7,2,2,8,2,1,7,2,6,6,0,0,0,0,0,0,0,0,0,0,0,0,0,0,0,0],"split_type":[0,0,0,0,0,0,0,0,0,0,0,0,0,0,0,0,0,0,0,0,0,0,0,0,0,0,0,0,0,0,0],"sum_hessian":[8.492112E3,4.395254E3,4.096859E3,2.8552058E3,1.540048E3,1.6560641E3,2.4407947E3,1.7137705E3,1.1414354E3,6.8136664E2,8.5868134E2,3.226622E2,1.3334019E3,1.5042782E3,9.365165E2,6.632746E2,1.0504958E3,1.0795648E3,6.187065E1,4.032029E2,2.7816373E2,2.691432E2,5.8953815E2,4.0023766E1,2.8263846E2,5.769744E2,7.5642737E2,9.941039E1,1.4048678E3,2.818663E2,6.546502E2],"tree_param":{"num_deleted":"0","num_feature":"9","num_nodes":"31","size_leaf_vector":"1"}},{"base_weights":[-3.228364E-5,-7.68339E-1,8.2431513E-1,-1.070984E0,-2.12875E-1,4.3277833E-1,1.0921125E0,-1.2785543E0,-8.441244E-1,-5.2378255E-1,-8.88867E-2,3.8945206E-2,5.281686E-1,9.695988E-1,1.288981E0,-1.3435748E-1,-1.0018333E-1,-8.6093366E-2,7.7808015E-2,-1.6925009E-1,-4.9204607E-2,-1.7799877E-2,2.4161177E-2,-7.80234E-2,1.5680604E-2,4.1546162E-2,7.2716855E-2,-1.4445785E-1,9.7378924E-2,6.4933434E-2,1.299601E-1],"categories":[],"categories_nodes":[],"categories_segments":[],"categories_sizes":[],"default_left":[0,0,0,0,0,0,0,0,0,0,0,0,0,0,0,0,0,0,0,0,0,0,0,0,0,0,0,0,0,0,0],"id":2,"left_children":[1,3,5,7,9,11,13,15,17,19,21,23,25,27,29,-1,-1,-1,-1,-1,-1,-1,-1,-1,-1,-1,-1,-1,-1,-1,-1],"loss_changes":[5.337593E3,7.330674E2,4.2580518E2,1.3187036E2,5.93067E1,6.2075836E1,5.696338E1,2.5146484E1,3.7534607E1,1.54412155E1,3.2496353E1,3.13434E1,2.9540222E1,1.6498291E1,5.4246826E0,0E0,0E0,0E0,0E0,0E0,0E0,0E0,0E0,0E0,0E0,0E0,0E0,0E0,0E0,0E0,0E0],"parents":[2147483647,0,0,1,1,2,2,3,3,4,4,5,5,6,6,7,7,8,8,9,9,10,10,11,11,12,12,13,13,14,14],"right_children":[2,4,6,8,10,12,14,16,18,20,22,24,26,28,30,-1,-1,-1,-1,-1,-1,-1,-1,-1,-1,-1,-1,-1,-1,-1,-1],"split_conditions":[3.59E1,2.35E1,5.27E1,2.3333333E0,3.3333333E0,4.3333335E0,7.36E1,1.52E1,6.6666665E0,9.6E0,5.5E0,2.6666667E0,4.66E1,2E0,3.5E0,-1.3435748E-1,-1.0018333E-1,-8.6093366E-2,7.7808015E-2,-1.6925009E-1,-4.9204607E-2,-1.7799877E-2,2.4161177E-2,-7.80234E-2,1.5680604E-2,4.1546162E-2,7.2716855E-2,-1.4445785E-1,9.7378924E-2,6.4933434E-2,1.299601E-1],"split_indices":[2,2,2,8,7,7,2,1,7,1,8,7,2,6,5,0,0,0,0,0,0,0,0,0,0,0,0,0,0,0,0],"split_type":[0,0,0,0,0,0,0,0,0,0,0,0,0,0,0,0,0,0,0,0,0,0,0,0,0,0,0,0,0,0,0],"sum_hessian":[8.425534E3,4.361037E3,4.0644973E3,2.8223494E3,1.5386875E3,1.6519124E3,2.412585E3,1.4714121E3,1.3509374E3,4.377587E2,1.1009288E3,3.223696E2,1.3295427E3,1.4907793E3,9.218058E2,1.1883367E3,2.8307538E2,1.337547E3,1.3390392E1,1.0189606E1,4.275691E2,8.674896E2,2.334392E2,3.984075E1,2.8252884E2,8.507778E2,4.7876495E2,1.9875389E0,1.4887917E3,1.606961E1,9.057362E2],"tree_param":{"num_deleted":"0","num_feature":"9","num_nodes":"31","size_leaf_vector":"1"}},{"base_weights":[-9.548777E-5,-8.67691E-1,6.0947967E-1,-1.1678216E0,-6.366865E-1,1.3609108E-1,9.311334E-1,-1.3295288E0,-1.0441368E0,-6.840915E-1,2.2628666E-1,-2.7923107E-2,3.4311524E-1,7.804806E-1,1.1487528E0,-8.069284E-2,-1.3737975E-1,-1.2635267E-2,-1.088573E-1,-7.910448E-2,-4.1239012E-2,3.4320753E-3,9.650869E-2,-1.037535E-1,1.7392187E-3,3.574937E-2,-1.2843297E-1,4.7814216E-2,8.34262E-2,1.0705197E-1,1.2869789E-1],"categories":[],"categories_nodes":[],"categories_segments":[],"categories_sizes":[],"default_left":[0,0,0,0,0,0,0,0,0,0,0,0,0,0,0,0,0,0,0,0,0,0,0,0,0,0,0,0,0,0,0],"id":3,"left_children":[1,3,5,7,9,11,13,15,17,19,21,23,25,27,29,-1,-1,-1,-1,-1,-1,-1,-1,-1,-1,-1,-1,-1,-1,-1,-1],"loss_changes":[4.4067803E3,2.3765527E2,7.4506824E2,2.8498901E1,7.9732544E1,6.727952E1,9.4633545E1,1.3789185E1,3.4583252E1,5.3264526E1,1.4439026E1,5.0633507E1,2.095359E1,2.764917E1,1.148938E1,0E0,0E0,0E0,0E0,0E0,0E0,0E0,0E0,0E0,0E0,0E0,0E0,0E0,0E0,0E0,0E0],"parents":[2147483647,0,0,1,1,2,2,3,3,4,4,5,5,6,6,7,7,8,8,9,9,10,10,11,11,12,12,13,13,14,14],"right_children":[2,4,6,8,10,12,14,16,18,20,22,24,26,28,30,-1,-1,-1,-1,-1,-1,-1,-1,-1,-1,-1,-1,-1,-1,-1,-1],"split_conditions":[2.85E1,2.25E0,4.66E1,8.8E0,5.4E0,5.2E0,6.82E1,2.5E-1,7.5E-1,2.35E1,4.1666668E1,1.3333334E0,7.3333335E0,5.4E0,7E0,-8.069284E-2,-1.3737975E-1,-1.2635267E-2,-1.088573E-1,-7.910448E-2,-4.1239012E-2,3.4320753E-3,9.650869E-2,-1.037535E-1,1.7392187E-3,3.574937E-2,-1.2843297E-1,4.7814216E-2,8.34262E-2,1.0705197E-1,1.2869789E-1],"split_indices":[2,8,2,1,8,8,2,6,6,2,0,5,5,8,5,0,0,0,0,0,0,0,0,0,0,0,0,0,0,0,0],"split_type":[0,0,0,0,0,0,0,0,0,0,0,0,0,0,0,0,0,0,0,0,0,0,0,0,0,0,0,0,0,0,0],"sum_hessian":[8.330529E3,3.4375347E3,4.892994E3,1.4933096E3,1.9442251E3,1.9801558E3,2.9128386E3,6.4295386E2,8.503558E2,1.8431824E3,1.01042694E2,1.1053282E3,8.748275E2,1.7239647E3,1.1888738E3,5.1711807E1,5.91242E2,3.9447697E1,8.10908E2,1.3211927E3,5.2198956E2,8.103377E1,2.0008928E1,4.6539764E1,1.0587885E3,8.6793964E2,6.887886E0,2.6184735E2,1.4621174E3,7.6477295E2,4.241009E2],"tree_param":{"num_deleted":"0","num_feature":"9","num_nodes":"31","size_leaf_vector":"1"}},{"base_weights":[-1.629133E-4,-6.2156445E-1,7.1373355E-1,-9.0243423E-1,-1.6484593E-1,3.894898E-1,9.2251116E-1,-1.0698937E0,-6.576339E-1,-3.8364127E-1,-4.940273E-2,-6.697782E-1,4.14762E-1,8.1180567E-1,1.1043813E0,-1.2455728E-1,-9.601309E-2,-6.9712E-2,1.3466037E-3,-4.1974396E-2,4.2539876E-2,-1.6551404E-1,-3.9085946E-3,-8.382677E-3,-1.3949345E-1,2.4533879E-2,5.344535E-2,6.4438246E-2,8.770453E-2,9.704586E-2,1.1609348E-1],"categories":[],"categories_nodes":[],"categories_segments":[],"categories_sizes":[],"default_left":[0,0,0,0,0,0,0,0,0,0,0,0,0,0,0,0,0,0,0,0,0,0,0,0,0,0,0,0,0,0,0],"id":4,"left_children":[1,3,5,7,9,11,13,15,17,19,21,23,25,27,29,-1,-1,-1,-1,-1,-1,-1,-1,-1,-1,-1,-1,-1,-1,-1,-1],"loss_changes":[3.6463625E3,5.635707E2,2.585824E2,1.1083618E2,4.227947E1,4.0432434E1,4.5938232E1,2.9927979E1,2.9365417E1,1.7068497E1,1.8114418E1,1.4897316E1,2.9590088E1,1.5269897E1,5.5185547E0,0E0,0E0,0E0,0E0,0E0,0E0,0E0,0E0,0E0,0E0,0E0,0E0,0E0,0E0,0E0,0E0],"parents":[2147483647,0,0,1,1,2,2,3,3,4,4,5,5,6,6,7,7,8,8,9,9,10,10,11,11,12,12,13,13,14,14],"right_children":[2,4,6,8,10,12,14,16,18,20,22,24,26,28,30,-1,-1,-1,-1,-1,-1,-1,-1,-1,-1,-1,-1,-1,-1,-1,-1],"split_conditions":[3.71E1,2.35E1,5.27E1,2.5E0,3.5E0,2.6666667E0,7.36E1,1.02E1,5E0,4.3666668E1,1.0333333E1,4.14E1,4.33E1,6.5E0,5.6666665E0,-1.2455728E-1,-9.601309E-2,-6.9712E-2,1.3466037E-3,-4.1974396E-2,4.2539876E-2,-1.6551404E-1,-3.9085946E-3,-8.382677E-3,-1.3949345E-1,2.4533879E-2,5.344535E-2,6.4438246E-2,8.770453E-2,9.704586E-2,1.1609348E-1],"split_indices":[2,2,2,7,7,7,2,2,8,0,0,2,2,8,6,0,0,0,0,0,0,0,0,0,0,0,0,0,0,0,0],"split_type":[0,0,0,0,0,0,0,0,0,0,0,0,0,0,0,0,0,0,0,0,0,0,0,0,0,0,0,0,0,0,0],"sum_hessian":[8.21763E3,4.393498E3,3.8241318E3,2.7198726E3,1.6736256E3,1.4989855E3,2.3251462E3,1.613062E3,1.1068105E3,5.772539E2,1.0963717E3,3.4335423E1,1.46465E3,1.448748E3,8.763982E2,6.163021E2,9.9675995E2,1.0452703E3,6.1540268E1,5.530555E2,2.4198418E1,5.9813604E0,1.0903904E3,1.9607489E1,1.4727934E1,6.0761774E2,8.5703235E2,4.0928506E2,1.039463E3,2.6559943E2,6.1079877E2],"tree_param":{"num_deleted":"0","num_feature":"9","num_nodes":"31","size_leaf_vector":"1"}},{"base_weights":[-2.162539E-4,-7.333946E-1,5.088226E-1,-9.5556974E-1,-4.7340268E-1,1.6135716E-1,8.247292E-1,-9.725515E-1,6.638544E-1,-6.173665E-1,-2.8362963E-1,-1.002181E-2,3.3760294E-1,6.9025123E-1,9.8840785E-1,-1.1213318E-1,-8.4417924E-2,1.21093884E-1,-9.11465E-3,-8.8720016E-2,-5.39471E-2,-3.4319393E-2,3.7335806E-2,-1.041556E-1,2.2924354E-3,-5.235256E-2,3.5989325E-2,-4.515095E-2,7.010723E-2,9.13451E-2,1.1227341E-1],"categories":[],"categories_nodes":[],"categories_segments":[],"categories_sizes":[],"default_left":[0,0,0,0,0,0,0,0,0,0,0,0,0,0,0,0,0,0,0,0,0,0,0,0,0,0,0,0,0,0,0],"id":5,"left_children":[1,3,5,7,9,11,13,15,17,19,21,23,25,27,29,-1,-1,-1,-1,-1,-1,-1,-1,-1,-1,-1,-1,-1,-1,-1,-1],"loss_changes":[3.021046E3,1.9115198E2,5.2428687E2,4.980652E1,4.163669E1,6.8761475E1,5.439392E1,3.2849E1,8.018325E0,1.7795044E1,2.603521E1,3.928018E1,2.173059E1,1.7328735E1,1.0314209E1,0E0,0E0,0E0,0E0,0E0,0E0,0E0,0E0,0E0,0E0,0E0,0E0,0E0,0E0,0E0,0E0],"parents":[2147483647,0,0,1,1,2,2,3,3,4,4,5,5,6,6,7,7,8,8,9,9,10,10,11,11,12,12,13,13,14,14],"right_children":[2,4,6,8,10,12,14,16,18,20,22,24,26,28,30,-1,-1,-1,-1,-1,-1,-1,-1,-1,-1,-1,-1,-1,-1,-1,-1],"split_conditions":[2.85E1,1.74E1,4.98E1,5E0,3.5E0,3.85E1,6.82E1,2E0,1.3333333E1,2.2E0,4.5E1,1.3333334E0,2.6666667E0,3.6E0,7E0,-1.1213318E-1,-8.4417924E-2,1.21093884E-1,-9.11465E-3,-8.8720016E-2,-5.39471E-2,-3.4319393E-2,3.7335806E-2,-1.041556E-1,2.2924354E-3,-5.235256E-2,3.5989325E-2,-4.515095E-2,7.010723E-2,9.13451E-2,1.1227341E-1],"split_indices":[2,2,2,8,7,2,2,7,0,8,0,5,7,8,5,0,0,0,0,0,0,0,0,0,0,0,0,0,0,0,0],"split_type":[0,0,0,0,0,0,0,0,0,0,0,0,0,0,0,0,0,0,0,0,0,0,0,0,0,0,0,0,0,0,0],"sum_hessian":[8.092626E3,3.316036E3,4.77659E3,1.7866152E3,1.5294207E3,2.275395E3,2.501195E3,1.7684698E3,1.8145302E1,8.6839435E2,6.610263E2,1.1541036E3,1.1212914E3,1.3759418E3,1.1252533E3,8.1554193E2,9.52928E2,1.0171209E1,7.974093E0,1.9220345E2,6.761909E2,6.0651556E2,5.4510715E1,3.4772533E1,1.119331E3,2.7724878E1,1.0935665E3,1.2535733E1,1.363406E3,7.272391E2,3.980142E2],"tree_param":{"num_deleted":"0","num_feature":"9","num_nodes":"31","size_leaf_vector":"1"}},{"base_weights":[-2.68633E-4,-6.7464113E-1,4.6471554E-1,-8.6932796E-1,-4.0670332E-1,1.0094359E-1,7.2590274E-1,-9.3852365E-1,-5.176351E-1,-5.135539E-1,-1.3607281E-1,-3.096937E-2,2.6808771E-1,5.7517564E-1,8.936736E-1,-1.11239605E-1,-8.199494E-2,2.6364883E-2,-6.0762163E-2,-9.9077426E-2,-4.7395956E-2,-2.3669498E-2,5.8040913E-2,-8.545127E-2,4.968787E-4,2.8141996E-2,-1.2198973E-1,4.4052865E-2,6.7501225E-2,8.2017325E-2,1.0382952E-1],"categories":[],"categories_nodes":[],"categories_segments":[],"categories_sizes":[],"default_left":[0,0,0,0,0,0,0,0,0,0,0,0,0,0,0,0,0,0,0,0,0,0,0,0,0,0,0,0,0,0,0],"id":6,"left_children":[1,3,5,7,9,11,13,15,17,19,21,23,25,27,29,-1,-1,-1,-1,-1,-1,-1,-1,-1,-1,-1,-1,-1,-1,-1,-1],"loss_changes":[2.4972502E3,1.6918689E2,4.477898E2,4.5301636E1,3.953604E1,4.3469227E1,6.886438E1,3.1475708E1,2.206414E1,1.8077698E1,2.8185804E1,3.2636936E1,1.7594028E1,1.9167664E1,1.2930664E1,0E0,0E0,0E0,0E0,0E0,0E0,0E0,0E0,0E0,0E0,0E0,0E0,0E0,0E0,0E0,0E0],"parents":[2147483647,0,0,1,1,2,2,3,3,4,4,5,5,6,6,7,7,8,8,9,9,10,10,11,11,12,12,13,13,14,14],"right_children":[2,4,6,8,10,12,14,16,18,20,22,24,26,28,30,-1,-1,-1,-1,-1,-1,-1,-1,-1,-1,-1,-1,-1,-1,-1,-1],"split_conditions":[2.85E1,1.84E1,4.66E1,3.3333333E0,4.3333335E0,5.2E0,6.45E1,9E0,1.5E0,1.6666666E0,4.5E1,1.3333334E0,7.3333335E0,6.5E0,8.37E1,-1.11239605E-1,-8.199494E-2,2.6364883E-2,-6.0762163E-2,-9.9077426E-2,-4.7395956E-2,-2.3669498E-2,5.8040913E-2,-8.545127E-2,4.968787E-4,2.8141996E-2,-1.2198973E-1,4.4052865E-2,6.7501225E-2,8.2017325E-2,1.0382952E-1],"split_indices":[2,2,2,7,7,8,2,1,5,7,0,5,5,8,2,0,0,0,0,0,0,0,0,0,0,0,0,0,0,0,0],"split_type":[0,0,0,0,0,0,0,0,0,0,0,0,0,0,0,0,0,0,0,0,0,0,0,0,0,0,0,0,0,0,0],"sum_hessian":[7.9618677E3,3.249143E3,4.7127246E3,1.8805026E3,1.3686405E3,1.9701533E3,2.7425713E3,1.5699465E3,3.10556E2,9.805868E2,3.8805374E2,1.1015814E3,8.6857196E2,1.4470001E3,1.295571E3,6.3314594E2,9.3680066E2,3.1875517E1,2.786805E2,7.3284515E1,9.073023E2,3.408541E2,4.719964E1,4.5108864E1,1.0564725E3,8.6166235E2,6.909567E0,6.183969E2,8.286032E2,8.634264E2,4.3214468E2],"tree_param":{"num_deleted":"0","num_feature":"9","num_nodes":"31","size_leaf_vector":"1"}},{"base_weights":[-3.373645E-4,-4.7964346E-1,5.523192E-1,-7.967429E-1,-2.1466838E-1,2.9769024E-1,7.3516226E-1,-9.30867E-1,-5.9589064E-1,-3.7765062E-1,-4.3650415E-2,1.0665198E-2,3.6321607E-1,6.349031E-1,9.016405E-1,-3.921261E-2,-9.578123E-2,-6.283917E-2,3.582085E-2,-5.3711046E-2,-2.2390217E-2,-1.5946849E-1,-2.424619E-3,-1.7107926E-1,5.949804E-3,-1.4130437E-1,3.6683306E-2,1.9040858E-2,6.6521816E-2,2.6804894E-2,9.131893E-2],"categories":[],"categories_nodes":[],"categories_segments":[],"categories_sizes":[],"default_left":[0,0,0,0,0,0,0,0,0,0,0,0,0,0,0,0,0,0,0,0,0,0,0,0,0,0,0,0,0,0,0],"id":7,"left_children":[1,3,5,7,9,11,13,15,17,19,21,23,25,27,29,-1,-1,-1,-1,-1,-1,-1,-1,-1,-1,-1,-1,-1,-1,-1,-1],"loss_changes":[2.074283E3,3.5219305E2,1.691117E2,5.0863525E1,6.3699738E1,2.8617386E1,3.4749634E1,1.6211975E1,2.4009552E1,2.8572784E1,3.356753E1,2.3965319E1,8.478058E0,1.7716614E1,5.5582886E0,0E0,0E0,0E0,0E0,0E0,0E0,0E0,0E0,0E0,0E0,0E0,0E0,0E0,0E0,0E0,0E0],"parents":[2147483647,0,0,1,1,2,2,3,3,4,4,5,5,6,6,7,7,8,8,9,9,10,10,11,11,12,12,13,13,14,14],"right_children":[2,4,6,8,10,12,14,16,18,20,22,24,26,28,30,-1,-1,-1,-1,-1,-1,-1,-1,-1,-1,-1,-1,-1,-1,-1,-1],"split_conditions":[3.71E1,1.9E1,5.32E1,2.3333333E0,4E0,4.3333335E0,7.36E1,4E-1,5E0,2.46E1,1.0333333E1,2.025E1,1.1666667E1,3.25E0,3.5E0,-3.921261E-2,-9.578123E-2,-6.283917E-2,3.582085E-2,-5.3711046E-2,-2.2390217E-2,-1.5946849E-1,-2.424619E-3,-1.7107926E-1,5.949804E-3,-1.4130437E-1,3.6683306E-2,1.9040858E-2,6.6521816E-2,2.6804894E-2,9.131893E-2],"split_indices":[2,2,2,8,8,7,2,6,8,2,0,1,0,6,5,0,0,0,0,0,0,0,0,0,0,0,0,0,0,0,0],"split_type":[0,0,0,0,0,0,0,0,0,0,0,0,0,0,0,0,0,0,0,0,0,0,0,0,0,0,0,0,0,0,0],"sum_hessian":[7.8286836E3,4.1926387E3,3.636045E3,1.9076818E3,2.2849568E3,1.5207965E3,2.1152483E3,1.1416694E3,7.660124E2,1.1693467E3,1.1156102E3,2.8287448E2,1.237922E3,1.3231895E3,7.920589E2,5.5121826E1,1.0865476E3,7.4110815E2,2.490422E1,5.727878E2,5.9655896E2,1.2781315E1,1.1028289E3,6.8641863E0,2.7601028E2,1.7237833E0,1.2361982E3,8.494636E1,1.2382432E3,1.4612274E1,7.774466E2],"tree_param":{"num_deleted":"0","num_feature":"9","num_nodes":"31","size_leaf_vector":"1"}},{"base_weights":[-4.2426575E-4,-5.742368E-1,3.894164E-1,-8.263056E-1,-3.9920884E-1,1.1860215E-1,6.520487E-1,-9.916195E-1,-7.064464E-1,-4.3635422E-1,2.3985098E-1,-4.8156378E-1,1.5141374E-1,5.576646E-1,8.44492E-1,-4.443419E-2,-1.0405439E-1,2.42902E-2,-7.5442135E-2,-5.8345795E-2,-3.3939242E-2,1.2421955E-1,1.2069179E-2,-3.926245E-2,-1.5136592E-1,7.0346743E-3,3.5334475E-2,-8.1934325E-2,5.6408413E-2,7.074186E-2,9.041154E-2],"categories":[],"categories_nodes":[],"categories_segments":[],"categories_sizes":[],"default_left":[0,0,0,0,0,0,0,0,0,0,0,0,0,0,0,0,0,0,0,0,0,0,0,0,0,0,0,0,0,0,0],"id":8,"left_children":[1,3,5,7,9,11,13,15,17,19,21,23,25,27,29,-1,-1,-1,-1,-1,-1,-1,-1,-1,-1,-1,-1,-1,-1,-1,-1],"loss_changes":[1.7220729E3,1.3707019E2,3.259571E2,2.4569519E1,4.3782043E1,4.4539585E1,4.1794373E1,1.3823547E1,3.4013306E1,2.460968E1,1.1999207E1,1.01722145E1,3.5035835E1,1.4288971E1,5.602478E0,0E0,0E0,0E0,0E0,0E0,0E0,0E0,0E0,0E0,0E0,0E0,0E0,0E0,0E0,0E0,0E0],"parents":[2147483647,0,0,1,1,2,2,3,3,4,4,5,5,6,6,7,7,8,8,9,9,10,10,11,11,12,12,13,13,14,14],"right_children":[2,4,6,8,10,12,14,16,18,20,22,24,26,28,30,-1,-1,-1,-1,-1,-1,-1,-1,-1,-1,-1,-1,-1,-1,-1,-1],"split_conditions":[2.85E1,2.25E0,4.98E1,8.8E0,5.4E0,2.5E0,7.36E1,2.5E-1,7.5E-1,1.84E1,1.94E1,4.08E1,4.33E1,3.2E0,5.6666665E0,-4.443419E-2,-1.0405439E-1,2.42902E-2,-7.5442135E-2,-5.8345795E-2,-3.3939242E-2,1.2421955E-1,1.2069179E-2,-3.926245E-2,-1.5136592E-1,7.0346743E-3,3.5334475E-2,-8.1934325E-2,5.6408413E-2,7.074186E-2,9.041154E-2],"split_indices":[2,8,2,1,8,7,2,6,6,2,1,1,2,8,6,0,0,0,0,0,0,0,0,0,0,0,0,0,0,0,0],"split_type":[0,0,0,0,0,0,0,0,0,0,0,0,0,0,0,0,0,0,0,0,0,0,0,0,0,0,0,0,0,0,0],"sum_hessian":[7.6962915E3,3.1133013E3,4.58299E3,1.274333E3,1.8389684E3,2.257063E3,2.325927E3,5.325496E2,7.4178345E2,1.7382498E3,1.0071864E2,1.1629018E2,2.1407727E3,1.5631674E3,7.6275964E2,4.4528442E1,4.8802115E2,3.548708E1,7.062964E2,6.885746E2,1.0496752E3,9.699938E0,9.101871E1,1.08334984E2,7.955191E0,1.5284938E3,6.12279E2,6.665951E0,1.5565015E3,2.3510965E2,5.2764996E2],"tree_param":{"num_deleted":"0","num_feature":"9","num_nodes":"31","size_leaf_vector":"1"}},{"base_weights":[-4.7552702E-4,-4.002382E-1,4.71301E-1,-6.907268E-1,-1.7346714E-1,2.513253E-1,6.3174313E-1,-8.220655E-1,-5.019202E-1,-3.164363E-1,-2.8826982E-2,-5.57429E-1,2.6881942E-1,5.57651E-1,8.335495E-1,-8.687939E-2,-5.0516404E-2,-5.3137477E-2,3.3223823E-2,-4.5362655E-2,-1.885793E-2,-1.4824262E-1,-1.1756885E-3,6.779802E-3,-1.2223549E-1,1.527392E-2,3.442083E-2,1.7621467E-2,5.8167305E-2,-7.507054E-2,8.408017E-2],"categories":[],"categories_nodes":[],"categories_segments":[],"categories_sizes":[],"default_left":[0,0,0,0,0,0,0,0,0,0,0,0,0,0,0,0,0,0,0,0,0,0,0,0,0,0,0,0,0,0,0],"id":9,"left_children":[1,3,5,7,9,11,13,15,17,19,21,23,25,27,29,-1,-1,-1,-1,-1,-1,-1,-1,-1,-1,-1,-1,-1,-1,-1,-1],"loss_changes":[1.4273822E3,2.697583E2,1.2236206E2,4.411798E1,4.7596107E1,2.0888268E1,2.9540222E1,1.5220703E1,1.8340317E1,2.0220238E1,2.840498E1,1.3120196E1,1.2508965E1,1.3374664E1,6.7996216E0,0E0,0E0,0E0,0E0,0E0,0E0,0E0,0E0,0E0,0E0,0E0,0E0,0E0,0E0,0E0,0E0],"parents":[2147483647,0,0,1,1,2,2,3,3,4,4,5,5,6,6,7,7,8,8,9,9,10,10,11,11,12,12,13,13,14,14],"right_children":[2,4,6,8,10,12,14,16,18,20,22,24,26,28,30,-1,-1,-1,-1,-1,-1,-1,-1,-1,-1,-1,-1,-1,-1,-1,-1],"split_conditions":[3.75E1,1.9E1,5.32E1,2.3333333E0,4E0,2.6666667E0,7.86E1,1.56E1,5E0,2.46E1,1.0333333E1,4.14E1,4.33E1,3.25E0,5.6666665E0,-8.687939E-2,-5.0516404E-2,-5.3137477E-2,3.3223823E-2,-4.5362655E-2,-1.885793E-2,-1.4824262E-1,-1.1756885E-3,6.779802E-3,-1.2223549E-1,1.527392E-2,3.442083E-2,1.7621467E-2,5.8167305E-2,-7.507054E-2,8.408017E-2],"split_indices":[2,2,2,8,8,7,2,1,8,2,0,2,2,6,8,0,0,0,0,0,0,0,0,0,0,0,0,0,0,0,0],"split_type":[0,0,0,0,0,0,0,0,0,0,0,0,0,0,0,0,0,0,0,0,0,0,0,0,0,0,0,0,0,0,0],"sum_hessian":[7.5663584E3,4.0958591E3,3.470499E3,1.7947626E3,2.3010964E3,1.4647739E3,2.0057252E3,1.0564884E3,7.3827423E2,1.1566357E3,1.1444608E3,3.0360102E1,1.4344138E3,1.4698433E3,5.35882E2,9.1920624E2,1.3728215E2,7.134451E2,2.4829086E1,5.567241E2,5.9991156E2,1.2287399E1,1.1321733E3,1.6109985E1,1.4250117E1,5.659763E2,8.6843744E2,8.757704E1,1.3822662E3,1.9747759E0,5.339072E2],"tree_param":{"num_deleted":"0","num_feature":"9","num_nodes":"31","size_leaf_vector":"1"}},{"base_weights":[-5.393931E-4,-4.8894075E-1,3.2624725E-1,-7.248257E-1,-3.33211E-1,9.820584E-2,5.574458E-1,-8.995693E-1,-6.0839665E-1,-3.6592707E-1,2.1670641E-1,-8.68794E-3,2.4415551E-1,4.4520527E-1,7.053528E-1,-3.344428E-2,-9.5379606E-2,1.62436E-2,-6.679419E-2,-3.8089406E-2,4.5051686E-2,1.120462E-1,1.0989068E-2,4.8646713E-3,-5.0285634E-2,1.6482882E-2,3.87614E-2,-1.5097496E-1,4.498608E-2,6.267457E-2,8.5202135E-2],"categories":[],"categories_nodes":[],"categories_segments":[],"categories_sizes":[],"default_left":[0,0,0,0,0,0,0,0,0,0,0,0,0,0,0,0,0,0,0,0,0,0,0,0,0,0,0,0,0,0,0],"id":10,"left_children":[1,3,5,7,9,11,13,15,17,19,21,23,25,27,29,-1,-1,-1,-1,-1,-1,-1,-1,-1,-1,-1,-1,-1,-1,-1,-1],"loss_changes":[1.187786E3,1.0934967E2,2.3502493E2,2.3572083E1,3.244243E1,3.5041145E1,3.6438477E1,1.414389E1,3.290625E1,2.0923126E1,9.68838E0,3.6783436E1,1.0741951E1,1.2159653E1,1.0458527E1,0E0,0E0,0E0,0E0,0E0,0E0,0E0,0E0,0E0,0E0,0E0,0E0,0E0,0E0,0E0,0E0],"parents":[2147483647,0,0,1,1,2,2,3,3,4,4,5,5,6,6,7,7,8,8,9,9,10,10,11,11,12,12,13,13,14,14],"right_children":[2,4,6,8,10,12,14,16,18,20,22,24,26,28,30,-1,-1,-1,-1,-1,-1,-1,-1,-1,-1,-1,-1,-1,-1,-1,-1],"split_conditions":[2.85E1,2.25E0,4.98E1,1.02E1,5.4E0,5.4E0,6.82E1,3.3333334E-1,6.666667E-1,4.7E1,1.94E1,3.8E0,4.45E1,2E0,7E0,-3.344428E-2,-9.5379606E-2,1.62436E-2,-6.679419E-2,-3.8089406E-2,4.5051686E-2,1.120462E-1,1.0989068E-2,4.8646713E-3,-5.0285634E-2,1.6482882E-2,3.87614E-2,-1.5097496E-1,4.498608E-2,6.267457E-2,8.5202135E-2],"split_indices":[2,8,2,2,8,8,2,6,6,0,1,6,2,6,5,0,0,0,0,0,0,0,0,0,0,0,0,0,0,0,0],"split_type":[0,0,0,0,0,0,0,0,0,0,0,0,0,0,0,0,0,0,0,0,0,0,0,0,0,0,0,0,0,0,0],"sum_hessian":[7.4401274E3,2.9823455E3,4.457782E3,1.1845082E3,1.7978372E3,2.2449312E3,2.2128508E3,4.70951E2,7.135572E2,1.6972007E3,1.00636475E2,1.296392E3,9.4853925E2,1.2603973E3,9.5245355E2,4.186113E1,4.2908987E2,5.1044277E1,6.6251294E2,1.6671716E3,3.0028992E1,9.634068E0,9.10024E1,1.1624259E3,1.33966E2,6.1217847E2,3.3636078E2,2.2263312E0,1.2581709E3,6.2354004E2,3.2891354E2],"tree_param":{"num_deleted":"0","num_feature":"9","num_nodes":"31","size_leaf_vector":"1"}},{"base_weights":[-5.413753E-4,-3.37278E-1,3.982199E-1,-6.088786E-1,-1.4501159E-1,2.7254987E-1,6.238582E-1,-6.791463E-1,-2.916871E-1,-7.98115E-1,-1.23713925E-1,1.5351331E-1,3.8860252E-1,5.581449E-1,7.785782E-1,-8.660586E-2,-5.62811E-2,4.2374328E-2,-3.7376426E-2,4.3748606E-2,-1.044871E-1,-2.5811315E-2,-4.0447665E-3,1.6724449E-2,-9.495675E-2,3.933877E-2,-1.8023805E-1,-1.0530899E-1,5.652334E-2,-1.8007414E-1,7.9097755E-2],"categories":[],"categories_nodes":[],"categories_segments":[],"categories_sizes":[],"default_left":[0,0,0,0,0,0,0,0,0,0,0,0,0,0,0,0,0,0,0,0,0,0,0,0,0,0,0,0,0,0,0],"id":11,"left_children":[1,3,5,7,9,11,13,15,17,19,21,23,25,27,29,-1,-1,-1,-1,-1,-1,-1,-1,-1,-1,-1,-1,-1,-1,-1,-1],"loss_changes":[9.833754E2,2.07251E2,9.49057E1,3.6475403E1,3.225644E1,2.9714706E1,1.1752167E1,2.8786194E1,1.778374E1,2.2798172E1,2.521201E1,1.6299374E1,1.2143921E1,1.0244385E1,1.2771225E1,0E0,0E0,0E0,0E0,0E0,0E0,0E0,0E0,0E0,0E0,0E0,0E0,0E0,0E0,0E0,0E0],"parents":[2147483647,0,0,1,1,2,2,3,3,4,4,5,5,6,6,7,7,8,8,9,9,10,10,11,11,12,12,13,13,14,14],"right_children":[2,4,6,8,10,12,14,16,18,20,22,24,26,28,30,-1,-1,-1,-1,-1,-1,-1,-1,-1,-1,-1,-1,-1,-1,-1,-1],"split_conditions":[3.75E1,1.86E1,6.3E1,3.3333333E0,1.6666666E0,6.2E0,8.37E1,9E0,1.5E0,5E-1,2.55E1,1.3333334E0,1.6666666E0,4.25E0,6E0,-8.660586E-2,-5.62811E-2,4.2374328E-2,-3.7376426E-2,4.3748606E-2,-1.044871E-1,-2.5811315E-2,-4.0447665E-3,1.6724449E-2,-9.495675E-2,3.933877E-2,-1.8023805E-1,-1.0530899E-1,5.652334E-2,-1.8007414E-1,7.9097755E-2],"split_indices":[2,2,2,7,7,8,2,1,5,5,2,3,3,8,8,0,0,0,0,0,0,0,0,0,0,0,0,0,0,0,0],"split_type":[0,0,0,0,0,0,0,0,0,0,0,0,0,0,0,0,0,0,0,0,0,0,0,0,0,0,0,0,0,0,0],"sum_hessian":[7.321454E3,3.9695203E3,3.3519338E3,1.6444128E3,2.3251074E3,2.1542979E3,1.1976359E3,1.345256E3,2.9915686E2,7.2275314E1,2.252832E3,1.0646237E3,1.0896743E3,8.438432E2,3.537927E2,5.1361005E2,8.31646E2,3.035994E1,2.6879694E2,1.190242E1,6.037289E1,8.6100037E2,1.3918318E3,1.0523721E3,1.2251561E1,1.0881183E3,1.5560334E0,3.049805E0,8.407934E2,1.0025916E0,3.527901E2],"tree_param":{"num_deleted":"0","num_feature":"9","num_nodes":"31","size_leaf_vector":"1"}},{"base_weights":[-6.331322E-4,-4.0810874E-1,2.7681297E-1,-5.887097E-1,-2.3300628E-1,9.953858E-2,4.9949056E-1,-7.6134366E-1,-4.568471E-1,-2.5845206E-1,5.007806E-1,-4.58283E-1,1.2588516E-1,4.1229138E-1,6.6100633E-1,-9.031634E-2,-5.970279E-2,-1.4630732E-2,-5.494023E-2,-5.6276824E-2,-2.1863936E-2,-1.1863701E-2,7.44788E-2,-1.0111516E-1,-2.5197878E-2,5.446648E-3,2.5653362E-2,-1.3469577E-1,4.1621555E-2,3.074817E-3,6.783097E-2],"categories":[],"categories_nodes":[],"categories_segments":[],"categories_sizes":[],"default_left":[0,0,0,0,0,0,0,0,0,0,0,0,0,0,0,0,0,0,0,0,0,0,0,0,0,0,0,0,0,0,0],"id":12,"left_children":[1,3,5,7,9,11,13,15,17,19,21,23,25,27,29,-1,-1,-1,-1,-1,-1,-1,-1,-1,-1,-1,-1,-1,-1,-1,-1],"loss_changes":[8.1524445E2,9.2238525E1,1.6930246E2,3.2371094E1,2.7852867E1,3.5180054E1,2.6505432E1,1.393045E1,2.3412903E1,1.7271095E1,7.6610394E0,1.2063433E1,2.128638E1,9.102875E0,7.230652E0,0E0,0E0,0E0,0E0,0E0,0E0,0E0,0E0,0E0,0E0,0E0,0E0,0E0,0E0,0E0,0E0],"parents":[2147483647,0,0,1,1,2,2,3,3,4,4,5,5,6,6,7,7,8,8,9,9,10,10,11,11,12,12,13,13,14,14],"right_children":[2,4,6,8,10,12,14,16,18,20,22,24,26,28,30,-1,-1,-1,-1,-1,-1,-1,-1,-1,-1,-1,-1,-1,-1,-1,-1],"split_conditions":[2.9E1,1.74E1,5.27E1,2E0,4.7E1,2.5E0,8.75E0,1.02E1,1.25E0,2.2E0,4.5E0,1.3333334E0,4.33E1,2E0,4.6666665E0,-9.031634E-2,-5.970279E-2,-1.4630732E-2,-5.494023E-2,-5.6276824E-2,-2.1863936E-2,-1.1863701E-2,7.44788E-2,-1.0111516E-1,-2.5197878E-2,5.446648E-3,2.5653362E-2,-1.3469577E-1,4.1621555E-2,3.074817E-3,6.783097E-2],"split_indices":[2,2,2,7,0,7,8,2,6,8,7,5,2,6,6,0,0,0,0,0,0,0,0,0,0,0,0,0,0,0,0],"split_type":[0,0,0,0,0,0,0,0,0,0,0,0,0,0,0,0,0,0,0,0,0,0,0,0,0,0,0,0,0,0,0],"sum_hessian":[7.209201E3,2.9200916E3,4.2891094E3,1.4363132E3,1.4837783E3,2.3888137E3,1.9002959E3,6.1993E2,8.163833E2,1.4346754E3,4.9102924E1,1.06998566E2,2.2818152E3,1.2363613E3,6.639346E2,3.3032898E2,2.89601E2,1.8804341E2,6.2833984E2,1.644598E2,1.2702157E3,1.4021884E1,3.508104E1,2.8016558E1,7.898201E1,1.4762456E3,8.055695E2,1.9899637E0,1.2343713E3,1.781505E1,6.461195E2],"tree_param":{"num_deleted":"0","num_feature":"9","num_nodes":"31","size_leaf_vector":"1"}},{"base_weights":[-6.856631E-4,-2.5947762E-1,3.6714458E-1,-5.323861E-1,-9.917985E-2,2.0825799E-1,4.9684852E-1,-7.3629713E-1,-4.3538338E-1,-2.3133346E-1,1.4511227E-2,1.8977271E-1,6.898764E-1,4.2975464E-1,6.6467804E-1,-7.85677E-2,6.2439043E-2,1.6538876E-1,-4.4512577E-2,-1.9320197E-2,-7.411104E-2,-1.22038655E-1,2.5973718E-3,2.1779973E-2,-2.6458208E-2,8.0156505E-2,-4.893289E-2,-9.220626E-2,4.359942E-2,9.504857E-2,6.1935063E-2],"categories":[],"categories_nodes":[],"categories_segments":[],"categories_sizes":[],"default_left":[0,0,0,0,0,0,0,0,0,0,0,0,0,0,0,0,0,0,0,0,0,0,0,0,0,0,0,0,0,0,0],"id":13,"left_children":[1,3,5,7,9,11,13,15,17,19,21,23,25,27,29,-1,-1,-1,-1,-1,-1,-1,-1,-1,-1,-1,-1,-1,-1,-1,-1],"loss_changes":[6.762589E2,1.8237912E2,6.0361053E1,3.019696E1,3.9493362E1,1.1624187E1,1.7895538E1,3.3810883E1,2.2066559E1,2.3485107E1,2.0044092E1,1.626764E1,6.77005E0,1.0155228E1,5.361557E0,0E0,0E0,0E0,0E0,0E0,0E0,0E0,0E0,0E0,0E0,0E0,0E0,0E0,0E0,0E0,0E0],"parents":[2147483647,0,0,1,1,2,2,3,3,4,4,5,5,6,6,7,7,8,8,9,9,10,10,11,11,12,12,13,13,14,14],"right_children":[2,4,6,8,10,12,14,16,18,20,22,24,26,28,30,-1,-1,-1,-1,-1,-1,-1,-1,-1,-1,-1,-1,-1,-1,-1,-1],"split_conditions":[5.4E0,1.86E1,5.47E1,9E0,2.9E1,7.6E1,7.86E1,3.5E0,4E-1,3.6E0,8E0,5.75E0,9.4333336E1,3E0,4.5E0,-7.85677E-2,6.2439043E-2,1.6538876E-1,-4.4512577E-2,-1.9320197E-2,-7.411104E-2,-1.22038655E-1,2.5973718E-3,2.1779973E-2,-2.6458208E-2,8.0156505E-2,-4.893289E-2,-9.220626E-2,4.359942E-2,9.504857E-2,6.1935063E-2],"split_indices":[8,2,2,1,2,0,2,7,6,6,0,6,0,6,5,0,0,0,0,0,0,0,0,0,0,0,0,0,0,0,0],"split_type":[0,0,0,0,0,0,0,0,0,0,0,0,0,0,0,0,0,0,0,0,0,0,0,0,0,0,0,0,0,0,0],"sum_hessian":[7.102193E3,4.1691943E3,2.9329988E3,1.5418533E3,2.627341E3,1.3193761E3,1.6136227E3,4.9490826E2,1.046945E3,1.2145375E3,1.4128036E3,1.2719507E3,4.742545E1,1.1553175E3,4.583051E2,4.7798462E2,1.6923635E1,4.0760093E0,1.042869E3,1.1312952E3,8.324228E1,1.2023269E1,1.4007804E3,1.1985391E3,7.341159E1,4.361472E1,3.8107274E0,4.633696E0,1.1506838E3,6.0001606E1,3.983035E2],"tree_param":{"num_deleted":"0","num_feature":"9","num_nodes":"31","size_leaf_vector":"1"}},{"base_weights":[-6.6433894E-4,-2.6057062E-1,3.0835643E-1,-5.116737E-1,-1.1842652E-1,2.052006E-1,5.054521E-1,-7.3995596E-1,-4.162567E-1,-2.8545436E-1,-3.7206363E-2,1.5180172E-1,3.8050064E-1,4.4325352E-1,6.5842414E-1,-1.0270422E-2,-8.025544E-2,1.9042445E-2,-4.4820454E-2,-1.6978888E-2,-5.483514E-2,2.4466699E-3,-2.1802483E-2,1.6269572E-2,-5.68828E-2,-9.869394E-3,4.1236635E-2,-9.8367624E-2,4.5017563E-2,-1.7135625E-1,6.717543E-2],"categories":[],"categories_nodes":[],"categories_segments":[],"categories_sizes":[],"default_left":[0,0,0,0,0,0,0,0,0,0,0,0,0,0,0,0,0,0,0,0,0,0,0,0,0,0,0,0,0,0,0],"id":14,"left_children":[1,3,5,7,9,11,13,15,17,19,21,23,25,27,29,-1,-1,-1,-1,-1,-1,-1,-1,-1,-1,-1,-1,-1,-1,-1,-1],"loss_changes":[5.626493E2,1.3575357E2,6.496384E1,2.9644318E1,3.296826E1,1.9623238E1,1.01631775E1,1.6035538E1,1.8925629E1,2.40876E1,1.8258148E1,1.2757366E1,7.5266953E0,8.189209E0,1.1129288E1,0E0,0E0,0E0,0E0,0E0,0E0,0E0,0E0,0E0,0E0,0E0,0E0,0E0,0E0,0E0,0E0],"parents":[2147483647,0,0,1,1,2,2,3,3,4,4,5,5,6,6,7,7,8,8,9,9,10,10,11,11,12,12,13,13,14,14],"right_children":[2,4,6,8,10,12,14,16,18,20,22,24,26,28,30,-1,-1,-1,-1,-1,-1,-1,-1,-1,-1,-1,-1,-1,-1,-1,-1],"split_conditions":[3.75E1,2.5E0,6.3E1,1.02E1,2.18E1,7.4E0,8.37E1,3.3333334E-1,6.666667E-1,2.6E0,3.6E0,1.3333334E0,4.25E1,4.25E0,6E0,-1.0270422E-2,-8.025544E-2,1.9042445E-2,-4.4820454E-2,-1.6978888E-2,-5.483514E-2,2.4466699E-3,-2.1802483E-2,1.6269572E-2,-5.68828E-2,-9.869394E-3,4.1236635E-2,-9.8367624E-2,4.5017563E-2,-1.7135625E-1,6.717543E-2],"split_indices":[2,7,2,2,2,8,2,6,6,6,6,3,2,8,8,0,0,0,0,0,0,0,0,0,0,0,0,0,0,0,0],"split_type":[0,0,0,0,0,0,0,0,0,0,0,0,0,0,0,0,0,0,0,0,0,0,0,0,0,0,0,0,0,0,0],"sum_hessian":[7.0034067E3,3.8040845E3,3.199322E3,1.3740941E3,2.4299905E3,2.1014875E3,1.0978345E3,4.0305112E2,9.7104297E2,7.942057E2,1.6357848E3,1.612242E3,4.892457E2,7.832585E2,3.1457596E2,3.6287262E1,3.6676385E2,4.8328915E1,9.2271405E2,5.526882E2,2.4151752E2,1.220399E3,4.1538568E2,1.5889949E3,2.3247137E1,3.0374784E1,4.588709E2,3.1000614E0,7.801584E2,1.045196E0,3.1353076E2],"tree_param":{"num_deleted":"0","num_feature":"9","num_nodes":"31","size_leaf_vector":"1"}},{"base_weights":[-6.9891795E-4,-2.197633E-1,3.1274432E-1,-4.836033E-1,-9.4031595E-2,2.264816E-1,4.9143553E-1,-6.4968204E-1,-3.624223E-1,-1.3546757E-1,1.7309311E-1,1.4498574E-1,3.1915313E-1,4.0723667E-1,6.088335E-1,-3.0264704E-2,-7.1567245E-2,-4.272371E-3,-4.5915242E-2,-1.0260601E-2,-6.1611082E-2,3.9241135E-2,1.3129864E-3,1.0672911E-1,1.3398183E-2,3.277267E-2,-1.413467E-1,5.006968E-2,2.3472086E-2,5.1975247E-2,7.537489E-2],"categories":[],"categories_nodes":[],"categories_segments":[],"categories_sizes":[],"default_left":[0,0,0,0,0,0,0,0,0,0,0,0,0,0,0,0,0,0,0,0,0,0,0,0,0,0,0,0,0,0,0],"id":15,"left_children":[1,3,5,7,9,11,13,15,17,19,21,23,25,27,29,-1,-1,-1,-1,-1,-1,-1,-1,-1,-1,-1,-1,-1,-1,-1,-1],"loss_changes":[4.7480313E2,1.3497548E2,4.3737274E1,2.6197296E1,3.054849E1,1.4456917E1,8.898376E0,1.2442902E1,2.3532318E1,3.7655003E1,1.3002867E1,1.0245707E1,1.3798836E1,8.619034E0,4.57106E0,0E0,0E0,0E0,0E0,0E0,0E0,0E0,0E0,0E0,0E0,0E0,0E0,0E0,0E0,0E0,0E0],"parents":[2147483647,0,0,1,1,2,2,3,3,4,4,5,5,6,6,7,7,8,8,9,9,10,10,11,11,12,12,13,13,14,14],"right_children":[2,4,6,8,10,12,14,16,18,20,22,24,26,28,30,-1,-1,-1,-1,-1,-1,-1,-1,-1,-1,-1,-1,-1,-1,-1,-1],"split_conditions":[5.4E0,1.74E1,6.54E1,2E0,4.7E1,3.3333334E-1,6.25E0,5E-1,1.25E0,3.75E0,4.32E1,1.94E1,1.6666666E0,7.8666664E1,8E-1,-3.0264704E-2,-7.1567245E-2,-4.272371E-3,-4.5915242E-2,-1.0260601E-2,-6.1611082E-2,3.9241135E-2,1.3129864E-3,1.0672911E-1,1.3398183E-2,3.277267E-2,-1.413467E-1,5.006968E-2,2.3472086E-2,5.1975247E-2,7.537489E-2],"split_indices":[8,2,2,7,0,4,6,5,6,6,1,1,3,0,4,0,0,0,0,0,0,0,0,0,0,0,0,0,0,0,0],"split_type":[0,0,0,0,0,0,0,0,0,0,0,0,0,0,0,0,0,0,0,0,0,0,0,0,0,0,0,0,0,0,0],"sum_hessian":[6.9128516E3,4.0692004E3,2.8436511E3,1.3123889E3,2.7568115E3,1.9193551E3,9.24296E2,5.5179376E2,7.6059515E2,2.3870317E3,3.6977988E2,1.0226209E3,8.967342E2,5.408572E2,3.8343884E2,8.90544E1,4.6273938E2,1.7700975E2,5.8358545E2,2.2354102E3,1.516215E2,1.5534305E2,2.1443683E2,1.0925158E1,1.0116958E3,8.9312555E2,3.6086264E0,3.4957388E2,1.9128333E2,2.4030647E2,1.4313235E2],"tree_param":{"num_deleted":"0","num_feature":"9","num_nodes":"31","size_leaf_vector":"1"}},{"base_weights":[-6.571232E-4,-3.0526808E-1,1.915531E-1,-5.246563E-1,-1.9964375E-1,5.4917958E-2,3.5266617E-1,-6.7916304E-1,-4.1515067E-1,-3.4219092E-1,-1.1473346E-1,1.0224372E0,4.174035E-2,2.828433E-1,5.074358E-1,-4.905786E-3,-7.478731E-2,2.3314763E-2,-4.771897E-2,3.077673E-2,-3.76378E-2,-5.2045635E-3,-6.564014E-2,1.3202424E-1,-8.341805E-2,-1.8832302E-2,1.0977817E-2,-1.0888944E-1,2.8986191E-2,2.302486E-2,5.6001663E-2],"categories":[],"categories_nodes":[],"categories_segments":[],"categories_sizes":[],"default_left":[0,0,0,0,0,0,0,0,0,0,0,0,0,0,0,0,0,0,0,0,0,0,0,0,0,0,0,0,0,0,0],"id":16,"left_children":[1,3,5,7,9,11,13,15,17,19,21,23,25,27,29,-1,-1,-1,-1,-1,-1,-1,-1,-1,-1,-1,-1,-1,-1,-1,-1],"loss_changes":[4.001398E2,6.1164597E1,9.222258E1,1.4245956E1,2.1582497E1,2.8880096E1,2.063385E1,1.5314529E1,2.0425446E1,1.4922287E1,3.8031174E1,1.793169E1,3.5069115E1,1.3093536E1,8.564529E0,0E0,0E0,0E0,0E0,0E0,0E0,0E0,0E0,0E0,0E0,0E0,0E0,0E0,0E0,0E0,0E0],"parents":[2147483647,0,0,1,1,2,2,3,3,4,4,5,5,6,6,7,7,8,8,9,9,10,10,11,11,12,12,13,13,14,14],"right_children":[2,4,6,8,10,12,14,16,18,20,22,24,26,28,30,-1,-1,-1,-1,-1,-1,-1,-1,-1,-1,-1,-1,-1,-1,-1,-1],"split_conditions":[4E0,1.42E1,4.98E1,7.5E0,2.5E0,1.75E0,8.75E0,2.5E-1,1E0,5E-1,3E0,2.7333334E1,2.85E1,4.2E0,5.6666665E0,-4.905786E-3,-7.478731E-2,2.3314763E-2,-4.771897E-2,3.077673E-2,-3.76378E-2,-5.2045635E-3,-6.564014E-2,1.3202424E-1,-8.341805E-2,-1.8832302E-2,1.0977817E-2,-1.0888944E-1,2.8986191E-2,2.302486E-2,5.6001663E-2],"split_indices":[8,2,2,0,7,6,8,6,5,5,6,1,1,8,6,0,0,0,0,0,0,0,0,0,0,0,0,0,0,0,0],"split_type":[0,0,0,0,0,0,0,0,0,0,0,0,0,0,0,0,0,0,0,0,0,0,0,0,0,0,0,0,0,0,0],"sum_hessian":[6.832234E3,2.6430278E3,4.189206E3,8.57656E2,1.7853718E3,2.2675261E3,1.9216799E3,3.5357626E2,5.0407974E2,6.653515E2,1.1200203E3,2.9439589E1,2.2380864E3,1.3262034E3,5.954766E2,3.4933422E1,3.1864285E2,4.3784138E1,4.6029562E2,3.284807E1,6.325035E2,1.00482666E3,1.1519361E2,2.5619127E1,3.8204613E0,5.1041138E2,1.7276752E3,5.9664197E0,1.3202369E3,9.580513E1,4.996715E2],"tree_param":{"num_deleted":"0","num_feature":"9","num_nodes":"31","size_leaf_vector":"1"}},{"base_weights":[-6.795822E-4,-2.7731735E-1,1.7601372E-1,-5.9650505E-1,-2.1129605E-1,6.123535E-2,3.3831063E-1,-1.0777875E-1,-6.9687235E-1,-2.9471362E-1,-5.7887778E-2,-1.3736176E-1,6.70725E-2,2.6881942E-1,4.796085E-1,-4.3477733E-2,9.868611E-2,-8.627992E-2,-5.5647224E-2,-5.473401E-2,-2.4259178E-2,2.6161043E-2,-1.860179E-2,-2.6344905E-2,8.2535595E-3,2.7486382E-2,-8.536047E-2,-1.5803317E-2,4.9377672E-2],"categories":[],"categories_nodes":[],"categories_segments":[],"categories_sizes":[],"default_left":[0,0,0,0,0,0,0,0,0,0,0,0,0,0,0,0,0,0,0,0,0,0,0,0,0,0,0,0,0],"id":17,"left_children":[1,3,5,7,9,11,13,15,17,19,21,-1,23,25,27,-1,-1,-1,-1,-1,-1,-1,-1,-1,-1,-1,-1,-1,-1],"loss_changes":[3.3019064E2,5.535797E1,7.676842E1,2.2033173E1,2.7921349E1,2.0325596E1,1.6635986E1,2.8339165E1,8.226501E0,1.8485474E1,3.1580256E1,0E0,1.232348E1,8.0149E0,5.151718E0,0E0,0E0,0E0,0E0,0E0,0E0,0E0,0E0,0E0,0E0,0E0,0E0,0E0,0E0],"parents":[2147483647,0,0,1,1,2,2,3,3,4,4,5,5,6,6,7,7,8,8,9,9,10,10,12,12,13,13,14,14],"right_children":[2,4,6,8,10,12,14,16,18,20,22,-1,24,26,28,-1,-1,-1,-1,-1,-1,-1,-1,-1,-1,-1,-1,-1,-1],"split_conditions":[2.85E1,1.6666666E0,5.27E1,5E-1,3.5E0,6.6666665E0,7.36E1,9.4E0,9.7E0,1.13E1,2.6666667E0,-1.3736176E-1,2.5E0,1.6666666E0,3.5E0,-4.3477733E-2,9.868611E-2,-8.627992E-2,-5.5647224E-2,-5.473401E-2,-2.4259178E-2,2.6161043E-2,-1.860179E-2,-2.6344905E-2,8.2535595E-3,2.7486382E-2,-8.536047E-2,-1.5803317E-2,4.9377672E-2],"split_indices":[2,8,2,5,7,0,2,1,2,2,5,0,7,3,5,0,0,0,0,0,0,0,0,0,0,0,0,0,0],"split_type":[0,0,0,0,0,0,0,0,0,0,0,0,0,0,0,0,0,0,0,0,0,0,0,0,0,0,0,0,0],"sum_hessian":[6.7531235E3,2.6319202E3,4.1212036E3,4.497098E2,2.1822102E3,2.4148027E3,1.7064009E3,7.697301E1,3.727368E2,1.4129701E3,7.6924023E2,8.834516E0,2.4059683E3,1.1457942E3,5.606066E2,5.9732193E1,1.7240812E1,1.6847975E2,2.0425705E2,2.4003865E2,1.1729314E3,2.1989084E2,5.493494E2,1.0681316E2,2.299155E3,1.1404081E3,5.386116E0,1.1965038E1,5.486416E2],"tree_param":{"num_deleted":"0","num_feature":"9","num_nodes":"29","size_leaf_vector":"1"}},{"base_weights":[-7.4319576E-4,-1.7045635E-1,2.4404773E-1,-3.8414115E-1,-6.8167634E-2,1.7462158E-1,3.9624006E-1,-6.0105604E-1,-2.987493E-1,-1.6477254E-1,3.4063593E-2,1.0366756E-1,2.5634536E-1,3.3119237E-1,5.331353E-1,-3.0611649E-3,-6.618314E-2,3.6061283E-2,-3.3130094E-2,-5.2869893E-3,-3.3603385E-2,9.456737E-3,-2.0992892E-2,9.935252E-2,9.305433E-3,7.2463304E-3,3.2812506E-2,7.293638E-2,3.07447E-2,2.6837802E-2,5.900377E-2],"categories":[],"categories_nodes":[],"categories_segments":[],"categories_sizes":[],"default_left":[0,0,0,0,0,0,0,0,0,0,0,0,0,0,0,0,0,0,0,0,0,0,0,0,0,0,0,0,0,0,0],"id":18,"left_children":[1,3,5,7,9,11,13,15,17,19,21,23,25,27,29,-1,-1,-1,-1,-1,-1,-1,-1,-1,-1,-1,-1,-1,-1,-1,-1],"loss_changes":[2.775101E2,8.619926E1,2.8828995E1,2.347113E1,2.6365147E1,1.0874779E1,7.4458466E0,1.2449432E1,1.9826347E1,2.6284733E1,1.917543E1,9.42716E0,1.1499062E1,5.2870445E0,3.9708176E0,0E0,0E0,0E0,0E0,0E0,0E0,0E0,0E0,0E0,0E0,0E0,0E0,0E0,0E0,0E0,0E0],"parents":[2147483647,0,0,1,1,2,2,3,3,4,4,5,5,6,6,7,7,8,8,9,9,10,10,11,11,12,12,13,13,14,14],"right_children":[2,4,6,8,10,12,14,16,18,20,22,24,26,28,30,-1,-1,-1,-1,-1,-1,-1,-1,-1,-1,-1,-1,-1,-1,-1,-1],"split_conditions":[5.4E0,2.5E0,6.54E1,8.8E0,2.9E1,3.3333334E-1,8.37E1,2.5E-1,5E-1,2.6E0,3.5E0,1.94E1,4.45E1,5.6666665E0,5.6666665E0,-3.0611649E-3,-6.618314E-2,3.6061283E-2,-3.3130094E-2,-5.2869893E-3,-3.3603385E-2,9.456737E-3,-2.0992892E-2,9.935252E-2,9.305433E-3,7.2463304E-3,3.2812506E-2,7.293638E-2,3.07447E-2,2.6837802E-2,5.900377E-2],"split_indices":[8,7,2,1,2,4,2,6,5,6,6,1,2,7,6,0,0,0,0,0,0,0,0,0,0,0,0,0,0,0,0],"split_type":[0,0,0,0,0,0,0,0,0,0,0,0,0,0,0,0,0,0,0,0,0,0,0,0,0,0,0,0,0,0,0],"sum_hessian":[6.677868E3,3.9438835E3,2.7339846E3,1.2758442E3,2.6680393E3,1.8789872E3,8.549974E2,3.5867883E2,9.171654E2,1.3714529E3,1.2965865E3,1.0069789E3,8.720083E2,5.819128E2,2.7308456E2,3.4679264E1,3.2399957E2,4.267465E1,8.744907E2,8.302644E2,5.4118854E2,1.039444E3,2.5714255E2,1.0777005E1,9.962019E2,2.4538954E2,6.266187E2,3.107754E1,5.5083527E2,4.9320595E1,2.2376398E2],"tree_param":{"num_deleted":"0","num_feature":"9","num_nodes":"31","size_leaf_vector":"1"}},{"base_weights":[-6.694899E-4,-2.3920865E-1,1.4744246E-1,-5.364342E-1,-1.7899744E-1,4.38448E-2,2.8528684E-1,-9.4335206E-2,-6.315916E-1,-2.7419212E-1,-5.1494375E-2,8.6847484E-1,3.2622796E-2,1.6574009E-1,3.595476E-1,-3.1064555E-2,1.2939996E-1,-5.8584537E-2,-1.1854338E-1,-2.2210205E-2,-6.875579E-2,-1.3490774E-3,-3.8026128E-2,1.1567425E-1,-8.381704E-2,-1.8613802E-2,9.267597E-3,1.07026495E-1,1.5201981E-2,3.6442827E-2,-9.204053E-2],"categories":[],"categories_nodes":[],"categories_segments":[],"categories_sizes":[],"default_left":[0,0,0,0,0,0,0,0,0,0,0,0,0,0,0,0,0,0,0,0,0,0,0,0,0,0,0,0,0,0,0],"id":19,"left_children":[1,3,5,7,9,11,13,15,17,19,21,23,25,27,29,-1,-1,-1,-1,-1,-1,-1,-1,-1,-1,-1,-1,-1,-1,-1,-1],"loss_changes":[2.3356049E2,4.5223343E1,5.8228554E1,1.7865051E1,2.5562897E1,2.1530062E1,1.5474274E1,2.3418194E1,8.184235E0,2.5820618E1,1.1264755E1,1.6337807E1,3.0225E1,8.180918E0,7.072647E0,0E0,0E0,0E0,0E0,0E0,0E0,0E0,0E0,0E0,0E0,0E0,0E0,0E0,0E0,0E0,0E0],"parents":[2147483647,0,0,1,1,2,2,3,3,4,4,5,5,6,6,7,7,8,8,9,9,10,10,11,11,12,12,13,13,14,14],"right_children":[2,4,6,8,10,12,14,16,18,20,22,24,26,28,30,-1,-1,-1,-1,-1,-1,-1,-1,-1,-1,-1,-1,-1,-1,-1,-1],"split_conditions":[4E0,1.6666666E0,6.6E0,5E-1,2.23E1,1.75E0,3.3333334E-1,9E0,4E-1,2.6E0,3E0,2.7333334E1,2.85E1,1.5333333E1,1.4666667E1,-3.1064555E-2,1.2939996E-1,-5.8584537E-2,-1.1854338E-1,-2.2210205E-2,-6.875579E-2,-1.3490774E-3,-3.8026128E-2,1.1567425E-1,-8.381704E-2,-1.8613802E-2,9.267597E-3,1.07026495E-1,1.5201981E-2,3.6442827E-2,-9.204053E-2],"split_indices":[8,8,8,5,2,6,4,0,4,6,6,1,1,0,7,0,0,0,0,0,0,0,0,0,0,0,0,0,0,0,0],"split_type":[0,0,0,0,0,0,0,0,0,0,0,0,0,0,0,0,0,0,0,0,0,0,0,0,0,0,0,0,0,0,0],"sum_hessian":[6.6087344E3,2.5313298E3,4.0774045E3,4.250772E2,2.1062527E3,2.3286292E3,1.7487755E3,7.5641235E1,3.4943597E2,1.2052523E3,9.0100024E2,3.0238169E1,2.298391E3,6.713123E2,1.0774631E3,6.61162E1,9.525029E0,3.2467618E2,2.4759804E1,1.0717355E3,1.3351689E2,8.0857465E2,9.2425644E1,2.6144365E1,4.0938034E0,4.9459357E2,1.8037975E3,8.880033E0,6.6243225E2,1.0740828E3,3.3803957E0],"tree_param":{"num_deleted":"0","num_feature":"9","num_nodes":"31","size_leaf_vector":"1"}},{"base_weights":[-6.8901153E-4,-2.4421345E-1,1.2272761E-1,-5.389E-1,-1.8038787E-1,1.528582E-2,2.4277024E-1,-1.4000747E-2,-5.8938855E-1,-1.0296056E0,-1.6661988E-1,3.8613626E-1,-9.197589E-3,2.0140089E-1,4.3052968E-1,-1.7647412E-2,1.2236942E-1,-7.587501E-2,-3.2230202E-2,1.2039551E-2,-1.1761507E-1,-2.5246426E-2,-5.4713734E-3,4.5096457E-2,-6.9681145E-2,2.9716958E-4,-6.2138807E-2,-8.764321E-2,2.0712307E-2,7.704524E-2,3.742489E-2],"categories":[],"categories_nodes":[],"categories_segments":[],"categories_sizes":[],"default_left":[0,0,0,0,0,0,0,0,0,0,0,0,0,0,0,0,0,0,0,0,0,0,0,0,0,0,0,0,0,0,0],"id":20,"left_children":[1,3,5,7,9,11,13,15,17,19,21,23,25,27,29,-1,-1,-1,-1,-1,-1,-1,-1,-1,-1,-1,-1,-1,-1,-1,-1],"loss_changes":[1.9678589E2,4.1322784E1,5.604081E1,1.036837E1,2.1010178E1,2.0833155E1,1.58541565E1,7.330946E0,1.5911705E1,4.9799595E0,1.7123539E1,1.0290348E1,1.6041458E1,1.0565216E1,6.783615E0,0E0,0E0,0E0,0E0,0E0,0E0,0E0,0E0,0E0,0E0,0E0,0E0,0E0,0E0,0E0,0E0],"parents":[2147483647,0,0,1,1,2,2,3,3,4,4,5,5,6,6,7,7,8,8,9,9,10,10,11,11,12,12,13,13,14,14],"right_children":[2,4,6,8,10,12,14,16,18,20,22,24,26,28,30,-1,-1,-1,-1,-1,-1,-1,-1,-1,-1,-1,-1,-1,-1,-1,-1],"split_conditions":[3.5E0,9E0,4.66E1,2.5E-1,1.2E0,2E0,7.86E1,9.7E0,7E0,6E-1,2.23E1,5.3333335E0,5.78E1,2.2E0,4.5E0,-1.7647412E-2,1.2236942E-1,-7.587501E-2,-3.2230202E-2,1.2039551E-2,-1.1761507E-1,-2.5246426E-2,-5.4713734E-3,4.5096457E-2,-6.9681145E-2,2.9716958E-4,-6.2138807E-2,-8.764321E-2,2.0712307E-2,7.704524E-2,3.742489E-2],"split_indices":[7,1,2,6,8,6,2,2,0,6,2,7,1,6,5,0,0,0,0,0,0,0,0,0,0,0,0,0,0,0,0],"split_type":[0,0,0,0,0,0,0,0,0,0,0,0,0,0,0,0,0,0,0,0,0,0,0,0,0,0,0,0,0,0,0],"sum_hessian":[6.5455366E3,2.2011907E3,4.344346E3,3.9055066E2,1.81064E3,2.293089E3,2.0512568E3,3.4381714E1,3.5616898E2,2.7709656E1,1.7829304E3,1.4109842E2,2.1519907E3,1.6825997E3,3.6865726E2,3.1150036E1,3.2316768E0,2.1683287E2,1.3933609E2,3.152116E0,2.4557539E1,1.00824164E3,7.746887E2,1.3367957E2,7.4188576E0,2.1110225E3,4.096832E1,8.082121E0,1.6745176E3,5.0565285E1,3.1809198E2],"tree_param":{"num_deleted":"0","num_feature":"9","num_nodes":"31","size_leaf_vector":"1"}},{"base_weights":[-7.0913974E-4,-2.0220149E-1,1.2302039E-1,-4.7278702E-1,-1.5021193E-1,3.4872115E-2,2.4306409E-1,5.071127E-2,-5.4819864E-1,-2.3102748E-1,-4.4716842E-2,7.46925E-1,2.504836E-2,1.3481186E-1,3.1149757E-1,-2.8178876E-2,1.3644621E-1,-7.35253E-2,-3.647162E-2,-1.813504E-2,-6.3133374E-2,-3.6130727E-3,-1.3895993E-1,1.0019547E-1,-7.647824E-2,-1.19530775E-1,3.3563839E-3,9.909373E-2,1.2190219E-2,3.162503E-2,-8.5194275E-2],"categories":[],"categories_nodes":[],"categories_segments":[],"categories_sizes":[],"default_left":[0,0,0,0,0,0,0,0,0,0,0,0,0,0,0,0,0,0,0,0,0,0,0,0,0,0,0,0,0,0,0],"id":21,"left_children":[1,3,5,7,9,11,13,15,17,19,21,23,25,27,29,-1,-1,-1,-1,-1,-1,-1,-1,-1,-1,-1,-1,-1,-1,-1,-1],"loss_changes":[1.6182547E2,3.4668907E1,4.2546207E1,1.5721985E1,1.7662922E1,1.6209778E1,1.2570663E1,2.2650196E1,1.1660934E1,2.3222427E1,1.0347227E1,1.2924879E1,2.3832027E1,7.186904E0,6.0331955E0,0E0,0E0,0E0,0E0,0E0,0E0,0E0,0E0,0E0,0E0,0E0,0E0,0E0,0E0,0E0,0E0],"parents":[2147483647,0,0,1,1,2,2,3,3,4,4,5,5,6,6,7,7,8,8,9,9,10,10,11,11,12,12,13,13,14,14],"right_children":[2,4,6,8,10,12,14,16,18,20,22,24,26,28,30,-1,-1,-1,-1,-1,-1,-1,-1,-1,-1,-1,-1,-1,-1,-1,-1],"split_conditions":[4E0,1.6666666E0,6.6E0,5E-1,2.23E1,1.75E0,3.3333334E-1,1.38E1,8.666667E0,2.6E0,3.5E0,2.7333334E1,8.666667E0,1.5333333E1,1.4666667E1,-2.8178876E-2,1.3644621E-1,-7.35253E-2,-3.647162E-2,-1.813504E-2,-6.3133374E-2,-3.6130727E-3,-1.3895993E-1,1.0019547E-1,-7.647824E-2,-1.19530775E-1,3.3563839E-3,9.909373E-2,1.2190219E-2,3.162503E-2,-8.5194275E-2],"split_indices":[8,8,8,6,2,6,4,2,0,6,6,1,0,0,7,0,0,0,0,0,0,0,0,0,0,0,0,0,0,0,0],"split_type":[0,0,0,0,0,0,0,0,0,0,0,0,0,0,0,0,0,0,0,0,0,0,0,0,0,0,0,0,0,0,0],"sum_hessian":[6.4890527E3,2.468496E3,4.0205564E3,3.96544E2,2.0719521E3,2.319001E3,1.7015554E3,4.9972015E1,3.46572E2,1.1725323E3,8.994198E2,3.0537348E1,2.2884636E3,6.601927E2,1.0413628E3,4.0505817E1,9.466197E0,1.7012643E2,1.7644556E2,1.0443801E3,1.2815216E2,8.9473444E2,4.6853776E0,2.641779E1,4.119559E0,1.4892172E1,2.2735715E3,8.681867E0,6.5151086E2,1.0378512E3,3.511511E0],"tree_param":{"num_deleted":"0","num_feature":"9","num_nodes":"31","size_leaf_vector":"1"}},{"base_weights":[-7.456261E-4,-1.3004439E-1,1.6388603E-1,-3.8501132E-1,-7.975176E-2,1.1502649E-1,3.169688E-1,-5.988492E-1,-2.6172787E-1,-8.883731E-2,6.209382E-1,-8.293589E-1,1.2039689E-1,-2.1717487E-1,3.241358E-1,8.321338E-3,-7.060216E-2,-1.3988492E-2,-7.420322E-2,1.5948793E-2,-1.1106844E-2,-1.2043356E-1,7.395398E-2,-1.7347698E-1,9.228582E-2,2.6497329E-2,9.49142E-3,-2.5292024E-2,3.403413E-2],"categories":[],"categories_nodes":[],"categories_segments":[],"categories_sizes":[],"default_left":[0,0,0,0,0,0,0,0,0,0,0,0,0,0,0,0,0,0,0,0,0,0,0,0,0,0,0,0,0],"id":22,"left_children":[1,3,5,7,9,11,13,15,17,19,21,23,25,-1,27,-1,-1,-1,-1,-1,-1,-1,-1,-1,-1,-1,-1,-1,-1],"loss_changes":[1.3706847E2,4.62166E1,2.1149864E1,1.5501106E1,1.9240593E1,1.0997993E1,1.291787E1,1.5878975E1,2.2047579E1,1.644666E1,9.268839E0,2.1078411E1,7.8499107E0,0E0,6.4793777E0,0E0,0E0,0E0,0E0,0E0,0E0,0E0,0E0,0E0,0E0,0E0,0E0,0E0,0E0],"parents":[2147483647,0,0,1,1,2,2,3,3,4,4,5,5,6,6,7,7,8,8,9,9,10,10,11,11,12,12,14,14],"right_children":[2,4,6,8,10,12,14,16,18,20,22,24,26,-1,28,-1,-1,-1,-1,-1,-1,-1,-1,-1,-1,-1,-1,-1,-1],"split_conditions":[3.85E1,2E0,8.4E0,1.02E1,6.1E1,2.06E1,3E0,1.25E0,1.98E1,1.25E0,4E0,2.5E0,3.7E1,-2.1717487E-1,3.9333332E1,8.321338E-3,-7.060216E-2,-1.3988492E-2,-7.420322E-2,1.5948793E-2,-1.1106844E-2,-1.2043356E-1,7.395398E-2,-1.7347698E-1,9.228582E-2,2.6497329E-2,9.49142E-3,-2.5292024E-2,3.403413E-2],"split_indices":[2,7,8,2,0,1,5,2,1,6,8,5,1,0,0,0,0,0,0,0,0,0,0,0,0,0,0,0,0],"split_type":[0,0,0,0,0,0,0,0,0,0,0,0,0,0,0,0,0,0,0,0,0,0,0,0,0,0,0,0,0],"sum_hessian":[6.4371685E3,3.6056025E3,2.8315657E3,5.9293976E2,3.0126628E3,2.1478018E3,6.837641E2,2.1542418E2,3.7751556E2,2.974961E3,3.7701828E1,1.12771845E1,2.1365244E3,1.0961925E0,6.826679E2,2.9283411E1,1.8614078E2,3.0215622E2,7.535934E1,2.4393988E2,2.731021E3,1.7417585E0,3.5960068E1,7.441795E0,3.8353894E0,3.1874152E2,1.817783E3,1.8248695E1,6.6441925E2],"tree_param":{"num_deleted":"0","num_feature":"9","num_nodes":"29","size_leaf_vector":"1"}},{"base_weights":[-7.7710726E-4,-1.940517E-1,9.5493436E-2,-4.6309584E-1,-1.3944507E-1,4.133279E-2,2.4205975E-1,-4.7404578E-1,1.6604409E-1,-9.744541E-1,-1.2705122E-1,9.715921E-1,3.65412E-2,-1.9668064E-1,2.5974584E-1,3.599885E-4,-5.2411612E-2,1.4513415E-2,-1.13398515E-1,4.271185E-2,-1.4140459E-2,1.9394915E-1,3.6907252E-2,-1.9664662E-3,1.0131103E-2,-6.9663875E-2,2.3934742E-2,-1.6730095E-1,2.6404873E-2],"categories":[],"categories_nodes":[],"categories_segments":[],"categories_sizes":[],"default_left":[0,0,0,0,0,0,0,0,0,0,0,0,0,0,0,0,0,0,0,0,0,0,0,0,0,0,0,0,0],"id":23,"left_children":[1,3,5,7,9,11,13,15,-1,17,19,21,23,25,27,-1,-1,-1,-1,-1,-1,-1,-1,-1,-1,-1,-1,-1,-1],"loss_changes":[1.1901262E2,3.1179695E1,3.3882355E1,9.120491E0,1.8186565E1,1.3866063E1,8.988747E0,8.547592E0,0E0,4.759693E0,1.3937029E1,8.581609E0,1.130122E1,1.0020357E1,9.653168E0,0E0,0E0,0E0,0E0,0E0,0E0,0E0,0E0,0E0,0E0,0E0,0E0,0E0,0E0],"parents":[2147483647,0,0,1,1,2,2,3,3,4,4,5,5,6,6,7,7,9,9,10,10,11,11,12,12,13,13,14,14],"right_children":[2,4,6,8,10,12,14,16,-1,18,20,22,24,26,28,-1,-1,-1,-1,-1,-1,-1,-1,-1,-1,-1,-1,-1,-1],"split_conditions":[3.5E0,9E0,7.25E0,1.5E1,1.2E0,1.2E0,3.5E0,2.5E-1,1.6604409E-1,6E-1,5E-1,4E0,5.4E0,5.56E1,2.8666666E1,3.599885E-4,-5.2411612E-2,1.4513415E-2,-1.13398515E-1,4.271185E-2,-1.4140459E-2,1.9394915E-1,3.6907252E-2,-1.9664662E-3,1.0131103E-2,-6.9663875E-2,2.3934742E-2,-1.6730095E-1,2.6404873E-2],"split_indices":[7,1,8,0,8,6,5,6,0,6,5,7,8,1,0,0,0,0,0,0,0,0,0,0,0,0,0,0,0],"split_type":[0,0,0,0,0,0,0,0,0,0,0,0,0,0,0,0,0,0,0,0,0,0,0,0,0,0,0,0,0],"sum_hessian":[6.394245E3,2.1256777E3,4.268567E3,3.57384E2,1.7682938E3,3.1177478E3,1.1508193E3,3.563234E2,1.0606041E0,2.4727196E1,1.7435667E3,1.4942673E1,3.1028052E3,4.4200974E1,1.1066183E3,3.3896442E1,3.2242694E2,3.0952187E0,2.1631977E1,4.3293365E1,1.7002732E3,4.8816795E0,1.0060993E1,1.6616003E3,1.4412047E3,2.0312538E1,2.3888435E1,1.5967206E0,1.1050216E3],"tree_param":{"num_deleted":"0","num_feature":"9","num_nodes":"29","size_leaf_vector":"1"}},{"base_weights":[-7.299234E-4,-1.8552643E-1,8.408075E-2,-4.5614704E-1,-1.4977682E-1,4.1142102E-2,2.4928954E-1,-1.7881896E-1,-7.0703834E-1,-1.3370864E-1,-5.8717453E-1,-1.306354E-1,4.5517895E-2,2.0045793E-1,3.850364E-1,-6.0977407E-2,5.612887E-2,-2.100311E-2,-1.01859294E-1,-4.800951E-2,-1.1001813E-2,-1.1108595E-1,-1.3201005E-2,1.3367656E-1,4.278223E-3,2.12308E-2,-1.7599799E-1,-4.3001644E-2,4.2648427E-2],"categories":[],"categories_nodes":[],"categories_segments":[],"categories_sizes":[],"default_left":[0,0,0,0,0,0,0,0,0,0,0,0,0,0,0,0,0,0,0,0,0,0,0,0,0,0,0,0,0],"id":24,"left_children":[1,3,5,7,9,11,13,15,17,19,21,-1,23,25,27,-1,-1,-1,-1,-1,-1,-1,-1,-1,-1,-1,-1,-1,-1],"loss_changes":[9.956304E1,1.9264946E1,3.0878351E1,1.6064266E1,1.2337906E1,2.0444607E1,5.8757286E0,3.6021233E1,1.8651081E1,1.3941452E1,1.4704603E1,0E0,1.2119133E1,1.5765528E1,8.17284E0,0E0,0E0,0E0,0E0,0E0,0E0,0E0,0E0,0E0,0E0,0E0,0E0,0E0,0E0],"parents":[2147483647,0,0,1,1,2,2,3,3,4,4,5,5,6,6,7,7,8,8,9,9,10,10,12,12,13,13,14,14],"right_children":[2,4,6,8,10,12,14,16,18,20,22,-1,24,26,28,-1,-1,-1,-1,-1,-1,-1,-1,-1,-1,-1,-1,-1,-1],"split_conditions":[2.49E1,1.5E0,6.3E1,1E0,6.666667E-1,5.6666665E0,7E0,1.03E1,7.2E0,7E0,3.2E0,-1.306354E-1,6.3333335E0,1.15E1,6.64E1,-6.0977407E-2,5.612887E-2,-2.100311E-2,-1.01859294E-1,-4.800951E-2,-1.1001813E-2,-1.1108595E-1,-1.3201005E-2,1.3367656E-1,4.278223E-3,2.12308E-2,-1.7599799E-1,-4.3001644E-2,4.2648427E-2],"split_indices":[2,8,2,5,3,0,5,2,1,1,8,0,0,7,2,0,0,0,0,0,0,0,0,0,0,0,0,0,0],"split_type":[0,0,0,0,0,0,0,0,0,0,0,0,0,0,0,0,0,0,0,0,0,0,0,0,0,0,0,0,0],"sum_hessian":[6.3506396E3,1.9973552E3,4.3532847E3,2.3169449E2,1.7656608E3,3.4562388E3,8.970459E2,1.1086273E2,1.20831764E2,1.7043555E3,6.130524E1,1.0224202E1,3.4460146E3,6.615472E2,2.3549872E2,7.017616E1,4.068657E1,4.7203896E1,7.362786E1,1.0787123E2,1.5964843E3,2.7837042E1,3.3468197E1,6.254427E0,3.43976E3,6.5845874E2,3.0884233E0,1.0942607E1,2.245561E2],"tree_param":{"num_deleted":"0","num_feature":"9","num_nodes":"29","size_leaf_vector":"1"}},{"base_weights":[-7.9964683E-4,-1.9789566E-1,6.760871E-2,-2.568078E-1,-1.4613273E-2,-1.8424448E-2,1.5824011E-1,-2.6819944E-1,7.15484E-1,1.077907E-1,-5.462635E-1,2.597626E-1,-5.936631E-2,1.3519458E-1,3.6090812E-1,-2.8502552E-2,3.4563E-2,1.3813488E-1,-1.1246195E-1,1.2223443E-1,6.177143E-3,-7.013815E-2,1.1420385E-1,3.6946867E-2,-3.8751573E-3,-7.716199E-2,-4.317763E-3,5.6660216E-2,1.2408174E-2,-1.7261432E-1,3.777261E-2],"categories":[],"categories_nodes":[],"categories_segments":[],"categories_sizes":[],"default_left":[0,0,0,0,0,0,0,0,0,0,0,0,0,0,0,0,0,0,0,0,0,0,0,0,0,0,0,0,0,0,0],"id":25,"left_children":[1,3,5,7,9,11,13,15,17,19,21,23,25,27,29,-1,-1,-1,-1,-1,-1,-1,-1,-1,-1,-1,-1,-1,-1,-1,-1],"loss_changes":[8.512638E1,1.756092E1,3.6547985E1,1.38261795E1,2.5877844E1,2.7410948E1,1.0612064E1,1.2672699E1,1.9354176E1,1.6508654E1,2.028931E1,1.0126247E1,2.4152493E1,9.763016E0,8.81105E0,0E0,0E0,0E0,0E0,0E0,0E0,0E0,0E0,0E0,0E0,0E0,0E0,0E0,0E0,0E0,0E0],"parents":[2147483647,0,0,1,1,2,2,3,3,4,4,5,5,6,6,7,7,8,8,9,9,10,10,11,11,12,12,13,13,14,14],"right_children":[2,4,6,8,10,12,14,16,18,20,22,24,26,28,30,-1,-1,-1,-1,-1,-1,-1,-1,-1,-1,-1,-1,-1,-1,-1,-1],"split_conditions":[3.2E0,3.3333334E-1,4.33E1,3.3333334E-1,5E-1,2.2E0,8.37E1,3.9E1,2.6666667E0,5E-1,3.3333333E0,2.7333334E1,1E1,4E0,6E0,-2.8502552E-2,3.4563E-2,1.3813488E-1,-1.1246195E-1,1.2223443E-1,6.177143E-3,-7.013815E-2,1.1420385E-1,3.6946867E-2,-3.8751573E-3,-7.716199E-2,-4.317763E-3,5.6660216E-2,1.2408174E-2,-1.7261432E-1,3.777261E-2],"split_indices":[8,3,2,4,3,6,2,0,8,5,5,0,0,8,8,0,0,0,0,0,0,0,0,0,0,0,0,0,0,0,0],"split_type":[0,0,0,0,0,0,0,0,0,0,0,0,0,0,0,0,0,0,0,0,0,0,0,0,0,0,0,0,0,0,0],"sum_hessian":[6.31161E3,1.625726E3,4.685884E3,1.2299757E3,3.9575024E2,2.404333E3,2.2815508E3,1.2164476E3,1.3528085E1,3.2233502E2,7.341524E1,3.0777234E2,2.0965605E3,2.0500994E3,2.3145125E2,1.1845139E3,3.1933735E1,1.011658E1,3.4115038E0,1.1767721E1,3.105673E2,6.777295E1,5.6422844E0,2.2488704E2,8.28853E1,4.555628E1,2.0510044E3,5.0228123E1,1.9998713E3,1.037716E0,2.3041353E2],"tree_param":{"num_deleted":"0","num_feature":"9","num_nodes":"31","size_leaf_vector":"1"}},{"base_weights":[-7.625834E-4,-8.8552974E-2,1.2753852E-1,-2.7512342E-1,-4.491625E-2,1.06543325E-1,3.434245E-1,-2.42742E-1,-8.5526717E-1,-1.1693462E-2,-2.987155E-1,5.5347487E-2,1.5771082E-1,5.1524895E-1,2.35971E-1,-4.091022E-2,-1.316868E-2,-1.0820136E-1,4.8570555E-2,-4.276235E-4,-1.2577057E-1,-5.9821498E-2,-4.509749E-3,4.8820287E-2,3.8860855E-3,-3.354646E-2,1.7335104E-2,-2.461263E-3,6.0823508E-2,-5.764115E-2,3.333513E-2],"categories":[],"categories_nodes":[],"categories_segments":[],"categories_sizes":[],"default_left":[0,0,0,0,0,0,0,0,0,0,0,0,0,0,0,0,0,0,0,0,0,0,0,0,0,0,0,0,0,0,0],"id":26,"left_children":[1,3,5,7,9,11,13,15,17,19,21,23,25,27,29,-1,-1,-1,-1,-1,-1,-1,-1,-1,-1,-1,-1,-1,-1,-1,-1],"loss_changes":[7.068978E1,3.03242E1,1.1520096E1,1.3057659E1,2.54703E1,6.0821896E0,4.042492E0,1.2328117E1,1.1755592E1,2.4693388E1,2.6532135E1,8.286295E0,9.023891E0,4.3286514E0,1.1315334E1,0E0,0E0,0E0,0E0,0E0,0E0,0E0,0E0,0E0,0E0,0E0,0E0,0E0,0E0,0E0,0E0],"parents":[2147483647,0,0,1,1,2,2,3,3,4,4,5,5,6,6,7,7,8,8,9,9,10,10,11,11,12,12,13,13,14,14],"right_children":[2,4,6,8,10,12,14,16,18,20,22,24,26,28,30,-1,-1,-1,-1,-1,-1,-1,-1,-1,-1,-1,-1,-1,-1,-1,-1],"split_conditions":[5.4E0,1.42E1,8.37E1,1.7E1,3.5E0,3.3333334E-1,8.7E1,7.5E0,2.18E1,5.92E1,3.5E1,2.6666667E0,3.32E1,2.5E-1,5.6666665E0,-4.091022E-2,-1.316868E-2,-1.0820136E-1,4.8570555E-2,-4.276235E-4,-1.2577057E-1,-5.9821498E-2,-4.509749E-3,4.8820287E-2,3.8860855E-3,-3.354646E-2,1.7335104E-2,-2.461263E-3,6.0823508E-2,-5.764115E-2,3.333513E-2],"split_indices":[8,2,2,1,6,4,0,0,1,1,2,6,1,4,6,0,0,0,0,0,0,0,0,0,0,0,0,0,0,0,0],"split_type":[0,0,0,0,0,0,0,0,0,0,0,0,0,0,0,0,0,0,0,0,0,0,0,0,0,0,0,0,0,0,0],"sum_hessian":[6.273944E3,3.7252444E3,2.5486992E3,7.0513E2,3.0201145E3,2.3241646E3,2.2453458E2,6.691965E2,3.593358E1,2.6714614E3,3.4865314E2,1.162801E3,1.1613635E3,8.493054E1,1.3960403E2,2.66819E2,4.0237747E2,3.0901522E1,5.0320554E0,2.6566504E3,1.4811002E1,1.5924306E2,1.894101E2,4.1614094E1,1.1211869E3,3.5069984E1,1.1262936E3,1.2587131E1,7.2343414E1,1.4416555E1,1.2518748E2],"tree_param":{"num_deleted":"0","num_feature":"9","num_nodes":"31","size_leaf_vector":"1"}},{"base_weights":[-7.354665E-4,-1.4348228E-1,6.919965E-2,-3.7199768E-1,-1.0041549E-1,2.39615E-3,1.3584414E-1,-4.5494178E-1,-4.686983E-2,-9.1324276E-1,-8.973301E-2,1.8568747E-2,-6.076535E-1,-4.0294078E-1,1.50193E-1,-4.307888E-3,-5.863973E-2,2.6121965E-1,-1.5937708E-2,1.46909505E-2,-1.0905732E-1,-8.5393675E-3,-1.8178241E-1,3.3325255E-2,-6.1255874E-4,1.5705176E-1,-7.412735E-2,6.006469E-5,-9.261133E-2,4.011231E-2,1.2445322E-2],"categories":[],"categories_nodes":[],"categories_segments":[],"categories_sizes":[],"default_left":[0,0,0,0,0,0,0,0,0,0,0,0,0,0,0,0,0,0,0,0,0,0,0,0,0,0,0,0,0,0,0],"id":27,"left_children":[1,3,5,7,9,11,13,15,17,19,21,23,25,27,29,-1,-1,-1,-1,-1,-1,-1,-1,-1,-1,-1,-1,-1,-1,-1,-1],"loss_changes":[6.233734E1,2.0169975E1,1.86586E1,8.7494545E0,1.4931471E1,2.0671339E1,1.6280083E1,1.3998196E1,2.0526703E1,4.356348E0,1.2650697E1,1.5861979E1,1.6912687E1,1.1548057E1,1.3154041E1,0E0,0E0,0E0,0E0,0E0,0E0,0E0,0E0,0E0,0E0,0E0,0E0,0E0,0E0,0E0,0E0],"parents":[2147483647,0,0,1,1,2,2,3,3,4,4,5,5,6,6,7,7,8,8,9,9,10,10,11,11,12,12,13,13,14,14],"right_children":[2,4,6,8,10,12,14,16,18,20,22,24,26,28,30,-1,-1,-1,-1,-1,-1,-1,-1,-1,-1,-1,-1,-1,-1,-1,-1],"split_conditions":[3.5E0,9E0,4.4666668E1,8.666667E0,1.2E0,5.3333335E0,4.3333335E0,3E0,5.4E0,6E-1,4.25E0,3.25E0,2.18E1,5.1E1,3.2E0,-4.307888E-3,-5.863973E-2,2.6121965E-1,-1.5937708E-2,1.46909505E-2,-1.0905732E-1,-8.5393675E-3,-1.8178241E-1,3.3325255E-2,-6.1255874E-4,1.5705176E-1,-7.412735E-2,6.006469E-5,-9.261133E-2,4.011231E-2,1.2445322E-2],"split_indices":[7,1,0,0,8,5,7,1,1,6,6,8,2,0,6,0,0,0,0,0,0,0,0,0,0,0,0,0,0,0,0],"split_type":[0,0,0,0,0,0,0,0,0,0,0,0,0,0,0,0,0,0,0,0,0,0,0,0,0,0,0,0,0,0,0],"sum_hessian":[6.2423457E3,2.052293E3,4.1900527E3,3.2423608E2,1.7280569E3,2.0930476E3,2.0970051E3,2.5801422E2,6.622186E1,2.1320171E1,1.7067367E3,2.0399377E3,5.310979E1,5.369593E1,2.0433093E3,6.2747604E1,1.9526662E2,1.7862599E0,6.44356E1,3.0797489E0,1.8240423E1,1.7035084E3,3.2281952E0,1.4752377E2,1.8924141E3,2.4481592E0,5.0661633E1,3.087771E1,2.2818218E1,1.8874101E2,1.8545682E3],"tree_param":{"num_deleted":"0","num_feature":"9","num_nodes":"31","size_leaf_vector":"1"}},{"base_weights":[-7.156506E-4,-1.1991371E-1,7.08339E-2,-3.1835616E-1,-8.6414106E-2,3.763509E-2,1.8875228E-1,-2.654195E-1,-1.11291505E-1,1.4301802E-1,-1.24327764E-1,3.712556E-1,2.4696464E-2,-1.4282876E-1,1.9265729E-1,-4.4296667E-2,-5.06206E-3,-7.91121E-2,1.8972518E-2,-3.6028504E-2,-7.277142E-3,1.5895316E-1,2.8939575E-2,-1.6222252E-2,5.895968E-3,3.956203E-2,1.6043581E-2],"categories":[],"categories_nodes":[],"categories_segments":[],"categories_sizes":[],"default_left":[0,0,0,0,0,0,0,0,0,0,0,0,0,0,0,0,0,0,0,0,0,0,0,0,0,0,0],"id":28,"left_children":[1,3,5,7,9,11,13,15,-1,17,19,21,23,-1,25,-1,-1,-1,-1,-1,-1,-1,-1,-1,-1,-1,-1],"loss_changes":[5.3027008E1,1.5476452E1,1.5203125E1,1.3857021E1,1.7386665E1,1.3083235E1,5.663534E0,1.2058125E1,0E0,1.2525288E1,2.0826094E1,1.0825799E1,1.871615E1,0E0,5.509384E0,0E0,0E0,0E0,0E0,0E0,0E0,0E0,0E0,0E0,0E0,0E0,0E0],"parents":[2147483647,0,0,1,1,2,2,3,3,4,4,5,5,6,6,7,7,9,9,10,10,11,11,12,12,14,14],"right_children":[2,4,6,8,10,12,14,16,-1,18,20,22,24,-1,26,-1,-1,-1,-1,-1,-1,-1,-1,-1,-1,-1,-1],"split_conditions":[4E0,1.6666666E0,6.3E1,4E-1,1.25E0,2.2E0,4.25E0,9.2E0,-1.11291505E-1,1.3333334E0,1.45E1,3E0,2.85E1,-1.4282876E-1,6.3333335E0,-4.4296667E-2,-5.06206E-3,-7.91121E-2,1.8972518E-2,-3.6028504E-2,-7.277142E-3,1.5895316E-1,2.8939575E-2,-1.6222252E-2,5.895968E-3,3.956203E-2,1.6043581E-2],"split_indices":[8,8,2,4,6,6,8,1,0,0,2,7,1,0,7,0,0,0,0,0,0,0,0,0,0,0,0],"split_type":[0,0,0,0,0,0,0,0,0,0,0,0,0,0,0,0,0,0,0,0,0,0,0,0,0,0,0],"sum_hessian":[6.2155786E3,2.3312139E3,3.8843647E3,3.3547128E2,1.9957427E3,3.0320413E3,8.5232355E2,3.1576764E2,1.970364E1,2.826332E2,1.7131095E3,1.12165955E2,2.9198752E3,1.1745937E0,8.511489E2,1.7229274E2,1.434749E2,1.269983E1,2.6993338E2,3.061174E2,1.4069921E3,5.9026284E0,1.0626333E2,4.5173776E2,2.4681375E3,1.1506658E2,7.3608234E2],"tree_param":{"num_deleted":"0","num_feature":"9","num_nodes":"27","size_leaf_vector":"1"}},{"base_weights":[-7.2190585E-4,-1.4678197E-1,4.885474E-2,-2.0033103E-1,1.5933784E-2,-1.30610075E-2,1.15574524E-1,-2.1116234E-1,6.638864E-1,1.2526686E-1,-4.7904876E-1,2.305928E-1,-4.923991E-2,5.3087807E-1,1.05809644E-1,-2.2667991E-2,3.2772608E-2,1.2378973E-1,-1.0706401E-1,1.1211302E-1,8.258554E-3,-8.121192E-2,2.8630277E-2,-1.09997325E-1,2.5349353E-2,-7.054638E-2,-3.5008446E-3,6.982749E-2,-1.24518655E-1,7.3344335E-3,2.1733792E-2],"categories":[],"categories_nodes":[],"categories_segments":[],"categories_sizes":[],"default_left":[0,0,0,0,0,0,0,0,0,0,0,0,0,0,0,0,0,0,0,0,0,0,0,0,0,0,0,0,0,0,0],"id":29,"left_children":[1,3,5,7,9,11,13,15,17,19,21,23,25,27,29,-1,-1,-1,-1,-1,-1,-1,-1,-1,-1,-1,-1,-1,-1,-1,-1],"loss_changes":[4.4794155E1,1.3662254E1,1.9080296E1,1.1181335E1,2.1116299E1,2.1135548E1,8.959276E0,9.822075E0,1.6102114E1,1.3486887E1,1.8229593E1,9.724678E0,1.946923E1,1.597887E1,7.852995E0,0E0,0E0,0E0,0E0,0E0,0E0,0E0,0E0,0E0,0E0,0E0,0E0,0E0,0E0,0E0,0E0],"parents":[2147483647,0,0,1,1,2,2,3,3,4,4,5,5,6,6,7,7,8,8,9,9,10,10,11,11,12,12,13,13,14,14],"right_children":[2,4,6,8,10,12,14,16,18,20,22,24,26,28,30,-1,-1,-1,-1,-1,-1,-1,-1,-1,-1,-1,-1,-1,-1,-1,-1],"split_conditions":[3.2E0,3.3333334E-1,4.33E1,3.3333334E-1,5E-1,2.2E0,4E0,3.9E1,2.6666667E0,5E-1,3.5666668E1,2E0,1E1,5.28E1,8.75E0,-2.2667991E-2,3.2772608E-2,1.2378973E-1,-1.0706401E-1,1.1211302E-1,8.258554E-3,-8.121192E-2,2.8630277E-2,-1.09997325E-1,2.5349353E-2,-7.054638E-2,-3.5008446E-3,6.982749E-2,-1.24518655E-1,7.3344335E-3,2.1733792E-2],"split_indices":[8,3,2,4,3,6,8,0,8,5,0,7,0,1,8,0,0,0,0,0,0,0,0,0,0,0,0,0,0,0,0],"split_type":[0,0,0,0,0,0,0,0,0,0,0,0,0,0,0,0,0,0,0,0,0,0,0,0,0,0,0,0,0,0,0],"sum_hessian":[6.1840503E3,1.5666143E3,4.617436E3,1.1785328E3,3.8808133E2,2.3953567E3,2.222079E3,1.1646914E3,1.3841525E1,3.1848126E2,6.9600075E1,3.089952E2,2.0863616E3,4.982073E1,2.1722585E3,1.1326554E3,3.203602E1,1.0614999E1,3.2265263E0,1.2050276E1,3.06431E2,4.8452923E1,2.1147152E1,4.432426E0,3.0456277E2,4.325531E1,2.0431063E3,4.6084072E1,3.736653E0,1.6837772E3,4.884813E2],"tree_param":{"num_deleted":"0","num_feature":"9","num_nodes":"31","size_leaf_vector":"1"}},{"base_weights":[-7.1598665E-4,-1.0159224E-1,5.9478283E-2,-2.9065064E-1,-7.210061E-2,-2.0022339E-3,1.0782389E-1,1.5666534E-1,-4.2641133E-1,-4.995784E-2,-4.0561536E-1,1.7877748E-2,-8.547415E-1,-1.7604907E-1,1.1130082E-1,-5.4421683E-4,1.0811037E-1,-5.3147115E-2,6.9850534E-3,-9.04081E-3,9.046539E-3,7.428638E-2,-5.66175E-2,6.223893E-2,6.235565E-4,1.4340414E-1,-1.0537733E-1,2.8282562E-2,8.361006E-3],"categories":[],"categories_nodes":[],"categories_segments":[],"categories_sizes":[],"default_left":[0,0,0,0,0,0,0,0,0,0,0,0,0,0,0,0,0,0,0,0,0,0,0,0,0,0,0,0,0],"id":30,"left_children":[1,3,5,7,9,11,13,15,17,19,21,23,25,-1,27,-1,-1,-1,-1,-1,-1,-1,-1,-1,-1,-1,-1,-1,-1],"loss_changes":[3.7387688E1,1.2808783E1,1.1462018E1,1.8903206E1,1.4689482E1,2.8808687E1,1.4218872E1,1.093826E1,1.2457523E1,1.0624317E1,2.3262125E1,1.1684318E1,1.9147505E1,0E0,1.0214882E1,0E0,0E0,0E0,0E0,0E0,0E0,0E0,0E0,0E0,0E0,0E0,0E0,0E0,0E0],"parents":[2147483647,0,0,1,1,2,2,3,3,4,4,5,5,6,6,7,7,8,8,9,9,10,10,11,11,12,12,14,14],"right_children":[2,4,6,8,10,12,14,16,18,20,22,24,26,-1,28,-1,-1,-1,-1,-1,-1,-1,-1,-1,-1,-1,-1,-1,-1],"split_conditions":[4E0,1.5E0,4.2333332E1,5E-1,3E0,5.3333335E0,3.3333333E0,9.333333E0,1.3333334E0,3.5E0,2.3333333E0,1.75E0,2.18E1,-1.7604907E-1,4.24E1,-5.4421683E-4,1.0811037E-1,-5.3147115E-2,6.9850534E-3,-9.04081E-3,9.046539E-3,7.428638E-2,-5.66175E-2,6.223893E-2,6.235565E-4,1.4340414E-1,-1.0537733E-1,2.8282562E-2,8.361006E-3],"split_indices":[8,7,0,5,6,5,7,0,5,7,5,6,2,0,1,0,0,0,0,0,0,0,0,0,0,0,0,0,0],"split_type":[0,0,0,0,0,0,0,0,0,0,0,0,0,0,0,0,0,0,0,0,0,0,0,0,0,0,0,0,0],"sum_hessian":[6.1552227E3,2.3000342E3,3.8551882E3,3.091769E2,1.9908573E3,1.6974812E3,2.157707E3,7.195138E1,2.3722552E2,1.8679873E3,1.22869934E2,1.659766E3,3.771523E1,3.0693407E0,2.1546377E3,6.206237E1,9.889009E0,1.9572015E2,4.1505363E1,1.4505101E3,4.174772E2,1.4625728E1,1.082442E2,3.0369942E1,1.629396E3,2.5208948E0,3.5194336E1,2.9821176E2,1.856426E3],"tree_param":{"num_deleted":"0","num_feature":"9","num_nodes":"29","size_leaf_vector":"1"}},{"base_weights":[-6.7740044E-4,-6.096149E-2,8.766976E-2,-3.7642192E-2,-2.826319E-1,7.027588E-2,2.7513048E-1,-1.5569437E-1,1.7989404E-2,-5.4640174E-1,-6.0340177E-2,2.4273035E-1,5.0563343E-2,4.4832474E-1,1.6902043E-1,-1.9436873E-2,7.2367857E-3,2.687873E-3,-1.3618329E-1,-6.969663E-2,6.819718E-2,-1.6279906E-2,4.4139143E-2,1.6486028E-2,9.88506E-2,-8.380661E-2,5.707122E-3,4.9743365E-2,-5.1717836E-2,-5.6438394E-2,2.6408467E-2],"categories":[],"categories_nodes":[],"categories_segments":[],"categories_sizes":[],"default_left":[0,0,0,0,0,0,0,0,0,0,0,0,0,0,0,0,0,0,0,0,0,0,0,0,0,0,0,0,0,0,0],"id":31,"left_children":[1,3,5,7,9,11,13,15,17,19,21,23,25,27,29,-1,-1,-1,-1,-1,-1,-1,-1,-1,-1,-1,-1,-1,-1,-1,-1],"loss_changes":[3.2669228E1,1.8836632E1,8.092955E0,2.1676474E1,2.0306936E1,7.731888E0,3.8001146E0,9.338411E0,2.7560965E1,2.9794083E1,9.806975E0,1.3392377E1,1.1877739E1,4.0276117E0,9.378923E0,0E0,0E0,0E0,0E0,0E0,0E0,0E0,0E0,0E0,0E0,0E0,0E0,0E0,0E0,0E0,0E0],"parents":[2147483647,0,0,1,1,2,2,3,3,4,4,5,5,6,6,7,7,8,8,9,9,10,10,11,11,12,12,13,13,14,14],"right_children":[2,4,6,8,10,12,14,16,18,20,22,24,26,28,30,-1,-1,-1,-1,-1,-1,-1,-1,-1,-1,-1,-1,-1,-1,-1,-1],"split_conditions":[5.4E0,3.5E0,8.37E1,2.5E0,3.5E1,2.9333334E1,8.7E1,2.4E1,5.92E1,6E-1,5E0,2.8666666E1,2.85E1,1.2333333E1,5.6666665E0,-1.9436873E-2,7.2367857E-3,2.687873E-3,-1.3618329E-1,-6.969663E-2,6.819718E-2,-1.6279906E-2,4.4139143E-2,1.6486028E-2,9.88506E-2,-8.380661E-2,5.707122E-3,4.9743365E-2,-5.1717836E-2,-5.6438394E-2,2.6408467E-2],"split_indices":[8,6,2,7,2,0,0,1,1,4,5,0,1,7,6,0,0,0,0,0,0,0,0,0,0,0,0,0,0,0,0],"split_type":[0,0,0,0,0,0,0,0,0,0,0,0,0,0,0,0,0,0,0,0,0,0,0,0,0,0,0,0,0,0,0],"sum_hessian":[6.131994E3,3.6450723E3,2.4869216E3,3.2991753E3,3.45897E2,2.2770193E3,2.0990242E2,1.0561627E3,2.2430125E3,1.575231E2,1.8837389E2,2.3241663E2,2.0446027E3,7.8518456E1,1.3138397E2,9.031551E2,1.5300763E2,2.229629E3,1.33835745E1,1.4070872E2,1.6814373E1,1.5699033E2,3.1383558E1,2.1154884E2,2.086779E1,1.3935816E1,2.0306669E3,7.517936E1,3.3390927E0,1.4509415E1,1.1687455E2],"tree_param":{"num_deleted":"0","num_feature":"9","num_nodes":"31","size_leaf_vector":"1"}},{"base_weights":[-6.2858115E-4,-1.0910335E-1,4.091669E-2,-9.4644554E-2,-7.543411E-1,2.4610378E-2,1.9105142E-1,-2.8099525E-1,-5.779397E-2,4.529185E-1,-9.535802E-1,-7.277107E-1,2.7638737E-2,6.8109053E-1,1.4896443E-1,3.0891096E-2,-3.7968982E-2,1.3650573E-2,-1.0622355E-2,1.267399E-1,-8.632344E-2,-1.1990783E-1,4.919719E-2,1.4748698E-1,-1.2606834E-1,1.0180975E-2,-2.5321738E-4,7.9996176E-2,-9.9993736E-2,-5.9862765E-3,2.3980876E-2],"categories":[],"categories_nodes":[],"categories_segments":[],"categories_sizes":[],"default_left":[0,0,0,0,0,0,0,0,0,0,0,0,0,0,0,0,0,0,0,0,0,0,0,0,0,0,0,0,0,0,0],"id":32,"left_children":[1,3,5,7,9,11,13,15,17,19,21,23,25,27,29,-1,-1,-1,-1,-1,-1,-1,-1,-1,-1,-1,-1,-1,-1,-1,-1],"loss_changes":[2.7541811E1,1.57180195E1,1.0813614E1,1.1359115E1,9.319691E0,9.104158E0,8.824364E0,1.60248E1,1.3040224E1,7.431855E0,1.1959627E1,2.0668003E1,8.889236E0,7.583946E0,7.5994883E0,0E0,0E0,0E0,0E0,0E0,0E0,0E0,0E0,0E0,0E0,0E0,0E0,0E0,0E0,0E0,0E0],"parents":[2147483647,0,0,1,1,2,2,3,3,4,4,5,5,6,6,7,7,8,8,9,9,10,10,11,11,12,12,13,13,14,14],"right_children":[2,4,6,8,10,12,14,16,18,20,22,24,26,28,30,-1,-1,-1,-1,-1,-1,-1,-1,-1,-1,-1,-1,-1,-1,-1,-1],"split_conditions":[2.35E1,2.31E1,7.36E1,1.5E0,1.0333333E1,5.6666665E0,6.3333335E0,5E-1,1.25E0,2E0,5.3333335E0,2.37E1,3.0333334E1,8.7E1,5.6666665E0,3.0891096E-2,-3.7968982E-2,1.3650573E-2,-1.0622355E-2,1.267399E-1,-8.632344E-2,-1.1990783E-1,4.919719E-2,1.4748698E-1,-1.2606834E-1,1.0180975E-2,-2.5321738E-4,7.9996176E-2,-9.9993736E-2,-5.9862765E-3,2.3980876E-2],"split_indices":[2,2,2,7,0,0,7,6,6,6,7,2,0,0,6,0,0,0,0,0,0,0,0,0,0,0,0,0,0,0,0],"split_type":[0,0,0,0,0,0,0,0,0,0,0,0,0,0,0,0,0,0,0,0,0,0,0,0,0,0,0,0,0,0,0],"sum_hessian":[6.1094307E3,1.6914432E3,4.4179873E3,1.6554928E3,3.5950386E1,3.9862048E3,4.3178247E2,2.7222845E2,1.3832644E3,4.9122267E0,3.1038158E1,1.5022161E1,3.9711826E3,3.294975E1,3.988327E2,3.8712204E1,2.3351625E2,2.7562738E2,1.107637E3,3.0573046E0,1.854922E0,2.6677946E1,4.360212E0,2.582477E0,1.2439683E1,1.1475978E3,2.823585E3,3.1263147E1,1.6866002E0,1.2100805E2,2.7782465E2],"tree_param":{"num_deleted":"0","num_feature":"9","num_nodes":"31","size_leaf_vector":"1"}},{"base_weights":[-6.0254964E-4,-5.2687705E-2,7.578849E-2,-3.1060347E-2,-2.5848126E-1,2.4190692E-2,1.22545965E-1,-8.0570005E-2,7.884514E-2,-5.01287E-1,-5.6874804E-2,8.6329836E-1,1.6073601E-2,-8.050963E-1,1.2789178E-1,-7.2863335E-3,-7.580341E-2,9.41545E-3,-1.0882179E-1,-6.409492E-2,6.0973078E-2,-4.8072282E-2,4.5938552E-3,1.0436344E-1,-8.2382625E-3,-1.5119211E-1,2.2816986E-3,4.7262482E-2,-1.8797159E-1,1.207567E-1,1.1891296E-2],"categories":[],"categories_nodes":[],"categories_segments":[],"categories_sizes":[],"default_left":[0,0,0,0,0,0,0,0,0,0,0,0,0,0,0,0,0,0,0,0,0,0,0,0,0,0,0,0,0,0,0],"id":33,"left_children":[1,3,5,7,9,11,13,15,17,19,21,23,25,27,29,-1,-1,-1,-1,-1,-1,-1,-1,-1,-1,-1,-1,-1,-1,-1,-1],"loss_changes":[2.4250227E1,1.61212E1,5.958235E0,1.7856407E1,1.6834795E1,7.9952135E0,6.5297947E0,1.1755268E1,1.8314434E1,2.4620174E1,8.27309E0,2.0040379E0,1.2045072E1,1.1272644E1,1.2356409E1,0E0,0E0,0E0,0E0,0E0,0E0,0E0,0E0,0E0,0E0,0E0,0E0,0E0,0E0,0E0,0E0],"parents":[2147483647,0,0,1,1,2,2,3,3,4,4,5,5,6,6,7,7,8,8,9,9,10,10,11,11,12,12,13,13,14,14],"right_children":[2,4,6,8,10,12,14,16,18,20,22,24,26,28,30,-1,-1,-1,-1,-1,-1,-1,-1,-1,-1,-1,-1,-1,-1,-1,-1],"split_conditions":[5.4E0,3.5E0,3.3333334E-1,4E0,3.5E1,1.94E1,1.9E1,5E0,5.92E1,6E-1,4.3333335E0,2.75E1,2.2E1,3.3333334E-1,2.0666666E1,-7.2863335E-3,-7.580341E-2,9.41545E-3,-1.0882179E-1,-6.409492E-2,6.0973078E-2,-4.8072282E-2,4.5938552E-3,1.0436344E-1,-8.2382625E-3,-1.5119211E-1,2.2816986E-3,4.7262482E-2,-1.8797159E-1,1.207567E-1,1.1891296E-2],"split_indices":[8,6,4,8,2,1,0,7,1,4,7,2,1,3,0,0,0,0,0,0,0,0,0,0,0,0,0,0,0,0,0],"split_type":[0,0,0,0,0,0,0,0,0,0,0,0,0,0,0,0,0,0,0,0,0,0,0,0,0,0,0,0,0,0,0],"sum_hessian":[6.0927964E3,3.6229182E3,2.4698782E3,3.279426E3,3.4349216E2,1.1748857E3,1.2949923E3,2.2611167E3,1.01830927E3,1.5515E2,1.8834215E2,1.0246953E1,1.1646388E3,6.562825E0,1.2884294E3,2.236779E3,2.4337534E1,1.0060316E3,1.227764E1,1.382004E2,1.6949604E1,3.6050068E1,1.5229208E2,8.518871E0,1.7280811E0,4.1364903E0,1.1605023E3,3.254008E0,3.3088174E0,9.525516E0,1.2789039E3],"tree_param":{"num_deleted":"0","num_feature":"9","num_nodes":"31","size_leaf_vector":"1"}},{"base_weights":[-5.9493777E-4,-1.3332789E-1,2.5165405E-2,-1.4736432E-1,5.3290254E-1,1.3253347E-3,1.1669843E-1,-1.339675E-1,-1.17142096E-1,7.4254924E-1,-9.5639065E-2,2.4842755E-1,-8.937239E-3,-2.9167897E-1,1.3413087E-1,-2.765052E-2,-7.1167396E-3,8.960432E-2,-8.7163776E-2,9.547531E-3,1.1424662E-1,-8.050391E-2,-3.949272E-4,-7.202249E-2,1.1885441E-2,2.8732419E-2,8.073236E-3],"categories":[],"categories_nodes":[],"categories_segments":[],"categories_sizes":[],"default_left":[0,0,0,0,0,0,0,0,0,0,0,0,0,0,0,0,0,0,0,0,0,0,0,0,0,0,0],"id":34,"left_children":[1,3,5,7,9,11,13,15,-1,17,-1,19,21,23,25,-1,-1,-1,-1,-1,-1,-1,-1,-1,-1,-1,-1],"loss_changes":[2.0772451E1,9.312304E0,1.1102126E1,1.3120695E1,7.139067E0,1.0240851E1,7.5233173E0,8.541883E0,0E0,5.3926487E0,0E0,2.1911152E1,1.5393846E1,7.71307E0,8.230246E0,0E0,0E0,0E0,0E0,0E0,0E0,0E0,0E0,0E0,0E0,0E0,0E0],"parents":[2147483647,0,0,1,1,2,2,3,3,4,4,5,5,6,6,7,7,9,9,11,11,12,12,13,13,14,14],"right_children":[2,4,6,8,10,12,14,16,-1,18,-1,20,22,24,26,-1,-1,-1,-1,-1,-1,-1,-1,-1,-1,-1,-1],"split_conditions":[1.74E1,4.6666665E0,7.25E0,3.5E0,1.61E1,1.46E1,3.5E0,8E0,-1.17142096E-1,2.225E1,-9.5639065E-2,1.8E1,1.52E1,5.56E1,5E0,-2.765052E-2,-7.1167396E-3,8.960432E-2,-8.7163776E-2,9.547531E-3,1.1424662E-1,-8.050391E-2,-3.949272E-4,-7.202249E-2,1.1885441E-2,2.8732419E-2,8.073236E-3],"split_indices":[2,8,8,5,2,1,5,0,0,1,0,0,1,1,5,0,0,0,0,0,0,0,0,0,0,0,0],"split_type":[0,0,0,0,0,0,0,0,0,0,0,0,0,0,0,0,0,0,0,0,0,0,0,0,0,0,0],"sum_hessian":[6.0731733E3,9.864106E2,5.086763E3,9.6682E2,1.9590582E1,4.0364668E3,1.0502963E3,9.5545154E2,1.1368505E1,1.7612669E1,1.9779134E0,1.600311E2,3.8764355E3,4.2354546E1,1.0079417E3,2.9117264E2,6.642789E2,1.6489561E1,1.1231068E0,1.3759767E2,2.2433435E1,2.3137829E1,3.8532979E3,2.0353575E1,2.200097E1,2.5939392E2,7.485478E2],"tree_param":{"num_deleted":"0","num_feature":"9","num_nodes":"27","size_leaf_vector":"1"}},{"base_weights":[-5.9557485E-4,-9.5076874E-2,3.0752072E-2,-8.413101E-2,-9.37074E-1,2.0544475E-1,1.6489405E-2,-9.91424E-2,8.455684E-1,-1.1861461E0,-8.1541106E-2,5.1766425E-1,1.23172425E-1,-1.6201909E-1,3.9082807E-2,-8.11047E-3,-5.6289703E-2,9.822149E-3,1.3805452E-1,-1.6232353E-1,6.0061633E-4,5.6198146E-2,-1.1126355E-1,6.7356E-2,-4.5889564E-2,-1.5458566E-2,2.9740691E-2,1.24673285E-1,-1.8534277E-2,5.3960104E-2,2.7447368E-3],"categories":[],"categories_nodes":[],"categories_segments":[],"categories_sizes":[],"default_left":[0,0,0,0,0,0,0,0,0,0,0,0,0,0,0,0,0,0,0,0,0,0,0,0,0,0,0,0,0,0,0],"id":35,"left_children":[1,3,5,7,9,11,13,15,17,19,21,23,25,27,29,-1,-1,-1,-1,-1,-1,-1,-1,-1,-1,-1,-1,-1,-1,-1,-1],"loss_changes":[1.7944715E1,1.3832552E1,1.133178E1,2.0894405E1,4.009899E0,8.754796E0,1.6973946E1,1.2237176E1,9.379625E0,7.7490425E0,4.2211823E0,1.1161707E1,1.3258897E1,1.5767652E1,2.17382E1,0E0,0E0,0E0,0E0,0E0,0E0,0E0,0E0,0E0,0E0,0E0,0E0,0E0,0E0,0E0,0E0],"parents":[2147483647,0,0,1,1,2,2,3,3,4,4,5,5,6,6,7,7,8,8,9,9,10,10,11,11,12,12,13,13,14,14],"right_children":[2,4,6,8,10,12,14,16,18,20,22,24,26,28,30,-1,-1,-1,-1,-1,-1,-1,-1,-1,-1,-1,-1,-1,-1,-1,-1],"split_conditions":[3.2E0,4.14E1,2.2E0,4.7333332E1,5.34E1,1.2E1,2.5E1,5E-1,3.35E1,3.3333333E0,6.1666668E1,2.96E1,2E0,2E0,2.58E1,-8.11047E-3,-5.6289703E-2,9.822149E-3,1.3805452E-1,-1.6232353E-1,6.0061633E-4,5.6198146E-2,-1.1126355E-1,6.7356E-2,-4.5889564E-2,-1.5458566E-2,2.9740691E-2,1.24673285E-1,-1.8534277E-2,5.3960104E-2,2.7447368E-3],"split_indices":[8,2,6,0,1,0,1,3,2,7,0,2,5,7,1,0,0,0,0,0,0,0,0,0,0,0,0,0,0,0,0],"split_type":[0,0,0,0,0,0,0,0,0,0,0,0,0,0,0,0,0,0,0,0,0,0,0,0,0,0,0,0,0,0,0],"sum_hessian":[6.0568013E3,1.5084188E3,4.548383E3,1.490147E3,1.827182E1,3.423078E2,4.2060747E3,1.4673478E3,2.2799175E1,1.385249E1,4.4193296E0,7.028553E1,2.7202228E2,4.7185092E2,3.7342239E3,1.4135431E3,5.3804768E1,1.0005451E1,1.2793725E1,9.871584E0,3.9809065E0,3.0011992E0,1.4181305E0,6.0877472E1,9.408061E0,1.04902855E2,1.6711942E2,6.8305616E0,4.6502036E2,8.380566E1,3.6504182E3],"tree_param":{"num_deleted":"0","num_feature":"9","num_nodes":"31","size_leaf_vector":"1"}},{"base_weights":[-5.598349E-4,-3.890545E-2,6.7367636E-2,-4.3339908E-2,6.5206593E-1,-7.9518276E-1,7.41099E-2,-3.317765E-2,-4.3387568E-1,1.0586759E0,-7.241719E-1,-1.0501766E0,3.3590905E-2,4.882401E-1,6.424353E-2,-3.1445348E-3,-1.6837843E-1,1.0526053E-2,-7.8698695E-2,1.1818427E-1,4.7188974E-3,-1.7725693E-1,3.8375285E-2,-1.5316638E-1,-1.1333713E-3,9.653594E-2,-1.3269514E-1,7.068989E-2,-6.82521E-2,6.443315E-2,5.8150087E-3],"categories":[],"categories_nodes":[],"categories_segments":[],"categories_sizes":[],"default_left":[0,0,0,0,0,0,0,0,0,0,0,0,0,0,0,0,0,0,0,0,0,0,0,0,0,0,0,0,0,0,0],"id":36,"left_children":[1,3,5,7,9,11,13,15,17,19,21,23,25,27,29,-1,-1,-1,-1,-1,-1,-1,-1,-1,-1,-1,-1,-1,-1,-1,-1],"loss_changes":[1.5750312E1,1.1870941E1,1.2747455E1,1.5230627E1,1.4593404E1,3.6295319E0,8.818101E0,1.065518E1,1.8613487E1,2.371029E0,7.9155507E0,6.5035963E0,7.5823097E0,1.3345568E1,7.444064E0,0E0,0E0,0E0,0E0,0E0,0E0,0E0,0E0,0E0,0E0,0E0,0E0,0E0,0E0,0E0,0E0],"parents":[2147483647,0,0,1,1,2,2,3,3,4,4,5,5,6,6,7,7,8,8,9,9,10,10,11,11,12,12,13,13,14,14],"right_children":[2,4,6,8,10,12,14,16,18,20,22,24,26,28,30,-1,-1,-1,-1,-1,-1,-1,-1,-1,-1,-1,-1,-1,-1,-1,-1],"split_conditions":[4.33E1,7E1,3.2E0,5.3333335E0,4.17E1,3.3333333E0,4E0,6.04E1,3.43E1,1E0,5E0,5.34E1,4.2E1,5.0666668E1,2.7333334E1,-3.1445348E-3,-1.6837843E-1,1.0526053E-2,-7.8698695E-2,1.1818427E-1,4.7188974E-3,-1.7725693E-1,3.8375285E-2,-1.5316638E-1,-1.1333713E-3,9.653594E-2,-1.3269514E-1,7.068989E-2,-6.82521E-2,6.443315E-2,5.8150087E-3],"split_indices":[2,0,8,5,2,7,8,1,2,3,6,1,0,0,1,0,0,0,0,0,0,0,0,0,0,0,0,0,0,0,0],"split_type":[0,0,0,0,0,0,0,0,0,0,0,0,0,0,0,0,0,0,0,0,0,0,0,0,0,0,0,0,0,0,0],"sum_hessian":[6.0448276E3,3.8639968E3,2.1808306E3,3.8402883E3,2.3708616E1,1.6007603E1,2.164823E3,3.7439507E3,9.6337616E1,1.8479568E1,5.2290483E0,1.2036968E1,3.9706335E0,4.9247017E1,2.115576E3,3.7410435E3,2.907155E0,3.840386E1,5.7933758E1,1.632347E1,2.1560998E0,2.37847E0,2.8505783E0,7.900718E0,4.1362505E0,2.5290625E0,1.441571E0,4.183066E1,7.4163547E0,2.0902924E1,2.094673E3],"tree_param":{"num_deleted":"0","num_feature":"9","num_nodes":"31","size_leaf_vector":"1"}},{"base_weights":[-5.4990913E-4,-1.12973474E-1,2.0993479E-2,-2.4660896E-1,-5.6575403E-2,-5.608465E-1,2.4119066E-2,-2.8505683E-1,1.0121557E0,1.3275677E-1,-1.806105E-1,-7.0660967E-1,1.2069895E-1,2.8491056E-1,1.5955387E-2,1.6476046E-2,-4.141378E-2,2.1737225E-1,-9.180934E-2,2.275052E-2,-4.6673596E-2,1.7982082E-1,-1.9673487E-2,1.4973252E-2,-9.243696E-2,1.4608211E-2,1.0236253E-1,-7.431433E-2,1.9526288E-3],"categories":[],"categories_nodes":[],"categories_segments":[],"categories_sizes":[],"default_left":[0,0,0,0,0,0,0,0,0,0,0,0,0,0,0,0,0,0,0,0,0,0,0,0,0,0,0,0,0],"id":37,"left_children":[1,3,5,7,9,11,13,15,17,19,21,23,-1,25,27,-1,-1,-1,-1,-1,-1,-1,-1,-1,-1,-1,-1,-1,-1],"loss_changes":[1.4619647E1,7.301944E0,9.225704E0,1.4216349E1,1.6084766E1,7.8380775E0,1.072453E1,1.6327837E1,2.1612667E1,1.5514973E1,1.3551598E1,4.92591E0,0E0,1.5531539E1,1.326301E1,0E0,0E0,0E0,0E0,0E0,0E0,0E0,0E0,0E0,0E0,0E0,0E0,0E0,0E0],"parents":[2147483647,0,0,1,1,2,2,3,3,4,4,5,5,6,6,7,7,8,8,9,9,10,10,11,11,13,13,14,14],"right_children":[2,4,6,8,10,12,14,16,18,20,22,24,-1,26,28,-1,-1,-1,-1,-1,-1,-1,-1,-1,-1,-1,-1,-1,-1],"split_conditions":[1.74E1,8E0,1.6E0,1.84E1,1.5E0,1.6666666E0,1.46E1,3E0,1.96E1,1.6E1,5.4E0,5E-1,1.2069895E-1,1.8E1,1.52E1,1.6476046E-2,-4.141378E-2,2.1737225E-1,-9.180934E-2,2.275052E-2,-4.6673596E-2,1.7982082E-1,-1.9673487E-2,1.4973252E-2,-9.243696E-2,1.4608211E-2,1.0236253E-1,-7.431433E-2,1.9526288E-3],"split_indices":[2,0,8,1,5,5,1,1,1,2,1,5,0,0,1,0,0,0,0,0,0,0,0,0,0,0,0,0,0],"split_type":[0,0,0,0,0,0,0,0,0,0,0,0,0,0,0,0,0,0,0,0,0,0,0,0,0,0,0,0,0],"sum_hessian":[6.0342476E3,9.696922E2,5.0645557E3,2.8678387E2,6.829083E2,2.6107502E1,5.0384478E3,2.7903455E2,7.749328E0,2.7027673E2,4.126316E2,2.4673407E1,1.4340965E0,1.5190459E2,4.8865435E3,6.215663E1,2.1687791E2,4.7592287E0,2.9900994E0,2.339258E2,3.635092E1,2.4418445E0,4.1018976E2,5.0655403E0,1.9607866E1,1.2888135E2,2.3023237E1,2.1909605E1,4.864634E3],"tree_param":{"num_deleted":"0","num_feature":"9","num_nodes":"29","size_leaf_vector":"1"}},{"base_weights":[-5.202402E-4,-3.9719213E-2,5.6987766E-2,-1.8993724E-2,-2.3653106E-1,2.2305392E-1,4.325855E-2,-1.4499187E-2,-8.841031E-1,-5.837812E-1,-1.14005916E-1,6.053644E-1,6.410415E-2,-3.3927098E-2,8.030311E-2,-2.5255452E-3,4.4021524E-2,5.265628E-2,-1.2654449E-1,-2.9897342E-2,-1.1754054E-1,1.606579E-1,-1.5859026E-2,7.5948246E-2,-8.069977E-2,-1.5751776E-1,1.2920925E-2,-4.3650366E-2,8.8788377E-4,8.905373E-2,7.399838E-3],"categories":[],"categories_nodes":[],"categories_segments":[],"categories_sizes":[],"default_left":[0,0,0,0,0,0,0,0,0,0,0,0,0,0,0,0,0,0,0,0,0,0,0,0,0,0,0,0,0,0,0],"id":38,"left_children":[1,3,5,7,9,11,13,15,17,19,21,23,25,27,29,-1,-1,-1,-1,-1,-1,-1,-1,-1,-1,-1,-1,-1,-1,-1,-1],"loss_changes":[1.3585974E1,1.4614362E1,5.5600567E0,1.2598962E1,1.4457401E1,1.128228E1,6.4578934E0,1.5798383E1,9.675622E0,1.460972E1,1.9706661E1,1.2495853E1,1.4366891E1,1.2632596E1,7.7281647E0,0E0,0E0,0E0,0E0,0E0,0E0,0E0,0E0,0E0,0E0,0E0,0E0,0E0,0E0,0E0,0E0],"parents":[2147483647,0,0,1,1,2,2,3,3,4,4,5,5,6,6,7,7,8,8,9,9,10,10,11,11,12,12,13,13,14,14],"right_children":[2,4,6,8,10,12,14,16,18,20,22,24,26,28,30,-1,-1,-1,-1,-1,-1,-1,-1,-1,-1,-1,-1,-1,-1,-1,-1],"split_conditions":[5.4E0,3.5E0,5.6E0,5.92E1,2.8666666E1,2.8666666E1,6.6E0,5.04E1,2.3333333E0,4.5E0,2.18E1,4E0,2.88E1,3.16E1,1.7E1,-2.5255452E-3,4.4021524E-2,5.265628E-2,-1.2654449E-1,-2.9897342E-2,-1.1754054E-1,1.606579E-1,-1.5859026E-2,7.5948246E-2,-8.069977E-2,-1.5751776E-1,1.2920925E-2,-4.3650366E-2,8.8788377E-4,8.905373E-2,7.399838E-3],"split_indices":[8,6,8,1,0,0,8,1,5,7,2,5,1,1,0,0,0,0,0,0,0,0,0,0,0,0,0,0,0,0,0],"split_type":[0,0,0,0,0,0,0,0,0,0,0,0,0,0,0,0,0,0,0,0,0,0,0,0,0,0,0,0,0,0,0],"sum_hessian":[6.0248096E3,3.5829119E3,2.441898E3,3.242548E3,3.4036362E2,1.8529965E2,2.2565981E3,3.2268005E3,1.5747569E1,8.7790596E1,2.5257303E2,5.3591457E1,1.3170819E2,7.3183624E2,1.524762E3,3.1531572E3,7.364344E1,3.270067E0,1.2477503E1,6.0278084E1,2.751251E1,5.494548E0,2.4707848E2,4.8735645E1,4.855811E0,4.1450706E0,1.2756312E2,6.945319E1,6.62383E2,1.0690224E1,1.5140718E3],"tree_param":{"num_deleted":"0","num_feature":"9","num_nodes":"31","size_leaf_vector":"1"}},{"base_weights":[-4.90935E-4,-1.9970798E-1,9.936256E-3,-1.4680015E-1,-1.06791474E-1,1.8139069E-1,9.925021E-4,1.7324753E-1,-2.6482692E-1,7.966107E-2,5.3186613E-1,-2.6250216E-1,1.6508525E-2,-2.5882844E-2,8.995271E-2,1.2207464E-1,-3.2782324E-2,-4.6927426E-2,2.0553527E-2,2.8531855E-1,3.004543E-2,-1.653481E-2,-8.085855E-2,5.5311292E-2,1.0418844E-3],"categories":[],"categories_nodes":[],"categories_segments":[],"categories_sizes":[],"default_left":[0,0,0,0,0,0,0,0,0,0,0,0,0,0,0,0,0,0,0,0,0,0,0,0,0],"id":39,"left_children":[1,3,5,7,-1,9,11,13,15,17,19,21,23,-1,-1,-1,-1,-1,-1,-1,-1,-1,-1,-1,-1],"loss_changes":[1.2494764E1,1.3585602E1,8.764778E0,1.0741482E1,0E0,1.0060984E1,2.2218521E1,2.4361555E1,1.9796326E1,1.5353134E1,3.3292778E1,1.59003315E1,1.6765188E1,0E0,0E0,0E0,0E0,0E0,0E0,0E0,0E0,0E0,0E0,0E0,0E0],"parents":[2147483647,0,0,1,1,2,2,3,3,5,5,6,6,7,7,8,8,9,9,10,10,11,11,12,12],"right_children":[2,4,6,8,-1,10,12,14,16,18,20,22,24,-1,-1,-1,-1,-1,-1,-1,-1,-1,-1,-1,-1],"split_conditions":[1.6666666E0,4E-1,1.25E0,6.666667E-1,-1.06791474E-1,3.3333334E-1,1.45E1,6.6E0,3E0,7E0,7.2E0,1.62E1,1.52E1,-2.5882844E-2,8.995271E-2,1.2207464E-1,-3.2782324E-2,-4.6927426E-2,2.0553527E-2,2.8531855E-1,3.004543E-2,-1.653481E-2,-8.085855E-2,5.5311292E-2,1.0418844E-3],"split_indices":[8,4,6,6,0,3,2,1,2,1,2,1,2,0,0,0,0,0,0,0,0,0,0,0,0],"split_type":[0,0,0,0,0,0,0,0,0,0,0,0,0,0,0,0,0,0,0,0,0,0,0,0,0],"sum_hessian":[6.0130254E3,2.9817032E2,5.7148555E3,2.8214566E2,1.6024652E1,2.823743E2,5.432481E3,7.589012E1,2.0625554E2,2.1980159E2,6.2572712E1,3.012197E2,5.131261E3,4.7986042E1,2.7904081E1,7.642915E0,1.9861263E2,4.0491352E1,1.7931024E2,4.645335E0,5.7927376E1,2.5682974E2,4.4389965E1,5.657097E1,5.0746904E3],"tree_param":{"num_deleted":"0","num_feature":"9","num_nodes":"25","size_leaf_vector":"1"}},{"base_weights":[-4.9048645E-4,-5.1594727E-2,3.7660547E-2,-2.722647E-2,-2.874457E-1,-3.598427E-1,4.4864926E-2,-3.711421E-2,5.628236E-1,-1.8115573E-1,-2.165145E-1,-7.3218465E-2,-1.2898743E-1,7.3399687E-1,3.9980162E-2,-3.165481E-3,-1.20691754E-1,-6.562041E-2,8.1938565E-2,-9.024288E-2,-9.662972E-3,-3.9470326E-2,5.5168837E-2,1.5568416E-1,8.957977E-3,-1.3757633E-1,4.1967887E-3],"categories":[],"categories_nodes":[],"categories_segments":[],"categories_sizes":[],"default_left":[0,0,0,0,0,0,0,0,0,0,0,0,0,0,0,0,0,0,0,0,0,0,0,0,0,0,0],"id":40,"left_children":[1,3,5,7,9,11,13,15,17,-1,19,21,-1,23,25,-1,-1,-1,-1,-1,-1,-1,-1,-1,-1,-1,-1],"loss_changes":[1.1714425E1,1.4752352E1,9.868018E0,1.3607769E1,2.5596174E1,1.6259888E1,1.1348003E1,1.459543E1,1.2561161E1,0E0,1.8894968E1,9.852412E0,0E0,1.2444019E1,9.5049925E0,0E0,0E0,0E0,0E0,0E0,0E0,0E0,0E0,0E0,0E0,0E0,0E0],"parents":[2147483647,0,0,1,1,2,2,3,3,4,4,5,5,6,6,7,7,8,8,10,10,11,11,13,13,14,14],"right_children":[2,4,6,8,10,12,14,16,18,-1,20,22,-1,24,26,-1,-1,-1,-1,-1,-1,-1,-1,-1,-1,-1,-1],"split_conditions":[4.3333335E0,3.76E1,1.81E1,4.3666668E1,3.82E1,1.67E1,3.25E0,4.1333332E1,2.53E1,-1.8115573E-1,3.3E1,5E0,-1.2898743E-1,2E0,1.0333333E1,-3.165481E-3,-1.20691754E-1,-6.562041E-2,8.1938565E-2,-9.024288E-2,-9.662972E-3,-3.9470326E-2,5.5168837E-2,1.5568416E-1,8.957977E-3,-1.3757633E-1,4.1967887E-3],"split_indices":[7,1,2,0,1,2,8,0,2,0,2,8,0,6,0,0,0,0,0,0,0,0,0,0,0,0,0],"split_type":[0,0,0,0,0,0,0,0,0,0,0,0,0,0,0,0,0,0,0,0,0,0,0,0,0,0,0],"sum_hessian":[6.006388E3,2.5672039E3,3.4391843E3,2.3278088E3,2.3939508E2,6.035108E1,3.3788333E3,2.2903652E3,3.7443607E1,9.554573E0,2.2984052E2,4.695795E1,1.3393133E1,2.2730988E1,3.3561023E3,2.280748E3,9.617055E0,6.2395167E0,3.1204088E1,3.322396E1,1.9661655E2,3.1249798E1,1.5708152E1,9.361527E0,1.336946E1,3.736417E0,3.352366E3],"tree_param":{"num_deleted":"0","num_feature":"9","num_nodes":"27","size_leaf_vector":"1"}},{"base_weights":[-5.4174126E-4,-3.0091017E-1,5.543298E-3,-2.3170834E-2,-6.365181E-1,-5.4801884E-3,1.342876E-1,-4.8079637E-1,9.5168805E-1,-8.9326344E-2,-1.07027076E-1,-2.705123E-3,-8.606674E-1,5.595401E-1,9.443857E-2,3.2415345E-2,-1.0479653E-1,2.619227E-1,2.1857856E-2,-3.5725363E-2,1.1225207E-1,-1.7095353E-4,-1.8451954E-1,-2.3205213E-1,-5.188925E-3,1.6623218E-2,9.7610556E-2,-7.3818006E-3,2.2347914E-2],"categories":[],"categories_nodes":[],"categories_segments":[],"categories_sizes":[],"default_left":[0,0,0,0,0,0,0,0,0,0,0,0,0,0,0,0,0,0,0,0,0,0,0,0,0,0,0,0,0],"id":41,"left_children":[1,3,5,7,9,11,13,15,17,19,-1,21,23,25,27,-1,-1,-1,-1,-1,-1,-1,-1,-1,-1,-1,-1,-1,-1],"loss_changes":[1.0963081E1,1.1086795E1,8.344426E0,2.9993652E1,1.2695915E1,1.2851828E1,7.805381E0,2.1212997E1,2.569408E1,8.492816E0,0E0,9.902146E0,2.056075E1,6.313942E0,9.248326E0,0E0,0E0,0E0,0E0,0E0,0E0,0E0,0E0,0E0,0E0,0E0,0E0,0E0,0E0],"parents":[2147483647,0,0,1,1,2,2,3,3,4,4,5,5,6,6,7,7,8,8,9,9,11,11,12,12,13,13,14,14],"right_children":[2,4,6,8,10,12,14,16,18,20,-1,22,24,26,28,-1,-1,-1,-1,-1,-1,-1,-1,-1,-1,-1,-1,-1,-1],"split_conditions":[1.3333334E0,1E0,8.75E0,1.05E1,7.2E0,1.07E2,8E0,3.3333334E-1,1.13E1,6.6E0,-1.07027076E-1,7.3333335E0,6.5E0,7.5E0,6.6666665E0,3.2415345E-2,-1.0479653E-1,2.619227E-1,2.1857856E-2,-3.5725363E-2,1.1225207E-1,-1.7095353E-4,-1.8451954E-1,-2.3205213E-1,-5.188925E-3,1.6623218E-2,9.7610556E-2,-7.3818006E-3,2.2347914E-2],"split_indices":[8,5,8,2,1,0,7,5,2,1,0,6,5,7,5,0,0,0,0,0,0,0,0,0,0,0,0,0,0],"split_type":[0,0,0,0,0,0,0,0,0,0,0,0,0,0,0,0,0,0,0,0,0,0,0,0,0,0,0,0,0],"sum_hessian":[5.9962056E3,1.1810053E2,5.878105E3,6.520654E1,5.289399E1,5.4153804E3,4.6272427E2,4.4720375E1,2.0486168E1,2.392183E1,2.8972158E1,5.3988647E3,1.6516045E1,3.8527973E1,4.241963E2,1.8662395E1,2.6057978E1,5.4703927E0,1.5015776E1,2.016807E1,3.7537594E0,5.396949E3,1.9153082E0,5.2216806E0,1.1294364E1,2.0536816E1,1.7991158E1,1.8430635E2,2.3988994E2],"tree_param":{"num_deleted":"0","num_feature":"9","num_nodes":"29","size_leaf_vector":"1"}},{"base_weights":[-5.4209237E-4,-1.2901655E-1,1.25682205E-2,2.4238048E-1,-1.8895341E-1,-1.0044632E-1,1.444509E-2,2.055072E-3,1.0376779E0,-4.464921E-1,-7.9409346E-2,2.1239842E-1,5.410691E-3,-8.181937E-3,1.0192027E-1,-6.701266E-2,1.2004077E-1,3.509184E-2,-6.078863E-2,2.0926185E-3,-5.745225E-2,1.0852496E-2,9.407084E-2,-6.205493E-2,1.4840873E-3],"categories":[],"categories_nodes":[],"categories_segments":[],"categories_sizes":[],"default_left":[0,0,0,0,0,0,0,0,0,0,0,0,0,0,0,0,0,0,0,0,0,0,0,0,0],"id":42,"left_children":[1,3,5,7,9,-1,11,13,15,17,19,21,23,-1,-1,-1,-1,-1,-1,-1,-1,-1,-1,-1,-1],"loss_changes":[1.0091696E1,1.2395686E1,1.0392325E1,1.4816257E1,1.3457195E1,0E0,9.705689E0,5.2482843E0,5.803934E0,1.8553429E1,1.674122E1,1.781813E1,3.06561E1,0E0,0E0,0E0,0E0,0E0,0E0,0E0,0E0,0E0,0E0,0E0,0E0],"parents":[2147483647,0,0,1,1,2,2,3,3,4,4,6,6,7,7,8,8,9,9,10,10,11,11,12,12],"right_children":[2,4,6,8,10,-1,12,14,16,18,20,22,24,-1,-1,-1,-1,-1,-1,-1,-1,-1,-1,-1,-1],"split_conditions":[1.2E1,5E-1,1.2E0,9.4E0,6.6666665E0,-1.0044632E-1,1.44E1,3.3333334E-1,9.4E0,2.6E0,1.12E1,1.9333334E1,1.52E1,-8.181937E-3,1.0192027E-1,-6.701266E-2,1.2004077E-1,3.509184E-2,-6.078863E-2,2.0926185E-3,-5.745225E-2,1.0852496E-2,9.407084E-2,-6.205493E-2,1.4840873E-3],"split_indices":[1,5,8,1,0,0,1,3,2,1,1,0,1,0,0,0,0,0,0,0,0,0,0,0,0],"split_type":[0,0,0,0,0,0,0,0,0,0,0,0,0,0,0,0,0,0,0,0,0,0,0,0,0],"sum_hessian":[5.98952E3,5.537925E2,5.4357275E3,7.6530365E1,4.7726212E2,9.028843E0,5.4266987E3,5.954074E1,1.6989622E1,1.4150565E2,3.3575647E2,2.3587677E2,5.1908223E3,5.5854515E1,3.6862276E0,1.2067783E0,1.5782843E1,2.362177E1,1.1788387E2,2.7997647E2,5.5779984E1,2.0744012E2,2.8436644E1,7.607811E1,5.114744E3],"tree_param":{"num_deleted":"0","num_feature":"9","num_nodes":"25","size_leaf_vector":"1"}},{"base_weights":[-5.678621E-4,-2.8060885E-2,5.249379E-2,-2.1568984E-2,-4.8857567E-1,4.0887243E-1,3.9852083E-2,-2.5992993E-2,5.631728E-1,1.2572525E-1,-5.992884E-1,1.029609E-1,1.1196156E0,-3.7812713E-1,5.769203E-2,-2.6705636E-2,-1.8653714E-3,7.2985694E-2,-1.0584571E-1,-9.431842E-2,1.7630627E-2,-4.222099E-2,4.369272E-2,1.672117E-2,1.2603511E-1,6.7063555E-2,-5.597964E-2,-6.903319E-2,6.7414055E-3],"categories":[],"categories_nodes":[],"categories_segments":[],"categories_sizes":[],"default_left":[0,0,0,0,0,0,0,0,0,0,0,0,0,0,0,0,0,0,0,0,0,0,0,0,0,0,0,0,0],"id":43,"left_children":[1,3,5,7,9,11,13,15,17,-1,19,21,23,25,27,-1,-1,-1,-1,-1,-1,-1,-1,-1,-1,-1,-1,-1,-1],"loss_changes":[8.729681E0,1.1773636E1,9.184916E0,1.0072394E1,1.1335401E1,1.5073426E1,1.473752E1,6.8237467E0,8.67569E0,0E0,1.407863E1,8.943162E0,2.5931492E0,1.5792065E1,1.3817123E1,0E0,0E0,0E0,0E0,0E0,0E0,0E0,0E0,0E0,0E0,0E0,0E0,0E0,0E0],"parents":[2147483647,0,0,1,1,2,2,3,3,4,4,5,5,6,6,7,7,8,8,10,10,11,11,12,12,13,13,14,14],"right_children":[2,4,6,8,10,12,14,16,18,-1,20,22,24,26,28,-1,-1,-1,-1,-1,-1,-1,-1,-1,-1,-1,-1,-1,-1],"split_conditions":[4.4666668E1,5.3333335E0,3.5E1,5.5E0,2.18E1,3.98E1,4.3333335E0,1.3333334E0,6.25E0,1.2572525E-1,4.2333332E1,4.7E1,5E0,3.74E1,3.66E1,-2.6705636E-2,-1.8653714E-3,7.2985694E-2,-1.0584571E-1,-9.431842E-2,1.7630627E-2,-4.222099E-2,4.369272E-2,1.672117E-2,1.2603511E-1,6.7063555E-2,-5.597964E-2,-6.903319E-2,6.7414055E-3],"split_indices":[0,5,1,6,2,2,7,8,6,0,0,0,7,1,1,0,0,0,0,0,0,0,0,0,0,0,0,0,0],"split_type":[0,0,0,0,0,0,0,0,0,0,0,0,0,0,0,0,0,0,0,0,0,0,0,0,0,0,0,0,0],"sum_hessian":[5.9820386E3,3.9407007E3,2.0413381E3,3.886953E3,5.374775E1,6.885736E1,1.9724808E3,3.8587144E3,2.823851E1,2.5876193E0,5.116013E1,4.8938545E1,1.9918814E1,7.991541E1,1.8925654E3,1.12963646E2,3.7457507E3,2.6105139E1,2.133371E0,3.529457E1,1.586556E1,1.8920822E1,3.0017723E1,2.8461437E0,1.707267E1,1.1401856E1,6.851356E1,2.3383766E1,1.8691816E3],"tree_param":{"num_deleted":"0","num_feature":"9","num_nodes":"29","size_leaf_vector":"1"}},{"base_weights":[-4.8082625E-4,-1.2302143E-1,1.0035217E-2,-4.872539E-2,-5.371243E-1,2.2954711E-1,3.0199697E-4,-2.8158736E-1,1.2401943E-1,-1.0446484E0,-1.0292283E-1,3.255988E-1,-5.3751767E-1,-2.338401E-1,1.31041305E-2,3.7931185E-2,-3.932165E-2,1.0282784E-1,5.0536147E-3,-1.18452884E-1,3.011766E-2,4.9455665E-2,-6.929513E-2,2.643318E-2,1.5218915E-1,-1.0783719E-1,1.0918059E-1,9.62786E-2,-2.8417056E-2,5.6899585E-2,8.476454E-4],"categories":[],"categories_nodes":[],"categories_segments":[],"categories_sizes":[],"default_left":[0,0,0,0,0,0,0,0,0,0,0,0,0,0,0,0,0,0,0,0,0,0,0,0,0,0,0,0,0,0,0],"id":44,"left_children":[1,3,5,7,9,11,13,15,17,19,21,23,25,27,29,-1,-1,-1,-1,-1,-1,-1,-1,-1,-1,-1,-1,-1,-1,-1,-1],"loss_changes":[7.696856E0,1.4497298E1,1.1752759E1,1.6179447E1,1.5695196E1,1.7382551E1,1.5794808E1,1.2782265E1,1.53049135E1,6.5605583E0,1.4357995E1,1.4856144E1,2.441346E1,1.672586E1,1.2847582E1,0E0,0E0,0E0,0E0,0E0,0E0,0E0,0E0,0E0,0E0,0E0,0E0,0E0,0E0,0E0,0E0],"parents":[2147483647,0,0,1,1,2,2,3,3,4,4,5,5,6,6,7,7,8,8,9,9,10,10,11,11,12,12,13,13,14,14],"right_children":[2,4,6,8,10,12,14,16,18,20,22,24,26,28,30,-1,-1,-1,-1,-1,-1,-1,-1,-1,-1,-1,-1,-1,-1,-1,-1],"split_conditions":[2E0,1.98E1,1.25E0,9.2E0,2.35E1,2.62E1,1.47E1,1.25E0,9.6E0,3.1E1,1.5E1,2.51E1,2.5E-1,5.4E0,1.52E1,3.7931185E-2,-3.932165E-2,1.0282784E-1,5.0536147E-3,-1.18452884E-1,3.011766E-2,4.9455665E-2,-6.929513E-2,2.643318E-2,1.5218915E-1,-1.0783719E-1,1.0918059E-1,9.62786E-2,-2.8417056E-2,5.6899585E-2,8.476454E-4],"split_indices":[7,1,6,1,2,2,2,2,1,0,0,2,4,1,2,0,0,0,0,0,0,0,0,0,0,0,0,0,0,0,0],"split_type":[0,0,0,0,0,0,0,0,0,0,0,0,0,0,0,0,0,0,0,0,0,0,0,0,0,0,0,0,0,0,0],"sum_hessian":[5.970883E3,4.710592E2,5.4998237E3,4.0034854E2,7.071066E1,2.32551E2,5.267273E3,1.7023703E2,2.3011151E2,3.1954344E1,3.8756317E1,2.071831E2,2.5367895E1,2.7217197E2,4.995101E3,2.4252481E1,1.4598454E2,1.631775E1,2.1379376E2,2.905438E1,2.8999631E0,1.9336967E1,1.941935E1,1.9825084E2,8.932273E0,1.9299553E1,6.0683413E0,1.0253838E1,2.6191812E2,4.023295E1,4.9548677E3],"tree_param":{"num_deleted":"0","num_feature":"9","num_nodes":"31","size_leaf_vector":"1"}},{"base_weights":[-4.7735486E-4,-1.1065313E-1,1.0585282E-2,-7.541926E-2,-6.536963E-1,-9.779099E-2,1.2230202E-2,2.17376E-1,-1.2544665E-1,-7.827438E-1,1.675672E-1,2.5687036E-1,5.8454364E-3,1.5597729E-3,9.433537E-2,-3.8964555E-2,-1.130626E-3,1.1798797E-1,-9.1031305E-2,1.1186595E-1,1.0084855E-2,8.914237E-2,3.8649808E-4],"categories":[],"categories_nodes":[],"categories_segments":[],"categories_sizes":[],"default_left":[0,0,0,0,0,0,0,0,0,0,0,0,0,0,0,0,0,0,0,0,0,0,0],"id":45,"left_children":[1,3,5,7,9,-1,11,13,15,17,-1,19,21,-1,-1,-1,-1,-1,-1,-1,-1,-1,-1],"loss_changes":[7.27391E0,1.0369934E1,8.830393E0,7.5343385E0,1.1246054E1,0E0,8.457167E0,1.0994446E1,1.3214399E1,9.084801E0,0E0,1.8404173E1,9.254539E0,0E0,0E0,0E0,0E0,0E0,0E0,0E0,0E0,0E0,0E0],"parents":[2147483647,0,0,1,1,2,2,3,3,4,4,6,6,7,7,8,8,9,9,11,11,12,12],"right_children":[2,4,6,8,10,-1,12,14,16,18,-1,20,22,-1,-1,-1,-1,-1,-1,-1,-1,-1,-1],"split_conditions":[1.2E1,1.16E1,1.2E0,5E-1,2.6666667E0,-9.779099E-2,1.34E1,9.4E0,6.6666665E0,1.6666666E0,1.675672E-1,1.75E0,9.9E0,1.5597729E-3,9.433537E-2,-3.8964555E-2,-1.130626E-3,1.1798797E-1,-9.1031305E-2,1.1186595E-1,1.0084855E-2,8.914237E-2,3.8649808E-4],"split_indices":[1,1,8,5,6,0,1,1,0,0,0,8,2,0,0,0,0,0,0,0,0,0,0],"split_type":[0,0,0,0,0,0,0,0,0,0,0,0,0,0,0,0,0,0,0,0,0,0,0],"sum_hessian":[5.965961E3,5.435544E2,5.4224067E3,5.115056E2,3.2048756E1,8.022259E0,5.4143843E3,7.415478E1,4.3735083E2,3.0995564E1,1.053194E0,1.3671587E2,5.2776685E3,5.8826126E1,1.5328651E1,1.3121526E2,3.061356E2,1.3882786E0,2.9607285E1,2.0011593E1,1.1670427E2,1.077421E1,5.266894E3],"tree_param":{"num_deleted":"0","num_feature":"9","num_nodes":"23","size_leaf_vector":"1"}},{"base_weights":[-4.2651972E-4,-1.3675288E-2,8.630826E-2,-1.6974991E-2,4.0804398E-1,7.400098E-1,7.591929E-2,-1.3541735E-2,-1.0030453E0,-5.7330495E-1,5.785068E-1,-8.7949105E-2,1.0387393E0,-4.2552093E-1,9.8332845E-2,-1.1251327E-3,-1.2850659E-1,-6.818356E-2,-2.975052E-1,5.476227E-2,-2.161169E-1,2.1210121E-2,7.093651E-2,1.1160052E-1,3.4506936E-2,8.094158E-2,-5.976956E-2,2.818478E-2,4.4261753E-3],"categories":[],"categories_nodes":[],"categories_segments":[],"categories_sizes":[],"default_left":[0,0,0,0,0,0,0,0,0,0,0,0,0,0,0,0,0,0,0,0,0,0,0,0,0,0,0,0,0],"id":46,"left_children":[1,3,5,7,9,11,13,15,17,19,21,-1,23,25,27,-1,-1,-1,-1,-1,-1,-1,-1,-1,-1,-1,-1,-1,-1],"loss_changes":[6.8547754E0,7.2077966E0,5.3119593E0,1.7372314E1,7.058916E0,6.8406677E0,8.799246E0,1.4892782E1,9.249584E0,1.2670585E1,1.5162287E0,0E0,1.9384956E-1,7.612289E0,7.3965983E0,0E0,0E0,0E0,0E0,0E0,0E0,0E0,0E0,0E0,0E0,0E0,0E0,0E0,0E0],"parents":[2147483647,0,0,1,1,2,2,3,3,4,4,5,5,6,6,7,7,8,8,9,9,10,10,12,12,13,13,14,14],"right_children":[2,4,6,8,10,12,14,16,18,20,22,-1,24,26,28,-1,-1,-1,-1,-1,-1,-1,-1,-1,-1,-1,-1,-1,-1],"split_conditions":[6.3E1,1.05E1,3E1,6.8E0,4.88E1,5E0,4.2333332E1,1.0333333E1,7.54E1,8.25E0,5.58E1,-8.7949105E-2,8.25E0,4.3333335E0,4.5E0,-1.1251327E-3,-1.2850659E-1,-6.818356E-2,-2.975052E-1,5.476227E-2,-2.161169E-1,2.1210121E-2,7.093651E-2,1.1160052E-1,3.4506936E-2,8.094158E-2,-5.976956E-2,2.818478E-2,4.4261753E-3],"split_indices":[2,7,0,6,2,7,0,7,1,8,2,0,8,7,5,0,0,0,0,0,0,0,0,0,0,0,0,0,0],"split_type":[0,0,0,0,0,0,0,0,0,0,0,0,0,0,0,0,0,0,0,0,0,0,0,0,0,0,0,0,0],"sum_hessian":[5.9631646E3,5.173719E3,7.894451E2,5.1345044E3,3.921469E1,1.1251332E1,7.781938E2,5.1176997E3,1.6804846E1,5.453848E0,3.3760845E1,1.4494319E0,9.801901E0,3.2526215E1,7.4566754E2,5.109505E3,8.194952E0,1.5608257E1,1.1965888E0,3.5810099E0,1.8728378E0,9.574081E0,2.4186764E1,8.271699E0,1.5302017E0,3.5270472E0,2.8999166E1,1.6874426E2,5.7692334E2],"tree_param":{"num_deleted":"0","num_feature":"9","num_nodes":"29","size_leaf_vector":"1"}},{"base_weights":[-4.1686316E-4,-1.9364143E-2,5.5879567E-2,-7.305311E-4,-1.1292381E-1,8.3281666E-1,4.9898837E-2,-1.8004596E-2,1.749906E-1,-2.1912673E-1,7.722664E-2,1.0947464E0,-3.6109593E-2,-1.439854E-1,5.2527603E-2,6.676741E-5,-1.6443804E-2,3.6801957E-2,-8.632598E-3,-2.77675E-2,3.548592E-2,-2.034391E-1,9.632114E-3,3.0069277E-2,1.2192185E-1,-2.235797E-3,1.0264611E-2],"categories":[],"categories_nodes":[],"categories_segments":[],"categories_sizes":[],"default_left":[0,0,0,0,0,0,0,0,0,0,0,0,0,0,0,0,0,0,0,0,0,0,0,0,0,0,0],"id":47,"left_children":[1,3,5,7,9,11,13,15,17,19,21,23,-1,-1,25,-1,-1,-1,-1,-1,-1,-1,-1,-1,-1,-1,-1],"loss_changes":[6.357812E0,7.774459E0,6.932687E0,1.1294527E1,1.4974086E1,3.9608974E0,5.912813E0,9.263277E0,1.6830929E1,1.6077785E1,1.0927789E1,5.8208084E-1,0E0,0E0,5.590201E0,0E0,0E0,0E0,0E0,0E0,0E0,0E0,0E0,0E0,0E0,0E0,0E0],"parents":[2147483647,0,0,1,1,2,2,3,3,4,4,5,5,6,6,7,7,8,8,9,9,10,10,11,11,14,14],"right_children":[2,4,6,8,10,12,14,16,18,20,22,24,-1,-1,26,-1,-1,-1,-1,-1,-1,-1,-1,-1,-1,-1,-1],"split_conditions":[6.6E0,4E0,1.7E1,4.7333332E1,4.62E1,7.2E0,1.9666666E1,3.86E1,4.78E1,5E0,3.1666666E1,2E0,-3.6109593E-2,-1.439854E-1,3.3333334E-1,6.676741E-5,-1.6443804E-2,3.6801957E-2,-8.632598E-3,-2.77675E-2,3.548592E-2,-2.034391E-1,9.632114E-3,3.0069277E-2,1.2192185E-1,-2.235797E-3,1.0264611E-2],"split_indices":[8,5,0,0,2,8,0,1,2,6,0,5,0,0,4,0,0,0,0,0,0,0,0,0,0,0,0],"split_type":[0,0,0,0,0,0,0,0,0,0,0,0,0,0,0,0,0,0,0,0,0,0,0,0,0,0,0],"sum_hessian":[5.958448E3,4.4585293E3,1.4999188E3,3.7188752E3,7.396541E2,1.0401819E1,1.489517E3,3.386834E3,3.320413E2,4.7448956E2,2.6516452E2,8.598479E0,1.80334E0,1.6606791E0,1.4878563E3,3.0046902E3,3.821437E2,1.9073851E2,1.413028E2,4.3103857E2,4.3451E1,1.4304558E0,2.6373407E2,1.6280838E0,6.9703956E0,5.967557E2,8.9110065E2],"tree_param":{"num_deleted":"0","num_feature":"9","num_nodes":"27",